GIS
202
0.0
11
Comparison.Contrast
Expansion.Conjunction
Expansion.Instantiation
Expansion.Restatement
Temporal.Asynchronous
Contingency.Cause
Expansion.List
Comparison.Concession
Expansion.Alternative
Temporal.Synchrony
Contingency.Pragmaticcause
280
23 0
27 0 1
4 0 1 2
3 0 1 2 3
4 0 1 2 3 4
21 0 1 2 3 4 5
19 0 1 2 3 4 5 6
12 0 1 2 3 4 5 6 7
13 0 1 2 3 4 5 6 7 8
76 0 1 2 3 4 5 6 7 8 9
345 0 1 2 3 4 5 6 7 8 9 10
16 0 1 2 3 4 5 6 7 8 10
129 0 1 2 3 4 5 6 7 9
27 0 1 2 3 4 5 6 7 9 10
2 0 1 2 3 4 5 6 7 10
4 0 1 2 3 4 5 6 8
14 0 1 2 3 4 5 6 8 9
15 0 1 2 3 4 5 6 8 9 10
5 0 1 2 3 4 5 6 8 10
45 0 1 2 3 4 5 6 9
10 0 1 2 3 4 5 6 9 10
4 0 1 2 3 4 5 6 10
12 0 1 2 3 4 5 7
8 0 1 2 3 4 5 7 8
13 0 1 2 3 4 5 7 8 9
8 0 1 2 3 4 5 7 8 9 10
2 0 1 2 3 4 5 7 8 10
17 0 1 2 3 4 5 7 9
1 0 1 2 3 4 5 7 9 10
1 0 1 2 3 4 5 7 10
1 0 1 2 3 4 5 8
7 0 1 2 3 4 5 8 9
2 0 1 2 3 4 5 8 9 10
2 0 1 2 3 4 5 8 10
14 0 1 2 3 4 5 9
5 0 1 2 3 4 5 9 10
2 0 1 2 3 4 5 10
2 0 1 2 3 4 6
1 0 1 2 3 4 6 7 9
1 0 1 2 3 4 6 9 10
1 0 1 2 3 4 8
2 0 1 2 3 4 9
1 0 1 2 3 4 10
10 0 1 2 3 5
10 0 1 2 3 5 6
7 0 1 2 3 5 6 7
3 0 1 2 3 5 6 7 8
2 0 1 2 3 5 6 7 8 9
1 0 1 2 3 5 6 7 8 9 10
4 0 1 2 3 5 6 7 8 10
9 0 1 2 3 5 6 7 9
2 0 1 2 3 5 6 7 10
6 0 1 2 3 5 6 8
16 0 1 2 3 5 6 9
3 0 1 2 3 5 6 9 10
2 0 1 2 3 5 6 10
3 0 1 2 3 5 7
2 0 1 2 3 5 7 8
1 0 1 2 3 5 7 8 9
1 0 1 2 3 5 7 8 10
4 0 1 2 3 5 7 9
1 0 1 2 3 5 7 10
5 0 1 2 3 5 8
3 0 1 2 3 5 8 9
2 0 1 2 3 5 8 10
9 0 1 2 3 5 9
1 0 1 2 3 5 9 10
1 0 1 2 3 5 10
7 0 1 2 3 6 9
1 0 1 2 3 7 9
3 0 1 2 3 9
1 0 1 2 4 5 6 8 9
1 0 1 2 4 5 6 9
1 0 1 2 4 5 7
1 0 1 2 4 6
1 0 1 2 4 6 9
1 0 1 2 5 6
1 0 1 2 5 7
1 0 1 2 5 10
3 0 1 2 6
1 0 1 2 6 7 9
3 0 1 2 6 9
18 0 1 3
2 0 1 3 4
4 0 1 3 4 5
7 0 1 3 4 5 6
6 0 1 3 4 5 6 7
1 0 1 3 4 5 6 7 8 9
19 0 1 3 4 5 6 7 9
2 0 1 3 4 5 6 7 9 10
1 0 1 3 4 5 6 8
1 0 1 3 4 5 6 8 9 10
29 0 1 3 4 5 6 9
1 0 1 3 4 5 7
2 0 1 3 4 5 7 9
1 0 1 3 4 5 8
5 0 1 3 4 5 9
1 0 1 3 4 5 10
3 0 1 3 4 6
5 0 1 3 4 6 9
2 0 1 3 4 7
1 0 1 3 4 7 9
1 0 1 3 4 8 9
1 0 1 3 4 9
19 0 1 3 5
8 0 1 3 5 6
1 0 1 3 5 6 7
1 0 1 3 5 6 7 8
13 0 1 3 5 6 7 9
1 0 1 3 5 6 7 10
1 0 1 3 5 6 8
14 0 1 3 5 6 9
1 0 1 3 5 6 10
1 0 1 3 5 7
11 0 1 3 5 7 9
5 0 1 3 5 8
21 0 1 3 5 9
1 0 1 3 5 9 10
5 0 1 3 6
1 0 1 3 6 7
5 0 1 3 6 7 9
8 0 1 3 6 9
1 0 1 3 6 10
5 0 1 3 7
3 0 1 3 7 9
26 0 1 3 9
1 0 1 3 10
1 0 1 4
1 0 1 4 5
2 0 1 4 5 6
1 0 1 4 5 6 9
1 0 1 4 5 7 10
3 0 1 4 5 9
2 0 1 4 6
2 0 1 4 6 9
1 0 1 4 7
1 0 1 4 9
9 0 1 5
3 0 1 5 6
1 0 1 5 6 7 9
2 0 1 5 6 9
1 0 1 5 7
1 0 1 5 8
3 0 1 5 9
14 0 1 6
1 0 1 6 7
7 0 1 6 9
4 0 1 7
1 0 1 7 9
25 0 1 9
1 0 2 3
1 0 2 3 4 8
2 0 2 3 5
1 0 2 3 5 6
1 0 2 4
1 0 2 4 5
3 0 2 5
2 0 3
1 0 3 4
1 0 3 4 5
1 0 3 4 5 6 8
2 0 3 4 6
3 0 3 5
2 0 3 5 6
3 0 3 6
1 0 3 7
2 0 3 9
4 0 4
1 0 4 5
1 0 4 6
4 0 5
1 0 5 6
1 0 5 6 8
1 0 5 7
1 0 5 8
10 0 6
1 0 6 8
1 0 6 9
2 0 7
57 1
5 1 2
3 1 2 3
2 1 2 3 4
1 1 2 3 4 5
4 1 2 3 4 5 6
1 1 2 3 4 5 6 9
1 1 2 3 4 5 8
1 1 2 3 4 5 9
2 1 2 3 4 5 10
1 1 2 3 4 6
6 1 2 3 5
2 1 2 3 5 6
1 1 2 3 5 6 8
1 1 2 3 5 6 9
2 1 2 3 5 8
1 1 2 3 5 10
1 1 2 3 6
2 1 2 4
1 1 2 4 5 6 9
1 1 2 4 5 10
1 1 2 5
3 1 2 6
1 1 2 6 7
1 1 2 6 9
1 1 2 7
15 1 3
3 1 3 4
1 1 3 4 5
3 1 3 4 5 6 9
1 1 3 4 5 7
1 1 3 4 5 8
2 1 3 5
5 1 3 5 6
2 1 3 5 6 8
1 1 3 5 7 9
3 1 3 5 8
1 1 3 5 8 10
1 1 3 5 9
1 1 3 5 9 10
6 1 3 6
2 1 3 6 9
7 1 3 9
7 1 4
3 1 4 5
1 1 4 5 6
2 1 4 6
1 1 4 7 9
1 1 4 10
11 1 5
4 1 5 6
1 1 5 6 8
1 1 5 9
1 1 5 10
22 1 6
1 1 6 7
1 1 6 9
4 1 9
17 2
4 2 3
1 2 3 4 5
3 2 3 5
1 2 3 5 6 9
1 2 3 5 7
3 2 3 6
1 2 3 9
1 2 4
1 2 4 6 7
2 2 5
1 2 5 6
4 2 6
1 2 6 7
12 3
3 3 4
1 3 4 5
1 3 4 5 6
1 3 4 6
7 3 5
4 3 5 6
1 3 5 6 7
4 3 5 8
5 3 6
6 4
1 4 5
1 4 5 6
1 4 5 6 7
1 4 6
2 4 6 7
1 4 8
17 5
8 5 6
1 5 8
1 5 10
29 6
1 6 7
1 6 7 10
3 6 9
2 6 10
1 7
2 8
1 10
1843
first32_in_the_year-ago
JJ_->_net:12
NN_->_assurance:2
NN_->_assurance:1
loss_<-_<det>_<nmod:of>_<nmod:of>:2
loss_<-_<det>_<amod>_<nmod:of>_<nmod:of>:12
1.32_<-_<dep>_<dep>:2
JJ_->_Per-share:1
revenue_<-_<case>_<nmod:of>:12
CD_->_1?3/8:12
Friday_<-_<case>:12
said_<-_<nsubj>:12
VBN_->_ended:12
$_<-_<case>_<nummod>_<cc>_<conj:or>_<case>_<nummod>:12
tapes_<-_<case>_<det>:1
NN_->_assurance:12
net_<-_<nmod:of>_<nmod:of>:2
had_<-_<nsubj>_<dobj>_<nmod:on>:2
profit_<-_<nmod:of>_<nmod:of>:2
loss_<-_<det>_<amod>_<nmod:of>_<nmod:of>:2
NN_->_net:12
NNP_->_Computer:12
first32_in_the_year-earlier
increased_<-_<nsubj>_<dobj>_<nmod:to>_<nmod:from>:1
up_<-_<nmod:npmod>_<nmod:to>:1
last12_period_billion
share_year-earlier
ADVP_->_RB_NP_PP:12
WRB_->_When:12
last12_quarter_%
says_<-_<nsubj>_<ccomp>:12
point_index
cents_<-_<nummod>:12
first2_per-share
first12_in_now
$_<-_<case>_<nummod>_<cc>_<conj:or>_<case>_<nummod>:2
period_rise
$_<-_<case>_<nummod>_<cc>_<conj:or>:12
down_<-_<nmod:npmod>:12
period_<-_<case>_<det>_<amod>:12
first12_net_in
tapes_<-_<case>_<det>:2
last12_ago_million
VBP_->_include:12
JJ_->_likely:12
%_per-share
up_<-_<nmod:npmod>:12
first1_operating
first2_total
first31_it_expect_to
net_<-_<amod>:2
VP_->_VBD_RB_VP:12
rose_<-_<nsubj>_<nmod:to>_<nmod:from>:1
VP_->_VBD_ADVP_PP:12
NN_->_income:12
revenue_<-_<case>_<nmod:of>:2
or_period
NN_->_offering:2
VBP_->_include:1
last1_higher
said_<-_<nsubj>:2
first32_on_Friday_,
%_<-_<nummod>_<nmod:of>:2
last1_well
VBN_->_priced:2
last2_Inc
ADJP_->_RB_JJ:12
WP_->_What:1
last1_do
first2_these
a_send
JJ_->_federal:12
going_<-_<nsubj>_<aux>_<xcomp>:2
first12_the_if
RB_->_Now:1
RB_->_Now:2
IN_->_into:12
VBD_->_responded:2
VBD_->_responded:1
first1_what
VBD_->_followed:1
first12_the_when
PRP$_->_her:12
CD_->_One:2
first2_one
president_be
VP_->_VBD:12
PRP_->_It:12
NNP_->_Computer:1
gain_of
IN_->_In:12
period_to
._a
last1_yen
._->_.:1
._the
NN_->_chief:1
._of
NNS_->_yen:2
._to
first12_in_in
some_at
ADJP_->_JJ:12
NN_->_officer:1
TO_->_To:1
said_<-_<nsubj>_<ccomp>:1
loss_a
,_later
in_later
CD_->_1986:1
CD_->_22:1
million_<-_<compound>:12
some_say
-RRB-_->_-RCB-:2
's_say
NNS_->_investors:1
WP_->_What:2
have_''
VBZ_->_does:2
say_and
first2_what
VBG_->_going:2
-LRB-_->_-LCB-:2
NP_->_DT:12
first12_he_he
VBZ_->_says:1
or_to
IN_->_from:12
when_,
,_$
,_%
to_rise
NNS_->_shares:1
NN_->_loss:1
RBR_->_earlier:2
NN_->_president:1
say_the
VP_->_VBD_NP_PP:1
$_have
VBD_->_did:2
say_to
%_be
some_the
NP_->_QP_NNS:1
%_in
VP_->_VBD_S:1
in_%
NP_->_CD:12
%_of
when_the
NN_->_income:2
NNP_->_Corp.:1
NN_->_sale:1
MD_->_may:1
NN_->_%:1
%_to
MD_->_would:12
$_and
they_'s
VBD_->_said:1
have_say
VP_->_MD_VP:12
but_of
share_,
CD_->_15:1
the_sale
say_say
of_say
of_million
share_share
%_the
million_<-_<compound>_<compound>:2
a_sale
a_%
from_from
in_sale
some_,
WDT_->_which:1
:_->_;:1
share_a
S_->_PP_,_NP_VP:12
NP_->_NP_,_NP:1
NP_->_DT_CD_NNS:2
VP_->_VBD_NP_PP_PP:2
first1_a
NP_->_CD_NN:1
PRT_->_RP:12
NP_->_EX:1
a_rise
first2_for
some_of
ADVP_->_RB_NP:1
and_%
in_million
say_,
WP_->_what:1
$_<-_<case>_<nummod>:2
ADJP_->_CD_NN:1
of_%
$_of
VB_->_be:12
for_%
VP_->_VBZ_NP:2
PRP$_->_his:12
VP_->_VBZ_NP:1
ADVP_->_RB:2
ADVP_->_RB:1
not_it
SBAR_->_IN_S:2
be_not
the_the
other_to
VP_->_MD_RB_VP:2
VP_->_MD_RB_VP:1
SBAR_->_IN_S:1
some_be
the_rise
NP_->_PRP:12
first2_it
,_,
first2_in
that_they
VP_->_VBD_VP:12
VP_->_VBD_PP:2
VP_->_VBD_PP:1
NP_->_$_CD:2
VP_->_VBP_ADJP:1
VP_->_VBP_ADJP:2
be_say
he_the
VP_->_VB_ADJP:2
VP_->_VB_ADJP:1
NNS_->_shares:2
,_at
IN_->_from:1
IN_->_from:2
VP_->_VB_S:1
VP_->_VB_S:2
not_to
share_to
NP_->_NNP:1
NP_->_NNP:2
``_be
VBD_->_was:1
VBD_->_was:2
do_be
first2_the
a_the
$_->_$:2
$_->_$:1
NP_->_NNP_NNP:2
''_be
NP_->_NNP_NNP:1
,_share
VP_->_VBD_NP_PP:2
ADJP_->_RB_JJ:2
ADJP_->_RB_JJ:1
he_in
of_from
VP_->_VBD_PP_PP:2
VBD_->_did:1
IN_->_that:2
IN_->_that:1
VP_->_VBP_VP:1
VP_->_VBP_VP:2
be_$
be_%
be_,
not_be
first2_Mr.
NP_->_QP_NNS:2
PP_->_TO_NP:12
S_->_VP:2
S_->_VP:1
VP_->_VBD_SBAR:2
VP_->_VBD_SBAR:1
VP_->_TO_VP:12
MD_->_will:2
be_a
MD_->_will:1
PRP_->_We:2
VP_->_VBD_S:2
,_to
VP_->_VBZ_RB_VP:1
VP_->_VBZ_RB_VP:2
first1_we
a_Mr.
S_->_VP:12
in_$
he_Mr.
VP_->_VBD_NP:12
they_,
have_,
VP_->_VBP_VP:12
CC_->_or:1
CC_->_or:2
have_a
from_,
PRP$_->_his:1
the_they
PRP$_->_his:2
to_the
the_say
MD_->_may:2
NN_->_%:2
VP_->_VBG_NP:2
VP_->_VBG_NP:1
million_<-_<compound>:2
the_million
first1_for
SBAR_->_WHADVP_S:1
SBAR_->_WHADVP_S:2
but_to
NP_->_NNP:12
the_%
the_$
the_,
PRP_->_they:2
PRP_->_they:1
VBD_->_said:2
MD_->_would:2
MD_->_would:1
first1_in
the_not
VP_->_VBZ_VP:12
first1_he
NNS_->_months:2
NP_->_NP_PP:1
's_$
VBP_->_are:1
NN_->_market:1
VBP_->_are:2
NN_->_market:2
NP_->_NP_PP:2
VP_->_VBZ_ADJP:1
VP_->_VBZ_ADJP:2
not_they
NP_->_QP:2
PP_->_IN_NP:12
MD_->_will:12
MD_->_could:1
MD_->_could:2
PRP_->_It:1
VP_->_VB:1
VP_->_VB:2
at_the
PRP_->_It:2
a_say
the_and
PRP_->_he:1
PRP_->_he:2
SBAR_->_WHNP_S:2
SBAR_->_WHNP_S:1
PRP_->_it:12
NP_->_NP_PP:12
VP_->_VB_NP:12
PRP_->_we:1
ADJP_->_JJ:1
NP_->_CD_NNS:2
NP_->_CD_NNS:1
,_->_,:12
at_,
ADJP_->_JJ:2
NP_->_PRP:1
NP_->_PRP:2
IN_->_into:1
IN_->_into:2
be_year
to_$
to_%
earnings_$
and_''
VBZ_->_is:1
VBZ_->_is:2
RB_->_n't:1
RB_->_n't:2
S_->_PP_,_NP_VP:1
S_->_PP_,_NP_VP:2
,_say
first1_and
a_$
be_''
ADVP_->_RB:12
NNP_->_Mr.:1
NNP_->_Mr.:2
VP_->_VBP_NP:1
VP_->_VBP_NP:2
not_the
Mr._,
VP_->_VBD_NP:2
VP_->_VBD_NP:1
to_to
and_Mr.
NP_->_CD:1
%_<-_<nummod>:2
NP_->_CD:2
but_,
NP_->_NP_,_NP_,:2
NP_->_NP_,_NP_,:1
DT_->_the:12
he_and
,_->_,:2
,_->_,:1
a_be
VBZ_->_'s:1
VBZ_->_'s:2
PP_->_IN_NP:2
PP_->_IN_NP:1
WDT_->_which:2
IN_->_at:1
IN_->_at:2
some_a
NP_->_NNP_NNP_NNP:1
NP_->_DT_NN:2
NP_->_NNP_NNP_NNP:2
NP_->_DT_NN:1
first1_the
the_even
in_Mr.
VP_->_VB_NP:1
VP_->_VB_NP:2
QP_->_CD_CD:2
VP_->_VBG_S:2
VP_->_VBG_S:1
,_''
VBP_->_do:1
VBP_->_do:2
first2_a
first2_I
IN_->_In:2
IN_->_In:1
CD_->_million:2
to_be
WHADVP_->_WRB:2
WHADVP_->_WRB:1
PRP_->_it:1
IN_->_that:12
RB_->_not:1
RB_->_not:2
PRP_->_it:2
not_that
CC_->_But:1
first1_Mr.
and_the
a_or
PRT_->_RP:1
PRT_->_RP:2
NP_->_NP_,_NP:2
VP_->_TO_VP:1
VP_->_TO_VP:2
,_Mr.
first1_but
but_be
in_the
a_to
,_the
S_->_CC_NP_VP:1
,_from
QP_->_$_CD_CD:2
VP_->_VBD_RB_VP:1
not_,
SBAR_->_WHNP_S:12
VP_->_VBP_RB_VP:1
VP_->_VBP_RB_VP:2
not_a
but_a
NP_->_CD_NN:2
be_be
first2_they
first1_I
NNP_->_Friday:1
''_->_'':1
''_->_'':2
be_at
Mr._the
VBD_->_was:12
NP_->_EX:2
be_one
NP_->_NNP_NNP:12
CC_->_&:1
first2_that
the_''
be_market
VP_->_VBZ:2
VP_->_VBZ:1
first1_that
VP_->_VBZ_VP:1
VP_->_VBZ_VP:2
NNP_->_Mr.:12
ADJP_->_JJ_S:2
ADJP_->_JJ_S:1
be_they
a_million
he_,
SBAR_->_IN_S:12
NN_->_year:2
,_cent
VP_->_VBP_S:2
VP_->_VBP_S:1
to_from
PP_->_TO_NP:2
PP_->_TO_NP:1
be_Mr.
VBP_->_have:1
VBP_->_have:2
VBZ_->_is:12
VP_->_MD_VP:2
VP_->_MD_VP:1
$_be
a_from
VB_->_get:2
NNS_->_cents:2
and_,
VP_->_VBD:1
be_to
be_the
DT_->_some:1
DT_->_some:2
some_to
Mr._Mr.
be_of
VBZ_->_says:2
,_million
S_->_SBAR_,_NP_VP:2
S_->_SBAR_,_NP_VP:1
and_of
VP_->_VBD_VP:2
VP_->_VBD_VP:1
be_in
PRP_->_he:12
MD_->_can:1
MD_->_can:2
DT_->_the:1
DT_->_the:2
first2_we
VB_->_be:1
VB_->_be:2
of_$
from_to
NN_->_share:1
NP_->_DT_NN:12
NN_->_share:2
VBD_->_had:2
VBD_->_had:1
NP_->_DT:1
NP_->_DT:2
the_from
CD_->_five:1
PRP_->_We:1
RB_->_n't:12
IN_->_If:1
of_we
''_->_'':12
PRP_->_we:2
VBZ_->_does:1
to_we
be_we
PRP_->_you:1
the_we
JJ_->_net:2
first1_this
VBP_->_'re:1
be_if
last1_million
first2_on
CD_->_billion:1
CD_->_billion:2
$_up
name_be
DT_->_these:1
NP_->_CD_NN:12
billion_to
say_``
MD_->_could:12
last1_earlier
share_from
RBR_->_earlier:1
VBD_->_fell:1
VP_->_VBD_PP_PP:1
the_billion
$_$
$_,
$_a
year_million
VBN_->_named:1
million_'s
on_share
earlier_million
say_of
share_cent
year_<-_<det>:1
CD_->_One:1
PP_->_IN_NP_NP:1
VBD_->_reported:1
with_$
VBD_->_rose:2
NP_->_NP_NP:12
million_million
SBAR_->_WHADVP_S:12
NN_->_income:1
from_$
from_%
%_year
WHADVP_->_WRB:12
earlier_to
RB_->_up:1
RB_->_up:2
to_sale
million_a
million_<-_<compound>:1
NN_->_vice:2
$_million
at_million
CD_->_billion:12
million_$
million_,
,_sale
year_from
from_million
VB_->_sell:2
million_the
year_year
share_$
NP_->_CD_NNS:12
at_at
for_billion
IN_->_at:12
%_$
%_%
%_,
NP_->_DT_NN_RBR:1
said_<-_<nsubj>_<ccomp>:2
last1_share
at_$
$_'s
the_net
last2_million
from_year
$_<-_<case>_<nummod>_<case>_<nummod>:2
NNS_->_sales:1
$_for
$_->_$:12
last2_%
%_<-_<nummod>:1
QP_->_CD_TO_CD:1
QP_->_CD_TO_CD:2
loss_$
NN_->_%:12
loss_million
years_<-_<nummod>:1
years_<-_<nummod>:2
VP_->_VBD_NP_PP:12
NNP_->_Inc.:1
CD_->_million:12
a_into
QP_->_CD_CD:1
VP_->_VBD_ADVP_PP:1
share_the
last1_year
million_be
CD_->_million:1
$_billion
billion_billion
VBP_->_have:12
VP_->_VBD_SBAR:12
billion_<-_<compound>_<compound>:2
of_sale
million_in
QP_->_$_CD_CD:1
NN_->_quarter:2
CD_->_30:1
QP_->_$_CD_CD:12
VP_->_VBD_NP_PP_PP:1
to_billion
NN_->_year:12
month_to
year_sale
million_of
early_,
year_%
year_$
or_$
million_to
million_with
or_million
earlier_$
$_in
NP_->_NP_,_CC_NP:1
million_have
$_on
$_the
for_$
$_to
last2_year
CD_->_five:2
DT_->_these:2
in_from
NN_->_president:2
for_from
$_with
first2_some
year_<-_<det>:2
DT_->_Some:2
the_&
report_$
of_share
first12_the_the
NNS_->_months:1
NP_->_QP:1
year_to
for_rise
NP_->_QP:12
NP_->_NP_NP:2
NP_->_NP_NP:1
CC_->_&:2
NN_->_year:1
VP_->_VBD:2
,_rise
some_in
they_one
VB_->_get:1
first1_under
do_they
VBP_->_need:2
PRP_->_they:12
%_<-_<compound>:2
%_<-_<compound>:1
share_%
CD_->_15:2
VBD_->_closed:2
last2_say
she_she
:_->_;:2
VBG_->_going:1
VP_->_VBD_S:12
PRP$_->_your:2
PRP$_->_her:1
PRP$_->_her:2
ADJP_->_CD_NN:2
to_you
last2_share
NNS_->_investors:2
a_share
TO_->_To:2
Friday_<-_<case>:1
be_Inc.
be_Co.
NNP_->_Inc.:2
._->_.:2
a_cent
the_you
share_<-_<det>:2
WP_->_what:2
first2_to
first2_you
VP_->_VBZ_RB_NP:1
PRP_->_you:2
be_you
VP_->_VB_S:12
rise_%
rise_$
month_from
trading_$
to_gain
from_rise
compared_<-_<mwe>:2
million_share
NP_->_NP_,_CC_NP_,:2
DT_->_Some:1
PP_->_IN_NP_NP:2
VBD_->_reported:2
VBD_->_rose:1
NNP_->_Corp.:2
first1_within
of_billion
$_year
first1_some
year_<-_<case>_<det>_<amod>:2
%_rise
a_revenue
from_billion
,_president
,_revenue
at_%
month_$
VBN_->_compared:2
VBD_->_closed:1
year_billion
%_million
VP_->_VBZ_ADJP:12
RB_->_later:1
a_billion
,_billion
million_or
last1_%
ADVP_->_RB_NP_PP:2
up_<-_<nmod:npmod>:2
CD_->_22:2
VBD_->_advanced:2
ADJP_->_CD_NN:12
NP_->_NP_,_NP_,:12
rise_to
up_$
$_or
for_or
VBD_->_fell:2
of_Inc.
VBD_->_had:12
NN_->_officer:2
VP_->_VBG_NP:12
be_president
some_and
ADVP_->_RB_NP:2
NP_->_NP_,_CC_NP:2
MD_->_ca:1
the_if
VP_->_VBD_ADVP_PP:2
NNP_->_Friday:2
last2_problem
WRB_->_When:2
VBD_->_earned:2
CD_->_nine:2
JJ_->_federal:2
first2_after
first2_when
IN_->_After:2
IN_->_After:1
1986_<-_<case>:2
CD_->_1986:2
cents_<-_<nummod>:2
NN_->_loss:2
-RRB-_->_-RCB-:1
analyst_the
share_have
-LRB-_->_-LCB-:1
other_say
NN_->_market:12
says_<-_<nsubj>_<ccomp>:1
WRB_->_When:1
share_in
but_''
Mr._say
VB_->_sell:1
early_the
he_say
say_not
for_sale
not_say
VP_->_VBD_RB_VP:2
first1_when
first12_but_the
not_he
that_say
DT_->_that:2
CC_->_And:1
NP_->_DT_CD_NNS:1
to_Mr.
other_and
other_,
first2_if
IN_->_If:2
NN_->_offering:1
last1_say
loss_from
ended_<-_<nmod:tmod>:2
early_in
NN_->_sale:2
JJ_->_federal:1
last2_billion
VBN_->_ended:2
they_''
quarter_<-_<case>_<det>_<amod>:2
say_from
VBG_->_trying:1
CD_->_30:2
$_include
$_<-_<case>_<nummod>:1
share_<-_<det>_<det>:2
VBG_->_trying:2
RB_->_later:2
JJ_->_important:2
analyst_a
DT_->_that:1
some_'s
analyst_be
be_recently
NN_->_share:12
but_say
the_.
try_,
last2_it
VBP_->_'re:2
gain_the
analyst_,
VP_->_VBD_PP:12
's_billion
NP_->_DT_NN_RBR:2
name_Mr.
name_have
first1_meanwhile
year_<-_<det>_<advmod>:2
month_billion
%_<-_<compound>:12
million_up
say_%
the_period
down_<-_<nmod:npmod>:2
VBD_->_announced:2
they_New
the_revenue
JJ_->_likely:2
first2_last
Friday_<-_<case>:2
and_later
VBD_->_closed:12
VBD_->_said:12
NP_->_NNP_NNP_NNP:12
VBD_->_followed:2
said_<-_<ccomp>_<nsubj>:2
profit_%
report_share
first32_last_year_,
ADVP_->_NP_RBR:2
first1_many
some_this
going_<-_<nsubj>_<aux>_<xcomp>:1
earlier_<-_<nmod:npmod>:2
NN_->_volatility:1
NN_->_volatility:2
last2_now
first1_moreover
last2_yen
SINV_->_S_,_''_VP_NP:2
CD_->_1?3/8:2
MD_->_can:12
first2_although
still_say
NNS_->_sales:12
MD_->_may:12
._be
with_say
VP_->_VBP_NP:12
ADVP_->_NP_RBR:1
JJ_->_unchanged:1
first1_even
VBP_->_need:1
the_need
%_<-_<nummod>_<nummod>:1
VP_->_VBZ_NP:12
RB_->_not:12
PRP$_->_your:1
NNS_->_sales:2
VP_->_VB:12
VBP_->_are:12
not_on
not_we
VBZ_->_'s:12
be_can
compared_<-_<mwe>:1
NP_->_NP_,_CC_NP_,:1
VBN_->_ended:1
last1_ago
million_<-_<compound>_<compound>:1
VBN_->_compared:1
year_rise
up_<-_<nmod:from>:2
or_from
and_even
JJ_->_likely:1
first1_other
says_<-_<ccomp>_<nsubj>:2
''_say
;_to
JJ_->_Other:1
PRP_->_We:12
first2_New
%_increase
share_rise
VBD_->_increased:2
VB_->_yield:1
NN_->_Revenue:2
VBD_->_gained:2
rise_rise
first2_revenue
period_<-_<case>_<det>_<amod>:2
or_rise
%_net
or_%
earlier_%
first2_even
%_<-_<nummod>_<nummod>:2
MD_->_ca:2
cents_<-_<nummod>_<dep>:2
says_<-_<nsubj>_<ccomp>:2
VP_->_VBZ_RB_NP:2
NP_->_DT_``_NN_'':1
some_``
some_''
S_->_SBAR_,_NP_VP:12
NP_->_EX:12
not_''
profit_from
JJ_->_important:1
VBP_->_include:2
income_<-_<amod>:1
NN_->_quarter:1
quarter_to
last2_work
last1_rally
first1_because
analyst_of
S_->_CC_NP_VP:2
last1_there
first2_investor
they_say
share_sale
first1_not
RB_->_Not:1
NN_->_net:2
quarter_$
VBD_->_increased:1
of_period
analyst_say
earnings_from
compare_from
RB_->_Not:2
said_<-_<nsubj>:1
of_cent
first32_it_be_not
JJ_->_unchanged:2
VB_->_yield:2
VBD_->_climbed:2
earlier_billion
rose_<-_<nsubj>_<nmod:to>_<nmod:from>:2
earlier_rise
CD_->_1/8:2
million_<-_<compound>_<compound>:12
ago_from
VBD_->_fell:12
$_<-_<case>_<nummod>_<cc>_<conj:or>_<case>_<nummod>_<cc>_<conj:or>:1
DT_->_some:12
VBD_->_climbed:1
first2_now
VBN_->_eliminated:2
rise_billion
yen_to
week_<-_<advmod>_<amod>:2
first2_japanese
state_$
CD_->_21.5:2
earn_from
first1_soviet
RB_->_up:12
first1_elsewhere
rose_<-_<nsubj>_<dobj>:2
first31_third-quarter_net_income
CD_->_nine:12
VBN_->_priced:12
loss_or
million_period
$_earn
income_rise
IN_->_If:12
months_<-_<case>_<det>_<nummod>:2
third-quarter_billion
$_year-earlier
NP_->_NP_,_CC_NP:12
revenue_share
area_<-_<case>_<det>_<compound>_<compound>:2
quarter_cent
compare_rise
NN_->_Revenue:12
quarter_or
VP_->_VBD_ADVP_,_S:1
$_<-_<case>_<nummod>:12
VBD_->_plunged:1
NNS_->_investors:12
president_<-_<nmod:of>:1
from_earlier
vice_be
billion_from
SINV_->_S_,_''_VP_NP:1
WDT_->_which:12
about_%
yen_yen
NP_->_DT_``_NN_'':2
VBD_->_announced:1
$_loss
million_loss
net_of
1986_<-_<case>:1
first1_earlier
a_net
%_<-_<nummod>_<nmod:of>:1
NP_->_$_CD:12
$_%
net_a
net_,
$_from
net_$
NN_->_vice:1
million_%
million_from
cent_a
share_million
earlier_from
cent_the
million_for
net_to
year_<-_<det>_<advmod>:1
third-quarter_to
NNS_->_cents:1
NP_->_$_CD:1
share_<-_<det>:1
first12_they_they
for_cent
$_share
VBD_->_jumped:1
share_or
a_period
year_revenue
or_or
cent_,
year_<-_<case>_<det>_<amod>:1
million_billion
million_year
billion_%
%_billion
month_%
income_<-_<amod>:2
VBD_->_gained:1
JJ_->_Other:2
cent_cent
first2_other
VP_->_VBD_NP_PP_PP:12
billion_<-_<compound>_<compound>:1
%_from
or_share
NNS_->_yen:1
rise_from
ADVP_->_RB_NP_PP:1
NNS_->_cents:12
earlier_sale
rose_<-_<nsubj>_<dobj>:1
CC_->_or:12
VBZ_->_needs:1
$_sale
net_the
VBN_->_priced:1
NN_->_net:1
fall_from
$_net
cent_share
to_revenue
first2_today
company_<-_<det>_<amod>_<compound>:1
,_request
NNS_->_yen:12
%_<-_<nummod>:12
NP_->_NP_,_NP:12
QP_->_CD_CD:12
million_net
NP_->_QP_NNS:12
NN_->_sale:12
first1_before
loss_%
VB_->_comment:1
VP_->_VBD_PP_PP:12
last1_30
third-quarter_from
index_<-_<det>:1
revenue_have
revenue_on
revenue_or
first1_third-quarter
third-quarter_%
investors_<-_<det>:1
quarter_billion
third_billion
WP_->_what:12
a_earn
last1_cent
DT_->_that:12
increase_<-_<case>_<det>:2
NNS_->_months:12
NP_->_NP_,_CC_NP_,_ADVP:2
NP_->_DT_CD_NNS:12
VBD_->_earned:1
last1_period
first12_the_that
period_<-_<case>_<det>_<amod>:1
yen_<-_<case>_<nummod>_<case>_<nummod>:2
up_<-_<nmod:npmod>:1
cents_<-_<nummod>:1
NN_->_request:2
earlier_<-_<nmod:npmod>:1
down_<-_<nmod:npmod>:1
cent_$
NNS_->_personnel:1
cent_from
cents_<-_<nummod>_<dep>:1
NNS_->_Sales:2
$_rise
JJ_->_net:1
CC_->_&:12
cent_million
first2_sale
from_sale
income_to
cent_to
VBP_->_do:12
PRP_->_you:12
$_revenue
NNS_->_shares:12
a_year-earlier
rise_sale
cent_%
million_cent
million_revenue
NP_->_NP_,_CC_NP_,:12
JJ_->_year-earlier:2
$_cent
income_million
%_sale
rose_<-_<nsubj>_<dobj>_<nmod:to>_<nmod:from>:1
share_revenue
third_$
NN_->_quarter:12
ended_<-_<nmod:tmod>:1
fall_$
$_<-_<case>_<nummod>_<cc>_<conj:or>:1
first2_analyst
quarter_<-_<case>_<det>_<amod>:1
$_<-_<case>_<nummod>_<case>_<nummod>:1
compare_$
JJ_->_year-earlier:1
net_from
million_sale
share_<-_<det>_<det>:1
first32_we_do_not
VP_->_VBP_RB_NP:2
first31_there_be_no
first31_they_do_not
VBZ_->_does:12
first1_net
cent_or
net_share
from_revenue
nine_to
income_%
quarter_%
CD_->_nine:1
last12_million_million
year-earlier_$
quarter_share
months_<-_<case>_<det>_<nummod>:1
or_sale
share_billion
quarter_from
%_revenue
or_billion
year-earlier_from
for_revenue
or_cent
$_<-_<case>_<nummod>_<cc>_<conj:or>_<case>_<nummod>_<cc>_<conj:or>:2
third_%
VBN_->_eliminated:1
earn_$
the_year-earlier
million_year-earlier
Warsaw_<-_<case>:1
net_loss
income_$
ago_%
net_million
rose_<-_<nsubj>_<dobj>_<nmod:to>_<nmod:from>:2
up_<-_<nmod:from>:1
cent_revenue
gained_<-_<nsubj>_<dobj>_<nmod:to>:1
first12_for_for
QP_->_CD_TO_CD:12
JJ_->_Net:2
last12_%_%
first2_net
VBD_->_rose:12
NNP_->_Friday:12
NN_->_loss:12
first31_a_few_year
quarter_<-_<case>_<det>_<amod>:12
declined_<-_<nsubj>_<xcomp>:2
loss_<-_<det>_<amod>_<nmod:of>_<nmod:of>:1
net_%
net_sale
net_rise
profit_<-_<amod>:1
nine_or
cent_sale
first12_for_revenue
$_<-_<case>_<nummod>_<cc>_<conj:or>_<case>_<nummod>_<cc>_<conj:or>_<nmod:tmod>:1
income_from
month_fall
income_billion
$_period
first32_sale_for_the
net_net
net_or
NN_->_Revenue:1
a_comment
income_revenue
nine_from
nine_billion
period_$
nine_$
nine_%
cents_<-_<nummod>_<dep>_<nummod>_<dep>:1
first31_for_the_nine
first1_revenue
last12_earlier_billion
cent_billion
net_cent
$_<-_<case>_<nummod>_<cc>_<conj:or>:2
billion_net
VB_->_get:12
he_later
NN_->_request:1
first12_a_a
later_<-_<nmod:npmod>:2
share_<-_<det>:12
later_<-_<nmod:npmod>:1
old_<-_<nmod:npmod>:1
from_yen
VBD_->_did:12
yen_from
billion_<-_<compound>_<compound>:12
first12_Robert_Mr.
February_<-_<case>_<nummod>:1
point_would
nine_of
loss_<-_<det>_<nmod:of>_<nmod:of>:1
compare_billion
investors_<-_<det>:2
$_<-_<case>_<nummod>_<cc>_<conj:or>_<case>_<nummod>:1
index_at
loss_share
period_from
CD_->_1?3/8:1
NNP_->_Corp.:12
bond_<-_<det>_<amod>_<amod>:1
million_rise
ADJP_->_JJ_S:12
share_issue
NNS_->_Sales:1
declined_<-_<nsubj>_<xcomp>:1
profit_billion
period_%
net_revenue
compared_<-_<mwe>:12
last12_share_share
first31_the_benchmark_30-year
VBN_->_compared:12
yen_billion
VBD_->_gained:12
earn_to
first1_Apple
CD_->_1/8:1
VBZ_->_says:12
billion_yen
%_<-_<nummod>_<nummod>:12
S_->_S_NP_VP:1
notes_<-_<det>_<amod>_<amod>:2
said_<-_<nsubj>_<ccomp>:12
VB_->_yield:12
cents_<-_<nummod>_<dep>:12
earlier_revenue
or_revenue
PP_->_IN_NP_NP:12
cent_rise
CD_->_1?1/4:1
index_<-_<det>:2
said_<-_<ccomp>_<nsubj>:1
first32_he_decline_to
revenue_<-_<case>_<nmod:of>:1
remain_<-_<nsubj>_<aux>_<xcomp>:2
$_<-_<case>_<nummod>_<case>_<nummod>:12
first12_net_sale
VB_->_comment:2
RBR_->_earlier:12
last12_share_billion
month_revenue
VBD_->_reported:12
1.32_<-_<dep>_<dep>:1
nine_revenue
net_billion
nine_rise
ADVP_->_RB_NP:12
period_billion
JJ_->_Net:1
up_<-_<nmod:npmod>_<nmod:from>_<nmod:from>:1
NP_->_DT_NN_RBR:12
first12_for_sale
net_<-_<nmod:of>_<nmod:of>:1
first12_net_revenue
owns_<-_<nsubj>_<dobj>:1
last12_earlier_million
NP_->_NP_,_CC_NP_,_ADVP:1
fell_<-_<nsubj>_<dobj>_<nmod:to>_<nmod:from>:2
month_rise
nine_share
they_Corp.
looking_<-_<nsubj>_<aux>_<nmod:for>:2
first1_analyst
last1_too
NNP_->_Computer:2
some_&
analysts_<-_<det>:1
some_New
first2_General
some_York
first32_a_year_earlier
CD_->_30:12
first12_he_when
designed_<-_<xcomp>:2
PRP_->_we:12
VB_->_assist:1
joined_<-_<advmod>_<nsubj>_<dobj>:1
-LRB-_->_-LCB-:12
area_<-_<case>_<det>_<compound>_<compound>:1
-RRB-_->_-RCB-:12
first31_the_fund_'s
first31_it_be_``
JJ_->_abundant:1
NNP_->_Pioneer:1
third_<-_<det>:2
first2_unfortunately
up_<-_<nmod:npmod>_<nmod:to>:2
remain_<-_<nsubj>_<aux>_<xcomp>:1
NN_->_guide:1
first12_before_now
came_<-_<nsubj>_<xcomp>:1
VBD_->_withdrew:1
first2_suddenly
NN_->_north:1
possible_<-_<advmod>:2
%_<-_<nummod>_<nmod:of>:12
profit_<-_<nmod:of>_<nmod:of>:1
last1_quality
argue_<-_<nsubj>_<ccomp>:1
's_request
say_<-_<nsubj>_<aux>_<neg>_<ccomp>:2
looking_<-_<nsubj>_<aux>_<nmod:for>:1
IMF_they
JJ_->_unchanged:12
NN_->_request:12
Turkey_<-_<case>:1
1/8_to
did_<-_<nsubj>_<xcomp>:2
did_<-_<nsubj>_<xcomp>:1
request_million
exports_<-_<case>:1
request_$
request_request
unchanged_<-_<nsubj>_<cop>_<nmod:at>:2
last2_disclose
had_<-_<nsubj>_<dobj>_<nmod:on>:1
were_<-_<nsubj>_<advmod>:2
were_<-_<nsubj>_<advmod>:1
2000_<-_<case>:1
CD_->_1/8:12
10,000_<-_<dep>:1
TO_->_To:12
NP_->_NP_,_CC_NP_,_ADVP:12
maximum_<-_<det>_<nmod:of>:2
maximum_<-_<det>_<nmod:of>:1
costing_<-_<dep>_<dobj>:2
costing_<-_<dep>_<dobj>:1
first12_the_revenue
rose_<-_<nsubj>_<dobj>_<nmod:to>_<nmod:from>:12
yen_<-_<case>_<nummod>_<case>_<nummod>:12
$_<-_<nummod>_<cc>_<conj:or>_<advmod>_<case>_<nummod>_<cc>_<conj:or>_<nmod:tmod>:1
JJ_->_Per-share:2
VBN_->_donated:2
VBN_->_donated:1
VBD_->_increased:12
year-earlier_revenue
first31_for_the_third
line_<-_<nmod:poss>:2
containing_<-_<dobj>:1
JJ_->_abundant:2
CD_->_1986:12
yen_<-_<case>_<nummod>_<case>_<nummod>_<case>_<nummod>:1
pretax_from
1986_<-_<case>:12
first32_per-share_net_rise
yen_net
first12_third-quarter_sale
$_slip
income_<-_<compound>:2
NNP_->_Byrd:12
last12_amount_%
yen_income
men_<-_<det>_<case>:2
VB_->_comment:12
MD_->_ca:12
first32_revenue_be_$
rose_<-_<nsubj>_<dobj>:12
months_<-_<case>_<det>_<nummod>_<appos>:1
VBN_->_donated:12
said_<-_<ccomp>_<nsubj>:12
said_<-_<ccomp>_<ccomp>_<nsubj>:1
center_<-_<case>_<det>_<amod>_<amod>:2
NNS_->_Sales:12
VBG_->_Operating:1
million_<-_<case>_<compound>:12
volume_<-_<amod>:2
NP_->_NN_NN_NN_NNS:1
NP_->_NN_NN_NN_NNS:2
first32_revenue_rise_to
fell_<-_<nsubj>_<dobj>_<nmod:to>_<nmod:from>:1
CD_->_22:12
VBN_->_eliminated:12
made_<-_<nsubj>_<ccomp>:2
10,000_<-_<dep>:2
prices_<-_<det>_<compound>:2
earth_<-_<case>:2
says_<-_<ccomp>_<ccomp>_<nsubj>:2
too_say
some_Corp.
analyst_''
first12_bond_the
president_<-_<nmod:of>:2
president_<-_<cc>_<conj:and>:2
close_<-_<case>_<nmod:poss>:2
VP_->_VBZ:12
company_<-_<det>_<amod>_<compound>:2
._,
be_vice
VBD_->_jumped:2
VP_->_VBP_RB_NP:1
NN_->_chief:2
they_Co.
VBD_->_plunged:2
CD_->_1?1/4:2
first1_advertiser
analysts_<-_<det>:2
Treasury_<-_<det>_<case>:2
first12_but_this
cents_<-_<nummod>_<dep>_<nummod>_<dep>:2
earnings_revenue
gained_<-_<nsubj>_<dobj>_<nmod:to>:2
VP_->_VB_ADJP:12
VP_->_VBG_S:12
NNS_->_personnel:2
but_want
first2_maybe
first1_still
CD_->_5/8:2
name_president
NNP_->_Vice:2
VBD_->_advanced:1
they_&
VP_->_VBP_ADJP:12
first32_the_Ministry_of
yen_%
Aeroflot_<-_<case>:2
NNP_->_Ehrlich:1
first2_another
some_president
2000_<-_<case>:2
jumped_<-_<nsubj>_<dobj>_<nmod:to>_<nmod:from>:2
jumped_<-_<nsubj>_<dobj>_<nmod:to>_<nmod:from>:1
million_<-_<case>_<compound>:2
$_<-_<nummod>_<cc>_<conj:or>_<advmod>_<case>_<nummod>_<cc>_<conj:or>_<nmod:tmod>:2
CD_->_15:12
rate_<-_<det>_<compound>:2
rose_<-_<nsubj>_<dobj>_<nmod:to>_<nmod:to>_<nmod:from>_<nmod:from>:1
yen_<-_<case>_<nummod>_<case>_<nummod>:1
wake_<-_<case>_<det>_<nmod:of>:1
first31_the_Treasury_'s
VBD_->_jumped:12
exports_<-_<case>:2
estimated_<-_<nsubjpass>_<auxpass>_<nmod:at>:2
made_<-_<nsubj>_<ccomp>:1
NN_->_guide:2
NN_->_offering:12
CD_->_five:12
DT_->_these:12
VBN_->_named:2
president_president
NN_->_president:12
VB_->_sell:12
Treasury_<-_<det>_<case>:1
VP_->_VBZ_RB_VP:12
VP_->_MD_RB_VP:12
says_<-_<ccomp>_<nsubj>:1
Pentagon_<-_<det>_<case>:2
VP_->_VBP_RB_VP:12
week_<-_<advmod>_<amod>:1
construction_for
first1_do
first12_this_he
year-earlier_to
last2_view
VBP_->_'re:12
first31_this_be_not
first32_you_have_to
profit_<-_<amod>:2
first1_how
state_million
last12_yen_yen
West_million
year_<-_<det>:12
NNP_->_Appropriations:1
Appropriations_of
West_$
billion_rise
fell_<-_<nsubj>_<dobj>_<nmod:to>_<nmod:to>_<nmod:from>_<nmod:from>:2
fell_<-_<nsubj>_<dobj>_<nmod:to>_<nmod:to>_<nmod:from>_<nmod:from>:1
last1_speculation
increased_<-_<nsubj>_<dobj>_<nmod:to>_<nmod:from>:2
up_<-_<nmod:npmod>_<nmod:from>_<nmod:from>:2
income_sale
Warsaw_<-_<case>:2
named_<-_<nsubjpass>_<auxpass>_<dobj>:1
vice_president
came_<-_<nsubj>_<xcomp>:2
girlfriend_<-_<case>_<nmod:poss>:1
NN_->_vice:12
name_vice
first32_he_have_be
VBD_->_withdrew:2
last1_split
last1_April
CD_->_5/8:1
NN_->_officer:12
IN_->_atop:1
NNP_->_Vice:1
grounds_<-_<case>_<amod>:1
first12_it_there
option_<-_<det>_<acl>:2
pretax_to
eye_<-_<det>:2
last1_morning
containing_<-_<dobj>:2
last1_expense
year-earlier_billion
income_<-_<compound>:1
owns_<-_<nsubj>_<dobj>:2
VBG_->_Operating:2
Turkey_<-_<case>:2
targets_<-_<amod>:2
NNP_->_Byrd:2
NNP_->_Appropriations:2
VP_->_VBP_S:12
option_<-_<det>_<acl>:1
NN_->_aluminum:2
Byrd_of
NNP_->_Inc.:12
VBN_->_named:12
$_request
funds_<-_<amod>_<amod>:1
receive_<-_<nsubj>_<aux>_<dobj>:2
says_<-_<ccomp>_<nsubj>:12
million_<-_<case>_<compound>:1
named_<-_<nsubjpass>_<auxpass>_<dobj>:2
military_request
21.5_million
%_yen
21.5_of
yen_rise
SINV_->_S_,_''_VP_NP:12
CD_->_21.5:1
trade_<-_<det>_<amod>:2
yen_<-_<nummod>_<nummod>:1
NNP_->_Byrd:1
million_request
CD_->_1?1/4:12
and_Ministry
first12_the_volume
volume_<-_<compound>_<compound>_<compound>_<compound>:1
net_<-_<amod>:1
up_<-_<nmod:from>:12
year_<-_<det>_<advmod>:12
share_<-_<det>_<det>:12
Wald_<-_<compound>:12
Wald_<-_<compound>:2
$_<-_<case>_<nummod>_<cc>_<conj:or>_<case>_<nummod>_<cc>_<conj:or>_<nmod:tmod>:2
VBG_->_trying:12
end_<-_<mark>_<nsubj>_<aux>_<nmod:by>:2
still_New
prices_<-_<det>_<compound>:12
fund_record
year_<-_<advmod>_<det>_<appos>:2
NNP_->_Wald:2
Carson_<-_<compound>:2
trader_head
bond_<-_<det>_<amod>_<amod>:2
NNP_->_Carson:2
life_<-_<nmod:on>:2
NNP_->_Wald:12
race_<-_<det>_<amod>:2
first31_meanwhile_,_the
last1_though
wake_<-_<case>_<det>_<nmod:of>:2
said_<-_<ccomp>_<ccomp>_<nsubj>:2
February_<-_<case>_<nummod>:2
first31_that_be_the
first32_it_be_like
CC_->_But:2
government_at
first31_the_result_be
eye_<-_<det>:1
Smith_<-_<compound>_<case>:1
Aeroflot_<-_<case>:1
S_->_S_NP_VP:2
joined_<-_<advmod>_<nsubj>_<dobj>:2
president_<-_<cc>_<conj:and>:1
first2_consider
authority_<-_<det>_<amod>_<compound>:2
three_<-_<compound>_<dep>:2
Wald_<-_<compound>:1
advanced_<-_<nsubj>_<dobj>_<nmod:to>:2
:_->_;:12
NNP_->_Wald:1
prices_<-_<det>_<compound>:1
RB_->_later:12
funds_<-_<amod>_<amod>:2
Opponents_<-_<nmod:of>:2
NNS_->_Opponents:2
jumped_<-_<nsubj>_<dobj>_<nmod:to>_<nmod:from>:12
years_<-_<nummod>:12
CC_->_But:12
first31_what_be_more
yen_<-_<nummod>_<nummod>:2
NNP_->_Pioneer:12
income_<-_<amod>:12
JJ_->_ineffective:2
NP_->_NN_CC_NN_VBG_NN:2
rate_<-_<det>_<compound>:1
girlfriend_<-_<case>_<nmod:poss>:2
designed_<-_<xcomp>:1
first1_John
IN_->_atop:2
S_->_CC_NP_VP:12
VBZ_->_needs:12
VBP_->_need:12
NN_->_volatility:12
NNP_->_Pioneer:2
argue_<-_<nsubj>_<ccomp>:2
first2_lend
VBG_->_going:12
PRP$_->_your:12
NP_->_NN_NNS_NN:1
increase_<-_<case>_<det>:1
VBZ_->_needs:2
last1_anymore
first1_nor
last1_yet
last2_relationship
NN_->_famine:2
receive_<-_<nsubj>_<aux>_<dobj>:1
work_<-_<nsubj>_<nmod:in>:1
work_<-_<nsubj>_<nmod:in>:2
NN_->_north:2
NP_->_NN_CC_NN_VBG_NN:1
VBD_->_plunged:12
year_<-_<case>_<det>_<amod>:12
confirm_<-_<mark>_<dobj>:1
VP_->_VBD_ADVP_,_S:2
close_<-_<case>_<nmod:poss>:1
confirm_<-_<mark>_<dobj>:2
center_will
old_<-_<nmod:npmod>:2
tell_she
Carson_<-_<compound>:1
NNP_->_Carson:1
announcement_<-_<nmod:poss>:1
last1_comparable
vary_<-_<nsubj>_<advmod>_<nmod:by>:2
indications_<-_<det>_<compound>:1
first31_these_rate_indication
last12_comparable_location
going_<-_<nsubj>_<aux>_<xcomp>:12
first32_after_all_,
CC_->_And:2
comparable_<-_<nsubj>_<cop>_<neg>_<advmod>:1
last2_location
practices_<-_<amod>:2
first32_lend_practice_vary
announcement_<-_<nmod:poss>:2
Treasury_<-_<det>_<case>:12
location_<-_<case>:2
NNS_->_surpluses:1
first12_these_lend
possible_<-_<advmod>:1
managers_<-_<nmod:poss>:1
Pentagon_<-_<det>_<case>:1
IMF_IMF
trade_<-_<det>_<amod>:1
increase_IMF
men_<-_<det>_<case>:1
JJ_->_ineffective:1
NNS_->_surpluses:2
grounds_<-_<case>_<amod>:2
NN_->_famine:1
NNS_->_personnel:12
Opponents_<-_<nmod:of>:1
Appropriations_request
Appropriations_$
VB_->_assist:2
three_<-_<compound>_<dep>:1
end_<-_<mark>_<nsubj>_<aux>_<nmod:by>:1
managers_<-_<nmod:poss>:2
advanced_<-_<nsubj>_<dobj>_<nmod:to>:1
Aeroflot_<-_<case>:12
authority_<-_<det>_<amod>_<compound>:1
earth_<-_<case>:1
state_request
VP_->_VBZ_RB_NP:12
Smith_<-_<compound>_<case>:2
line_<-_<nmod:poss>:1
year_<-_<advmod>_<det>_<appos>:1
NNP_->_Appropriations:12
targets_<-_<amod>:1
NP_->_NN_NNS_NN:2
unchanged_<-_<nsubj>_<cop>_<nmod:at>:1
Appropriations_million
life_<-_<nmod:on>:1
center_<-_<case>_<det>_<amod>_<amod>:1
third_<-_<det>:1
DT_->_Some:12
did_<-_<nsubj>_<xcomp>:12
race_<-_<det>_<amod>:1
NNP_->_Ehrlich:2
NN_->_aluminum:1
glass_will
volume_<-_<compound>_<compound>_<compound>_<compound>:2
battery_be
first1_opponent
NNS_->_Opponents:1
NNP_->_Ehrlich:12
say_<-_<nsubj>_<aux>_<neg>_<ccomp>:1
notes_<-_<det>_<amod>_<amod>:1
NN_->_aluminum:12
18.99740319468124
14.343882624301468
65.78421934428457
55.53902231662392
14.247792117435228
8.705171928965221
12.688433800348763
61.316712218898346
13.666318010128998
73.23721108583611
56.87331293432707
59.197950561993814
55.50416418103887
10.56081056461499
81.97664544972372
55.986047358487255
16.53883563426034
44.832377563808045
23.49814653134409
17.745171947101404
12.882975612211002
65.99259835833726
17.4539558874306
3.010578445990276
25.951371558426388
41.90053406943097
7.717294837896043
7.998813420208611
8.35440805889615
12.476992215965414
-0.8078361351754939
26.620316203654962
9.195330168081764
51.23773516333069
40.276260097253726
53.94132259015012
-13.736855626491636
22.450811655993064
27.18486949132581
55.18438411794608
3.8651770137730113
32.43627903313233
-17.933738273500236
-8.374192521494523
19.569805723524915
49.299575050191265
-2.815462402912552
18.565910431455958
1.8640670328163123
-7.568542487797592
8.67797102820408
7.03711913991782
7.401646764118615
49.99129960089152
26.20644745829547
15.590302373631346
12.279329569775873
14.0333177655453
-5.643423042253315
61.41979130730558
28.44800789315953
-2.2999529087700874
9.363162284132226
38.205319731272084
1.1265222020270764
61.32320394552894
44.44422148046659
-15.18555844947022
17.544905239066946
34.30419354301954
-0.7896204060488218
-0.7086267584499681
18.280630053266556
-6.916103790838075
31.504487693790725
-13.697650458611218
47.71531234873386
0.898375273962906
13.355416349667113
28.89437275464614
31.524442147813527
26.976404428264974
10.571734390408368
32.87796038581101
-0.4932873399619213
78.01076753167303
12.769419521598573
21.8946632231509
58.16746195652064
23.071162755601073
2.477038245136418
16.482597327210524
6.3032118236565795
15.786167202967086
-18.914478187601286
14.763565464495324
5.271057250930125
14.102818590416568
-3.5589791799491692
25.077681515540142
-13.56296471630349
16.417520693040306
8.174354074496327
0.7300955019893748
21.22662496089564
12.565899470618799
26.42716428122472
11.366603424658795
25.834129691052304
5.595335477640772
-3.462822511319443
-13.140193965112656
17.180540448857354
47.811707964933966
-1.7702459525926568
9.225923435250943
-13.269281850697102
-4.244667065463422
18.276356990467193
26.178801990292527
-2.3587093700080164
-9.961793616598884
-11.33150263071847
-4.6436485832339205
-23.460963528887152
54.4769795664001
3.1507214359511178
-17.245885119788586
10.7144408076554
-6.32718295942475
14.14944006251271
5.118957722624988
3.9165049582471627
7.650826669198273
-17.204076378604285
40.19281411514128
15.302070869842025
-15.82539544979366
-26.222616792701295
-19.904711273533817
15.571244837681329
22.385986763266065
9.480048866507016
6.8571606674172365
-53.43516454401896
-4.145168622308657
-13.764625559350403
19.933204613896407
-2.0040715491316785
0.5117908145088811
13.418500173657325
19.475892866166923
6.890190966101883
-12.52721691629441
0.7723413307542246
-7.67350867230662
6.629018604381131
25.471597081242873
-65.47398340123893
12.681037816563991
16.84762910206146
11.319408047065956
-3.6573848060874705
-25.921398681935283
-63.98520347541587
-20.54113304430881
21.478419815822992
-14.368567860694457
25.81544305309179
2.229114524042479
-12.538184001820444
-31.036253200282765
33.422084665648704
-37.00337646641156
8.358959125502995
-12.650458457476727
-8.498392731916063
22.445082331501503
-26.987360823876678
65.60170307606923
-32.65665468714999
-9.89190163195134
-5.929652669713487
29.510863160923755
-22.34961739456255
43.67578382576005
-32.416774029245296
-3.9171110360302075
-40.613856081718865
-47.24181793497613
2.549848457449638
-9.739841146132825
26.10274282150828
-4.827497336373827
-28.256975562451178
-6.737261252707529
-30.893103102221655
37.540628227518454
20.934420924955717
-19.348295601377334
4.945296785026018
22.126866558371596
1.5441225039366309
-32.72442667075155
12.971249337444089
51.38095930993183
-33.69406774153247
-42.70816664486776
-95.33317036199634
-53.543091770442814
2.911776664316853
8.347948520543497
5.500309221614796
-6.549353685200264
6.498468379230603
49.41843119022136
-45.9781518378654
-17.393481687477134
-30.76129710169618
-18.321064410659407
-30.2238317579848
68.79758190609272
-31.38588344357247
-1.8682356269407046
-16.319611422290084
2.4901866243240773
19.034667740047123
39.31936925755616
-22.631756522127205
19.884334733542254
-43.580160404231705
5.858099489622965
17.60443416442073
0.44339194596095916
3.318292230789265
5.817240825712125
-6.463925793219978
-1.6814206334630448
-0.3212068165144599
45.66746686901388
-4.62335052811644
7.498511948735619
-17.995955877614875
-26.759753774317016
0.46020593883403715
46.736711791438964
-2.8384760842540313
-32.37240927105559
25.15643002480637
11.316001945687832
-24.873086009163632
16.472130785128826
-22.850115761164062
21.715031353768275
-12.116461024500657
-0.9186894510284982
36.384145905244445
4.9295560122818145
-4.541867037011211
-33.31574547780599
4.194432701164888
-11.381163209514085
4.689804070840894
33.868581887035546
7.262782084142735
-9.439124893189861
-27.262164159887572
-17.513477497946884
14.841180941470526
0.5398182015302937
-56.133127704213805
-3.968064969498305
22.262672677569384
3.5564456833236022
-23.544291934419775
-11.180886629664885
14.357796800420676
-31.622343925854185
18.5753412050104
-12.966910166694595
-1.5991588916028558
10.391443827165698
-5.240547636533423
-0.4082820711797732
-34.74337705211632
23.767459412378745
8.479765653274821
-15.636336622226215
45.2347045629129
-5.925943537435821
14.198382615687638
-7.44653496912127
-35.29633191541574
-9.086001301930496
-36.92504383077357
50.61377168770924
-24.16959865714147
25.467409299696463
-4.63178824725904
-51.54570580274381
5.453050986205429
3.965342037704324
-24.018923083484456
14.640273171696137
-3.557195304035325
-5.723243531596791
-29.129355437379346
34.67053766912208
-19.642416888152546
22.977763257221984
5.779375835970788
11.496390656497056
-18.88796794730106
-52.93695323161449
-5.413499455407475
-9.447690692485683
34.8183387546484
-25.481816517716187
0.21117556963999196
-13.924423987210183
-7.666886343017035
24.497603227565005
-21.59682745316998
51.66515080737619
-40.862132806465546
11.73811163150604
-9.4743500254616
1.4791311331388641
-3.17103259463202
-14.526950310794428
21.64436960325153
-25.72770633865189
5.12484389903359
-30.3964366387386
-17.51138820851525
-12.746292713030105
-17.611785028470475
54.01329675503244
-36.294546675639616
4.985118212800843
-6.9535697129699825
-23.306227289060068
11.73753480215237
-18.313122705068913
58.628734198943114
-7.251588054939451
16.442794427412952
-23.969852220968374
-23.270550619663595
32.64029623594248
-10.03504644888379
6.765015636716488
-22.29894580870148
4.147894775967688
-16.834788319042694
-9.327744939142708
12.32655567017332
-71.3234640110365
54.7532984429689
-8.037516880918703
2.247083105305635
-26.2911102700627
31.670407752449787
-30.800751672727166
-0.9295459881396997
3.743913609606113
-19.564412506733643
-1.6694471537134166
-14.346879541276419
-34.06522124740036
27.98192289845762
-5.709192606213534
48.73416740193971
20.060282858857533
-6.570149943436423
-10.189320811306676
-32.79587682577343
31.42428545001719
-23.284083717920776
33.3190832432257
-36.63542754168998
-23.300395591469503
27.33379366601168
-3.3753919821597287
-20.798117366963442
-4.4829447922044405
9.663867928203116
2.728477905973696
-8.124853110083825
5.745455410655766
-10.879326778443902
-1.2499741590218933
-33.38541990990026
14.162903438472162
20.431178924966364
-20.2989451731434
-1.79176647025555
12.723777281638512
-43.468337256337165
-14.936925993882827
17.19899978457272
-7.325021368718822
19.01347331860297
15.6963625435962
-15.067655549956859
-2.334239433921735
-20.87100212589944
-6.264804770213601
24.561313160365437
14.630644054209355
19.67113761855342
7.540866895668901
9.929546639642089
14.633239390030617
-28.64312026360234
-5.39470596965482
-7.589084969849336
-37.39787906672554
-5.557446284207337
18.972343266443996
11.998780607850648
-8.990166042957593
-47.802667168371656
7.548611923297587
-7.982300093581095
-5.1542468828573025
1.9445393550742263
27.436916771001492
16.62105455112947
-0.35366818462782623
-24.149109206499574
-32.85129268269113
40.691657088670766
-53.144386542869135
-16.966420063651107
24.410395065654168
-7.057236371200955
-11.945598497263648
-26.036414927421376
-25.596839376767406
45.62672554500304
-55.627238356094466
3.7383242802923635
47.67422038316256
2.058681079927501
-7.399827687252337
-10.514814360248234
-12.938341378036998
37.857232540407296
-12.585415222141869
38.29981838196992
42.279651706701806
-21.268878511832757
19.56246270527539
-2.1004927964997573
-19.157870221345362
-10.401283230948502
-14.236617213239619
-8.689395534578228
21.641872203752765
15.8674801447014
-3.9963670601078904
-11.01608751996562
-12.774356534450169
6.342487408333522
-23.1641237961119
10.516241669520973
-17.320307475146873
-16.499901879271548
-26.460438839818785
30.046588208349622
-55.25377541610757
-3.4116195613619182
-52.308772581052146
13.184428594674674
40.859660993476574
-11.117584677667283
-22.535250837598188
-12.799564292423641
4.752704019649506
-29.72350677590828
20.304859878748406
1.5402965384873282
-30.06121893024709
-8.655798514162042
-3.9474447956252994
-9.137553822795075
20.454041840873796
7.4001546466697405
-1.4403780170757021
-20.639063531802666
-9.96561082455755
29.371941055367948
26.541537807623378
-9.254568037016345
-13.987692017990668
-8.16139950337696
10.721112413088134
-10.753198531084921
19.779511104718093
-17.94464716745372
-59.360164996049264
-50.92816393816122
-7.039737542251702
-19.847438790275056
-6.607767077285603
-2.1211878883481945
-35.724684253678426
21.132851280859818
-21.794396414888162
8.817236480575662
4.1715412417944755
-8.30111731680957
-0.6756355955701667
18.224469125496714
4.191692824894002
-30.98447523395146
-0.6607112060661486
-15.766453493445942
-30.70333124322101
-1.0561554913170972
7.799981743100155
-4.776758416189548
3.9820147986706274
2.795961214513315
-21.091848123637075
6.227247208099989
7.211909383302193
2.674592238613535
-7.429349619967541
7.91346896940003
13.93440197207086
-0.1600258698132735
-5.574849709298499
-2.76653560848197
-21.14046625913801
-10.24187523792815
-25.090067343711134
-8.691694420591377
-9.148013254069918
-15.625549616585793
-17.652975547026312
-3.1322669274101864
-39.10503992414707
21.399628313176294
2.031275179886457
5.296595437205882
15.594530195251625
5.475960218647881
-21.477725639623987
-8.984526583082358
6.131488774448394
-21.95645743659601
15.40119564503147
-44.53081254048953
-14.291081081630299
-40.27191131081597
-11.885930205060983
-19.11009927545775
-13.30854877880638
4.174530470078052
-30.45578283974967
20.344918587649044
0.7965393379149966
-31.289342867369427
-10.142683335843488
-15.132836199807924
-4.1527100287724785
-25.160413128097783
2.6941385754545046
-9.580629286999939
6.898163083457532
33.30341653717359
12.057080357062436
38.10108042484818
-35.69895967579647
21.957745273854652
0.5282153818413027
-7.787235433967174
4.486436495515841
-17.4872186475846
38.63878633094743
-22.265577310905005
10.63070397357574
15.486237627162724
14.360287034772876
-21.95293321060172
-5.320548363285472
-8.971862110012001
-26.343250222498632
5.882916960918962
21.588670963474787
13.5781355694708
3.213790642029187
4.260593126926666
-8.350539845102583
-8.11126742896834
-8.448865980454272
4.597404207746002
-0.8447011229374166
-11.9089384586113
-37.17024199052129
0.5828724936254837
0.3990381464303514
6.56115893553605
-12.545085436819663
-4.710413718208407
-7.480114022375369
-17.651066864767937
-5.417489533861159
-0.8908486444148477
-13.032866129122091
2.363035447927155
-8.890686635684656
-4.065411253005501
-18.00029160554438
-5.120833185665732
26.81995718768234
7.04686967646343
-0.9349570562433902
6.1042001702768305
10.34170940556514
1.4794955998662767
0.5923645465901801
-0.5720802028381389
3.323604163101479
2.361523237565084
10.028571514399482
-0.2432733686412929
3.7679412845384905
-4.178054801394355
-15.367678661235598
7.747310057740043
1.9302099689332275
2.9996530832504895
-0.097883157814874
5.419942169520797
-5.83303145286774
-10.049392844609455
6.756901698366624
-11.066555941425653
-21.0482073921927
2.080078202567453
0.6409549259780998
7.122207667539176
-0.5053144978118433
3.1071399687157464
-11.2050437978546
-7.318789246368652
-22.755993345850175
-17.35388343598673
-8.070072935060077
-22.452705593418923
5.4230876462438635
10.85987585320461
-29.00755417817982
-17.01656391994235
-17.2666733171163
7.651310246947855
2.2840848151317554
-17.621269152410278
-43.59326618677809
-2.461219845925321
8.1030779992867
0.7931583645636393
-23.122871258693632
-2.893877449778377
-48.873683796780625
5.359457518850114
-12.829209419475498
21.21861507624172
10.03329579359738
-12.345129537032813
3.6095794700942543
1.360739216715836
5.46901635929327
-0.9356545899935091
-19.764695716559526
11.621983633123879
-40.44196041227786
-24.323230000343372
-9.804650126053126
-18.174740871809206
4.847438486930578
8.062043372250772
-54.73088729819146
-6.722933219426071
15.917195874853412
2.3165867416029813
-51.30222741336617
-1.250049388725977
-19.469446567381862
-3.5661359817869096
9.960685069326255
11.481345714356939
-5.963970175315485
-14.70838967296108
11.150291679767333
-16.95726705240983
2.9119807561674946
16.96855841784564
-10.648079090395159
-59.93126614578559
1.4879703668463566
8.248399967176491
-26.569447558766992
-1.7068882207262712
12.693229786588462
3.114146346700557
-2.0085563015961414
-11.231152375932428
-48.92444469708939
-15.807821908580614
5.597593933107691
2.4858123450298764
-16.023809432199776
-1.6524748767035362
-13.579397504331247
5.56216435421444
-30.894345238968345
13.567957041699671
-18.723005694030256
-1.024142659550945
25.057449911120802
-7.989423989578993
-7.72747861889229
4.063397095202575
3.882265249265341
-6.48509664577969
-8.80910987452198
-7.01096486999459
-44.80210719443849
-45.07255137850078
11.065411750968524
11.127392743384672
0.22378118937028235
-13.07967619411428
0.96039438917719
-17.383020367168655
-29.078297904863764
15.567195861586555
-4.739442105355254
-7.488101293429984
6.250377514217673
7.2434749364780115
-14.386889147695111
-3.248179928207758
-42.781842389577946
-1.9199178221071613
10.79350080139064
-19.492009413101016
-44.783751750580116
4.287635347916835
-0.984306225738786
-4.455628149674174
12.122547986428735
3.8713240831355953
-13.467953105207354
-0.5823430724115792
-13.059221365126971
12.557204153100102
-8.637755686743366
-0.45646148853249824
3.8317559950003486
15.281939001183419
-41.009061875300915
-8.262234940951705
-0.602507582038446
-4.179253257294921
0.49272932529382985
-71.40031951844885
-60.35780844886487
-7.3470249456497
4.387451641474496
3.99165231125278
-11.967097929350071
-1.724839785322057
-1.0019321919480086
4.424321370363561
1.2975055847061623
-41.245138326166604
-21.46786140816223
-7.179335719392396
6.230208592051024
7.819920285409899
-26.076241254027615
-7.5110365389273595
12.521188810608411
4.759244807037558
-13.613498812039447
3.500708454149668
-18.475510110283345
-9.90667114308326
8.241295848321247
-0.01915007081422848
3.937926754646201
5.353782586971086
7.42463058382124
-12.268266386718064
4.927492025601978
-12.446130722294138
-0.44124693954737826
-12.588683651490955
10.113405200403076
9.803988102496936
-40.85378713737151
-25.86566759020795
22.3495442822185
-50.063043706389564
29.58302498605394
-21.677205044863697
-25.859396072930704
7.550306209700661
0.3582089275428375
8.632652471349655
-21.02403378974746
-1.1584483642604213
-37.638836000064394
1.2883613317259872
11.090333750828682
-9.830675307517756
-29.424005932270532
-22.06298439428975
-5.31850559944958
-3.5693960965590996
-19.238444428598577
-2.906763092203281
23.251655719305194
4.306662525466105
15.964200663689425
8.428673559023016
-8.09439921160794
9.505587391367953
-0.30613712874005783
2.8732796419287
6.506354514146931
1.901310328424056
0.11356543712753076
6.18329904604845
-16.27870758241224
-16.397733115373413
-4.529780626897033
-42.46926733402664
7.093594972996364
1.919828915979794
-24.04744013330373
6.540849761901715
0.19573523662195447
1.298265738293598
1.9368329291452255
3.1877126744781332
-36.1433369890582
-7.005744207183895
3.9305607576069006
13.83610417408207
-34.79452705498921
-3.600746438341177
7.467325090544607
-18.42667485474963
-27.650751655564665
27.976381850072492
-5.1531997640027845
-1.8840700490507376
-12.236604221553204
-4.803018167307856
-6.3410311885177855
8.228397429669105
-24.342254599421395
15.880501146489621
-22.773223803993737
-64.40684097688546
-31.636207708440672
-8.585609948026338
7.818842064186111
7.979885815859799
-34.78041585660028
-7.761758525874579
-18.461140325896817
-0.1520241031359557
2.4194817574540513
-21.47108140155994
-59.71428727846726
-0.57702566813238
1.0049434672315023
4.872203739296558
-14.925523709159808
-11.832067186524492
-2.956226344275358
3.706703897536278
9.906226236718574
-6.835393897311666
-32.59609027444596
5.200168866334327
-11.089925641073046
11.09913850777133
-27.749940730607154
-6.073830238188966
13.413420932065023
0.8080719070801123
27.573165652249465
-38.105053178435
-22.03673442536383
12.49312879752979
-0.1537207112352834
0.5341266744807891
-35.54564657658229
14.904610332525046
5.080544820164434
-10.486131577503526
-0.23743981999144004
13.909052223396074
-24.945565234728218
-3.7968962345614203
-0.5921584306841727
-2.0520758957552263
24.910443532107767
-5.395565744133846
-0.6574623101575299
-6.004035253927514
-8.826542756631925
-34.003191455072766
0.2616826331688823
13.004819856096635
12.30836033978886
15.310841989759956
-35.12024589269679
-18.155465279072097
3.737502403997101
-35.62574176329592
-6.03476542157639
17.39370537811352
-48.66989115650518
-2.639684310157481
-2.2486080194603617
8.509877892073781
19.25356069042121
-8.784958213268242
-33.13911329617056
-22.259563280184686
7.735419196400381
-22.432194478828265
-14.966085294890489
28.932516292844998
-5.842288929732306
8.362060503114087
-15.980573564080535
0.976465209004771
3.458714192467928
3.7814112861169464
15.176275460540303
-20.03072762469591
-43.747892635631544
-11.173004263922344
-5.864043304179992
-8.36476966388083
12.20850286051373
0.8822772092438176
-7.217449338241288
7.75458901615368
-15.269673490270334
-22.214171761541497
2.1547190682556225
-9.809984840539897
1.267900016849413
6.477981239941999
-6.448195921902357
0.1023821304861614
-1.9755345817537577
-6.4237183680835095
-19.765127010867765
-47.43381325725043
3.119299546305234
14.425655108417997
7.176561628472907
16.172174467462646
-15.680563438620608
-32.08648441208388
-3.910110808099054
-7.108775250643943
-11.692198793479962
-5.589818527485901
-10.512385762687572
-0.5700486920539003
-5.307916446482997
3.918421477859485
6.675336657192879
5.4570657159716145
-28.8754893657937
-0.3983818673881685
-38.280576961029375
-10.821051300702711
-29.16877036414303
11.771151007689943
16.274938235273837
12.283596953403691
5.365157895343334
-50.659610752268335
-13.262184956797329
-103.67970317200755
16.26175417368464
6.517883463330961
38.70810079991886
6.406030772989312
6.2491416920776075
3.9976925844953026
15.56055975303849
0.4202528362246851
-59.41769764486328
-13.618823813933172
-24.57647875364152
4.391555472946442
-31.469168682526607
13.066821593532708
3.541671011640267
-0.43041434572200865
7.3680015557007685
0.5060232073098745
2.9113127837281723
-4.407299886600852
2.053386433094607
2.6925753013917353
-10.328652387522968
8.038995998403891
9.983607336991064
3.9028814706183073
-38.78743871947865
-2.5028384532893635
-19.452195689949733
-12.171879361337686
-1.169569941507132
-32.41175984269675
-7.931097636258223
5.165904819996173
7.400431403255526
6.930028979767551
-44.18973668535136
-3.5688700643624562
-12.980848305288406
-0.8060805585813142
2.476151674948221
-14.931369893253748
-29.517344875178527
5.588774444285491
-11.897183321871577
0.9327867371266318
2.3626047490242432
12.89706488656208
-27.63638226279237
8.38837037419029
-0.6172594812733287
-37.18631511363705
0.5766276708066338
6.716060661228087
-11.253887673869597
6.185304952655247
3.3014505395706735
2.668655031044508
-32.79629791607507
-14.860946786980104
2.523417900277408
9.06749694656408
-4.690936318488061
14.677635537040198
-2.5773637017170037
2.5193369583954848
-4.366020923011992
5.487950784554573
2.91624049534167
-8.107664075280239
15.580277159846723
-0.05397844228652282
5.039798538839808
1.3124097752644288
0.031361676883951084
6.366371830401011
-13.313681759138126
-5.445171076129769
-7.979819333292413
-13.849852873243101
0.08484429253814652
-1.3496119541838216
-13.528408929006869
2.262998630955341
-10.541105608226223
6.167960405765369
-3.6401767465774344
10.187689061429122
-59.44909518244753
-3.167000302349878
-14.716009009616002
19.382586859468095
-0.7661685871407474
-9.84217119824797
8.596727216901732
-17.509102071239838
21.097473860166886
-6.644297406705307
-7.6042265721183
-1.6996783416074734
-6.689798913346804
-27.735626917399085
-12.471615124416884
-10.947386569397626
4.4320026303399835
8.570759393779337
-17.2962472388801
-0.597475408056185
-0.09814957583881956
-6.377953920599347
14.70281971787577
10.706612592271085
-6.38997943678221
2.225528359002504
-3.708861130413081
20.388556871154346
-69.97244375222961
-32.82754377939043
-33.770742949784974
-16.556614310259164
38.283175530974034
-28.609148146754887
1.1499863375085042
5.804995741028595
-0.6096022690602139
2.7598386735612026
-24.218812163014938
0.8195140488266435
-3.737020791429913
11.781633142086214
-28.97312161175031
15.313237692048657
-14.816791831005272
-12.810206434518811
10.393902884825422
3.74363883968909
-10.618980344755242
-28.573369722674332
19.445684784360758
-1.738121518865917
17.093236110518344
-21.34554379201848
-0.7435911150194305
8.195481899933373
-2.139245932025638
4.934989623459961
-23.421773672089017
2.0228235995796657
-3.124688328579759
9.092825649689846
9.01230454863802
-36.70381449751939
-45.182436132895106
-6.712429241896546
-1.040378658586373
4.765175507194048
-8.60702355122611
7.730844673962359
-7.660969376545765
-2.519762584052805
-48.8638585549435
21.07699507054394
-20.608206428829327
16.715370220179224
-13.158528590028803
2.3609996572767873
15.323428679025122
3.690279208543103
2.6134764809886426
-0.05026384837419284
-5.264608587581753
-8.105442142062808
-28.67989721479201
2.405408202153961
3.536804140610365
5.981093059763998
-34.53023767213045
5.0584755956004965
-1.2302430557468904
6.554717036128379
10.922966025106222
-9.822631907790875
-64.9230390563504
-18.164955177677328
7.425545796475464
7.867422360334381
-33.845622409764616
-4.3746795960121
-10.250681707590541
-5.7946402239372965
3.144915097759088
-6.004020042762484
-6.542988733278706
-6.035601064226854
-6.8416274274612565
1.6475183842017302
7.697668087809678
3.444219828341378
23.421336527999816
-2.4727459659756725
-20.015763359656372
-6.023869229964164
0.9533949964357491
-28.81138113799605
8.07642658401236
-2.739314349841933
6.825305403931782
13.556449063237089
-42.26978553829169
-2.890440232821338
0.22322081337987987
-46.11291869207771
3.7881751442367784
-64.00369700411625
-9.223522894871923
2.5938827578356993
-0.4584915495663855
-3.287527220732536
-20.952892668266063
9.614011804435968
16.636152648944492
-16.73260789650668
2.262807523547066
9.471195977556384
16.123797738476302
-0.9330008413663315
-7.789335470962261
4.398508695959864
-40.64435607902148
2.245541646669058
-3.1080756767187188
-31.777657588401713
3.4963676506388937
-37.235227496001414
-17.823972746666026
-10.252223479452821
19.12471406383529
-5.862158943997429
-7.137813676053969
4.047973157608883
7.9450185587603315
-15.884612675141549
-25.59382255920907
-0.2045111079302333
-5.7360396092573005
19.492798618353895
-19.54789116797246
-10.27909427497571
-24.314552306920696
-20.904359327789734
15.189777816405533
-7.107189661195037
7.510976351859326
-49.117843010182874
0.8502523648012481
2.0342176583271843
-3.215631321763757
11.27481936267731
-1.055654705911143
-4.298543112639967
-1.1202295917588452
-17.614075664633106
-30.37778590733699
-19.595961047179433
0.15042607895745697
-0.9200714696550487
1.9683415975823797
8.150413562046122
0.6008961352322206
-3.3422715913388212
12.60393555036087
-9.221876093086838
-11.484778879895295
-17.967460020296887
8.098261446285768
8.735167655127952
3.1913338269359777
-13.319214555413964
3.5530133979722796
-16.71689089258834
11.578055038425962
6.611418156294415
36.39535655544858
-20.4581165169786
-1.66606871127779
-8.453581479226486
10.516830314107814
14.717195794886422
-12.541316913104044
-0.15138817830992046
-2.6625077649829567
-8.202704942462308
-44.88137141874618
-18.790584562183337
-3.6714629270115218
3.996683723754953
12.559936331481843
4.314537598459531
3.780511361753269
-6.235923572783732
-41.234834912732126
19.554220402434645
18.31119025270919
-22.61225944672318
1.5052149838705233
6.971410351617281
-25.504150469698118
5.424690909318649
-7.720697549899618
-12.302621077958893
14.071190379630512
-13.325263374704083
3.7442576860541776
2.7830819292751956
7.3027542319224
5.85033060209047
6.182252552711788
-0.7660572240989727
-9.48434007941214
-14.088044003177416
3.8238009606532204
-35.128826206314294
-45.53918555023069
-1.4939797163542594
-1.7512520300417505
5.093450293812335
-12.835238455558182
8.741448815163235
7.942329641458057
-7.972215004075504
-6.203683819170722
8.608199867412964
-30.290000121412184
-36.58904971981203
4.062890072949453
1.0378876087849203
-11.444634187263288
3.1534703505030177
-26.694381984290494
0.5121191946907935
34.07069434864356
3.8975279934023797
14.952699398295247
-27.336817271301022
0.5100968114460067
1.5292654443350266
-2.116038838425109
6.288229699975236
0.9139964566622951
-3.8052295728959837
-4.9255552977127435
16.58746164169313
4.476835189483609
0.9430690978354832
-6.284566423764185
7.70512495641119
0.4222996760138962
5.1523598925268805
-46.03600034035789
7.905317318033969
-17.229242656673126
-20.988155277126005
-5.0058069246837125
-28.049405758036237
-31.314859604468484
3.330460204924468
5.353708814959431
13.378038970058219
1.137414984091428
-18.283746011867287
-8.82346570974504
17.12061733558768
6.5243429976210265
-9.25504614698333
-3.0510020348022784
14.933097463178765
-2.6070466110879416
5.305196055443258
-6.4284929733660965
8.744930038451397
-27.190742955348878
6.084066891983904
-0.0990017221227042
-21.06690991439897
-30.867005225140527
-32.41222419237251
-41.356326299881296
1.6160847735173745
2.9732649842286234
-1.8650503829373735
2.680628578788805
-10.746778219562877
8.080876960448172
-21.30781739702536
-16.843349920124716
-15.773503654210781
-31.411665743037798
-13.41929595747165
1.499700493583708
0.921439805935063
2.971883804551714
3.614619129641196
-10.82534191838256
7.692333103424928
-21.61042248708926
-20.456457768573014
-21.262796082877458
-12.762297037432337
-34.308653033678674
11.199874042357076
-7.570356865945087
-5.640870652681858
1.3102633622076216
-35.03966143274297
2.421245444108891
-50.801782012458915
4.701875912161773
28.757577399547273
-12.947686977994648
17.070982951604794
-0.4161069718112822
0.04831108819105712
-2.4902771309857625
7.047797657571702
-12.129087651276674
6.958874813937967
-26.831974714023296
-18.76007214960695
-23.402200433877063
-24.200381569091935
-16.807458053005426
3.688962265449061
-5.778519942746597
-8.273278231408977
5.156498672857775
-54.405566640343835
9.436943272710488
-11.178104615724594
4.383741042457157
-22.898203804670267
-46.586635293861185
0.6111341666685357
-0.027244304187087565
2.986783721465467
-3.355768667228336
2.714949620943343
0.3698965800741334
4.209887307297523
-9.87970868297716
-9.29530587711568
-14.959525444897887
-9.826634446188892
-17.974438837903552
-2.051173180835556
-5.717291371991079
21.59377725688419
1.5544627647159017
-16.243273639237756
-1.1269626119337959
0.4608508389881705
-8.629600373267197
-41.35442504538065
-9.794900008894905
4.03341107084867
3.834054831669369
-1.7197168008164652
-15.71051994324171
5.533254574418638
-59.63593919296179
12.252477230771202
-55.08146450077907
-4.102465108558318
-22.461032141916935
-41.27320441402416
-50.937474044009456
6.287624323779681
-0.11754800522672859
-18.622312496956525
-0.6085906074673022
-11.488204718241839
13.296592103184947
-21.486178344449446
-62.18466732997377
-7.840827131455965
-53.50952083630922
-40.270777613037595
4.88614897760954
5.569326476949444
-5.576816023057421
-1.6284022908660942
-3.9330382275814575
4.769235365564306
-17.43105428382464
-9.069594201131965
-14.294601078344384
-11.391786451690544
-18.389449025265574
7.037120301430761
-10.483644830117552
12.943331712963115
-0.6683941057858851
-39.17265045121622
4.006598761156352
-6.632957651661705
7.2838432863366975
-20.785781061879984
-51.75964530967013
-23.739071816872393
-7.41441260159514
3.3937882206043017
16.046726024700106
10.053763321902094
-23.61981310370317
-1.9235018212307002
-34.195508049376514
-43.397575760115934
-31.319591593989895
-7.740474038109692
-20.64449261068103
0.6167853154175962
2.0596928971482766
-11.173106506755115
2.813195899197975
-0.3139215126192836
6.691901547963019
-2.0882357090036345
-21.92419002016219
3.2061840442660894
-31.600545265949307
-28.5307269891326
-7.723592271671792
2.657727016423224
-20.172219776615528
16.458388773716194
-21.828285543824915
7.7351884107905375
-40.560314512496134
-43.382797920856305
-0.336500177796355
-38.77199388483701
-28.614030904250665
1.8056579501500423
3.23240333125886
2.049194231856511
-0.7903013740694851
3.6129158577143086
0.016559990323005813
3.016979371847861
-8.733867822816295
-13.550298934990558
-4.3371506453923665
-7.492896201698372
4.629290406353669
-6.207416496272263
7.734456472078905
2.182020818404708
10.5945039134636
0.5909969348237727
3.9568647543939974
-15.687216359321024
-62.70802823578503
-12.68027305210071
-25.699170412543108
-10.153861485064628
-5.067164707305565
-23.32426937422986
5.771911971128445
-3.312901929604446
12.278532158632995
5.434205522484881
-28.29464561101774
-17.561805426565243
-11.780088202795584
-25.464749348254266
-8.776026035928037
7.9288733671845675
-25.758626950855028
-6.856169967942238
23.24251742184988
-7.02738708218075
14.484832285557872
-52.14995035342646
-10.476511206738945
21.512231132396806
-6.591961271364183
-2.9330824371084008
1.1885597123823213
2.814518005928094
5.526698803227636
12.057584024636805
-4.723097356883443
-12.895090451171196
-6.000633237994478
3.973667591551817
1.178401193823344
-9.560832211067913
-2.576057809367703
-2.626296916363199
-2.219990211370906
11.42818235273757
6.626518292408935
5.510050026436308
-49.43657878618073
-27.62683291610398
-39.272293591562054
-4.198954116797655
-23.299596206702173
2.68059331549046
-3.5806811501152875
10.72051371882803
8.221551243206187
-0.8379252836246223
-1.1584965162115726
-22.160129561432033
-28.677721897904966
-9.40206925606225
-9.997541188064298
0.7282165393293893
-9.530562035820992
-2.1092749934051658
8.681885072807358
-3.7119618608249145
-93.13537550637768
15.087495057153003
1.9025087299366874
-8.503775433383309
-69.7950730265014
-29.19297867905352
-25.7119688429788
1.974642731844845
-3.0471730398816805
-5.570064099447249
2.449521018000667
-52.213097856859996
13.454879227022861
-4.823699256132406
-6.0376687842234995
-22.901112146477523
-67.3676097631737
-26.303735888820988
6.64888382233422
0.5587747574797048
16.659107526460545
-5.082595232889881
-17.412963499984926
-13.03063635435766
-10.08011818546794
26.64418738296856
15.263887806076909
-23.719212384827145
6.627925367201993
3.8758550625345993
2.2293207702748656
-4.268727262904887
-1.2481548645849916
12.85367349865172
-1.3487921695313139
-7.587295388707192
0.15079464756579464
-14.45824164012764
7.519373897795196
-5.767818930026015
1.9558174913649946
-12.262907529467569
-4.130350844704395
-3.523944110779992
-18.920977594880792
15.175903881590898
2.061021680080929
-22.678869377367956
-17.741461479398595
-6.6880449085567415
-35.853012853688135
-9.92415819325593
-6.572073194023889
-2.0109643035102907
10.049416190236677
-34.49645315903242
11.106928805429373
5.218188757675247
-35.09878119267452
-56.669624493183356
-27.14265363619001
-34.82691438944605
0.5362632775981795
8.933523035333154
-29.231323338382637
9.59395811182257
-14.829801362922133
4.410343482483034
-19.431340114128577
-35.80158666482519
-21.262246584266027
-17.550345550280408
-40.903034955885396
1.9066249298959077
5.515199739240372
6.726873520527487
-1.8081539449731467
1.3285308624085403
-5.112860546141379
5.73012176671988
-9.769828087856148
-38.832260851703744
1.9014491410647434
-10.03072775820393
2.1527386807602262
5.865952020618505
-8.682529890044812
2.122226591656707
-6.1027468816645705
-1.1867310330319967
-1.7039093261109044
-4.309315620584201
-49.604299072691155
-1.847230949812059
-15.32663463979744
-7.4543953291387455
4.339277727863219
3.91743706896899
7.18618468216164
-3.98578130048985
0.8534890735169087
-19.363231425537208
-19.90066348347351
-19.590112327175614
-8.724170859826932
-39.12506257465853
-1.0672992526429703
-0.3544133559022038
-21.90558171439315
0.12669513664989207
7.454299846095376
8.478881858414177
-0.7122683528577625
-27.786592581196523
3.443630737828034
-9.341256471853148
15.970289639203815
8.757058917600506
-5.091706567417461
-2.035592404211102
1.6374485261122529
-20.806738948806213
10.41369968013438
-33.96522379558209
-39.75418274119209
-16.637437635832303
-27.883262059893845
-4.739689151578672
5.356196600566972
-4.608203060164575
2.7628150145274546
1.7710924697736123
-18.42480177658508
3.099605431244287
-27.288654657140647
0.21308588652326277
25.577190488848096
-41.44124840341075
-2.3411329906844704
4.3316065207172585
6.615532719970254
5.863781780046761
-31.26425504102165
-10.599344766883037
-6.246719171657228
0.4818488963504013
-8.827539254866956
-27.369702464796152
3.472978464913946
-19.922635892443605
2.045066039484399
7.174854445844972
-12.997894959224444
-0.5978687407813261
-0.04002164388462148
3.3986734055511194
0.8120729378053548
-5.279703861161628
-42.972134740272566
-4.777963538985148
-28.268178351040895
-3.3036546020858433
4.813670907623703
7.790269710434383
2.1737903872897384
-4.683899837458236
2.6149819986428886
-9.352609759347567
-16.923848563735714
-22.071698786449545
-6.749566840053037
-50.13976496127632
2.680340977808811
6.943386298055344
-38.90641446035372
2.445748677765667
-22.433659513228385
7.04682360394373
-11.819604201915663
-17.43762894405825
2.2395860749667915
-11.72878372844728
11.166333891465491
2.663862283531187
3.4971408927414576
-26.054794228111763
2.5830521525968733
9.91711307853735
2.709723737283822
-3.5538906985328893
-2.305504386657255
-10.791960178217979
-5.296915991308533
-28.057383180661244
3.9145565153112774
4.947380039250885
4.495932968672544
3.512429554403986
-0.6323606948668088
-2.6469464905488804
-18.676337907340773
-8.230558136528453
-12.538720378303838
-11.132769301692505
-52.07485852369324
5.413586820329421
-0.20756953562230418
-4.457320967367027
3.7233402700478697
-38.808300786697906
2.4129285247665218
-13.97868284711071
-11.836364315548208
17.805556395945224
-20.766150612941875
15.73289444179391
-1.4608583331499085
3.4623310159917944
-9.021138189644695
8.987728412302976
-8.15825179592996
8.717841174703
-21.477047407702816
-21.343581037988933
-27.632634487605543
-25.017517989773992
-51.45613050116403
-0.5220879646944026
4.855627957426482
-11.365997320691884
2.3726138832586523
5.3056882903133165
2.9476093878760796
-9.919995936764431
-2.3660125988143523
-11.759705800894158
-8.069343624538348
-27.140336026579924
-0.6212746227459851
-0.46639561734270973
10.440084941801008
7.88283229479612
-3.4100068272823654
0.5836208840431798
-16.458012842382477
-20.21650366221373
-23.853775439170192
-3.4248505601140002
-37.79057193091158
5.478334281793896
6.516357977369864
-37.590211373681505
-4.055025259766987
-2.0871889995817
-2.14640165221509
-7.1525344892745535
1.8639078704776781
-94.81487137546884
-4.5838631675932255
-78.70882120250474
-6.726881346697837
1.4991195465055336
16.85286586038065
2.058149996442956
-1.1718096762818275
-3.591832286508029
-3.0336133394037677
-20.489897950984545
-22.849649764089516
-2.2658263981016584
-10.781828349891423
1.5801609513508934
7.043684880853949
-45.32020130477151
4.861253004076463
-23.805705609012982
3.470371548958787
-6.455017092817455
-5.893544654779465
15.988097185298962
-19.272003298836175
16.923988863551628
-0.31670343054092864
4.112938195400724
-9.853820698675941
1.9212098317380173
4.046642684781183
4.6537036208035145
-2.6923235158009993
-5.537516235380963
-26.737644507689808
-10.759772186538985
-15.615309833413653
3.9385839015890545
-0.6213967798066502
-14.630737843828873
4.305120899024204
3.1071945453336314
2.0071323606150333
-26.578301052552472
-15.040446521637875
8.678539090278798
3.128304861886656
17.89566961625819
-7.0688043266136775
2.4020859031734023
10.207782131558577
6.40415498914582
12.961231700492842
-1.6537325417145041
-11.446756435484694
-49.398759874903924
-48.17889688522469
-8.997695285484738
-17.84364362289392
3.6620971566853635
3.3253924735741682
-6.515775097997036
6.266339982775765
-43.02743125200597
9.552891801537577
-58.85651134364737
-42.02408265631634
2.623370075517401
-23.253253351844233
-41.67824128132762
-10.596522697274727
-2.8624771211154445
3.022115046487825
6.728651622801937
-29.81271624165369
14.636682420537564
-34.707270824800375
-15.19405320672657
-39.625411530685916
-27.54139217218632
-72.16686919622295
-2.7791030850261085
-4.591004378142026
5.268606150932159
-0.15637687591457672
13.998943559304902
1.1879809567543314
-1.9909629765299939
-7.747877782511689
-51.04361858013805
25.75589897974673
-25.792434795302096
-7.6466185225242365
4.431185830052579
3.8098313805322217
2.8111636286340915
4.000617191015065
-0.4399770381735508
-8.686582113063881
-27.381639000862112
-0.46336018134249046
0.16631629462602016
4.077646195220027
-1.7892432877244762
-2.109390249965948
5.395180485919832
12.08060315886013
-4.575657903719187
3.790313022401933
-7.52644663222519
-48.77959342478768
-33.101352855231724
-10.358609264407837
-19.14912981033207
15.373685265181368
-4.489967013439761
-12.796628175713987
-1.753207026378509
-7.165355670170204
2.85105977086153
1.1061502971081183
-45.264699436630494
18.659401079486813
-0.9583826157136713
-21.82380077730697
0.9352960410634044
2.6608369943977292
-4.321643842520641
5.089342742667827
-16.80088421447234
5.682055807036771
-29.24362009047178
-9.729868076843005
-2.8166454472086913
-15.552612846866943
-25.309167434887183
6.906207998098798
3.1667827115552436
-6.5859135742947075
-0.8965844013274342
-1.896301941955013
6.211890822750061
-28.625177759889663
-12.360027730427168
-15.002096977031654
-19.125043513986185
-23.264485372798607
-2.709495548208282
3.5799368280219497
13.461886083515964
2.272185332572839
-33.23925079977451
3.9706977600350717
-6.24567094489672
-20.498707271080647
-40.99181368576573
-33.042007142486554
-34.12422658469392
-6.4818364500414845
3.824293688652925
-2.2615256940584283
6.2720238797309245
-39.45406983043055
9.589584565869336
-18.364630745823682
-16.45693148538551
-13.984780848146947
-32.84050995841371
-9.271145075638247
-4.177055673118145
-2.53872863157141
16.339704613851367
5.115175305827556
-5.170215561246347
-2.0164708016380937
-7.182991558013884
-10.583512032327093
-6.733543276455158
5.315399149394857
-7.267256266833796
-4.439324040865388
0.6046141166467067
15.938215076454917
9.968158755121173
-50.272820790788614
-5.54205302710125
-9.597122769991252
-21.144329049642646
7.550606279578252
-15.26668846413004
-34.50163959563153
-1.9084461579143657
-0.40497145194170514
7.659217022629054
0.8511161941196779
-4.627299735201654
4.688384059371273
-7.893219563264494
-6.897573690309187
-15.590627969071255
-11.38552277334488
-4.087522971655548
0.2391145082574937
0.5805403706832912
-2.587284137424149
-0.7992019462067796
-48.904091802516675
4.999989983946614
-37.42399516874608
-2.7159158545773896
27.80911146223547
-11.802053233111604
9.014913493957485
2.4652503149468594
4.011621479371332
-1.3590922506470169
3.5805861398963406
10.09345616812184
-7.311147407212081
-33.60807695355925
4.2458726215519045
-27.60986049620658
11.091139714630902
-41.1242697098279
-12.408841558660678
5.884453324635921
9.639399101358851
10.979327415961517
-29.228402134103057
-3.0282706593897206
-12.02721637475268
-11.571404830095812
-32.252443231643106
-2.024838645104283
-5.04315876299358
0.9618255659296144
5.679135994564493
-2.270122171961411
-5.319895342459245
3.091667766182624
-0.6481689797873864
2.8114433196918838
-22.230000023464278
-13.807978752639379
-3.06317170533449
-39.41628867680702
-2.4472893698806093
-0.2450232888123658
0.7835129917223655
4.563256278113198
-8.751757706392528
8.08911334703857
-19.07171103413498
-20.746335630879997
-10.919503111509817
-15.605211275619034
-21.607109661160905
0.6616091755945916
3.667415844455679
-5.3876807943944005
1.562833397379321
-2.4629875278564013
6.078695147519043
-9.958328830201651
-9.5243714803794
-11.776514084926779
-14.793105529872209
-27.26282776466241
1.2543429083826183
0.6535807371322537
10.154362303529314
5.798305142086801
4.684786203222451
-5.796043762823731
-34.221420402039286
-14.852767861344445
-9.668498412601673
1.980788988912101
-16.758494001017947
7.976701270904729
10.039711465869313
-18.649578443054143
-1.3777127729859915
6.101291806414547
-9.017959833583516
-5.778734028145373
4.600495346026651
-50.61425253136957
-9.37091548390217
-57.01948396349712
6.2890875163442574
2.7932237709064562
-3.665760225585113
1.2280634623341955
-3.4558268159932424
0.9477557311049196
-5.3808652083009
-8.547523565000485
13.2818974601312
-6.370825777743699
-28.586310749435107
-6.9512191106159325
8.760844716204833
-17.54559343753208
3.6944792744756594
-14.088564197274245
8.39148135382997
-1.631076882467429
-19.63031788308549
-13.525737331687264
-21.495671930697632
-58.036793362121344
-5.383198274537801
-1.9187776326299302
6.03506197489517
3.2420588271237403
-10.369741828338496
7.605991457895213
-10.871174718349431
-6.656862947609918
-14.57668644680238
-14.418505566504054
-12.382372449224988
3.273441811326724
7.910861400327672
-13.751222940549052
-3.4681607203367903
-9.830611328011468
7.668948288373616
-1.718740407244788
-7.334053782249443
-43.17482063525743
-26.33069578032867
-9.73546092858144
-7.951581002444227
-10.32451804188069
-4.990266463932942
10.447416191310122
-26.45267642151534
12.914541290354325
-50.11845067470775
-21.908348356785314
-3.6899075060331383
-65.72989838873325
-5.582181224566043
1.0935754965662836
-2.8403637164378712
4.92091287191961
5.214083872531513
6.490995123960014
-0.3203517295414189
-13.33143616922958
-3.5003260896062076
-10.226124101597179
-0.0012374390694658288
-4.5436550680310805
-2.443572250872733
2.706083433857004
-1.010307542486145
1.1029718234903418
2.1431487067004804
2.518320911982573
1.6406543406215217
-4.2638440426506
-16.53314989351807
3.1254289398239
-18.13364411087636
-9.46357516965183
3.4542918311428625
3.0568884860063448
-1.3536666718918595
-72.49603040609452
4.195915745144
-27.654843970644926
-3.7156453394907274
35.357814579038596
-43.96177426991907
4.282393692057767
3.962571089368092
-4.004030960595969
-4.0384608720985895
13.318726395701333
-41.55019543059875
3.772667477535207
-6.707943292203099
0.23941379368487214
-56.08402975897698
-27.845085767044655
-36.67267110391497
10.558088051134003
9.035647262287938
-50.982327498921244
4.975170371856351
-30.87270710430049
10.294993711911456
-67.12861338905162
-37.0988121864383
-12.308202088839458
-57.39443378968181
-43.67041993991087
3.6586169157732242
-4.75885739129626
1.0106654311017196
3.7886618403574066
14.43424795311298
-1.3237302163695324
-69.68325481721025
11.185625407841414
-40.33624898494744
-2.362303703826448
1.0388886086260536
2.5520198516052437
0.6024907302951519
1.2263724232491704
0.8354545371916808
-3.3011089687602357
3.627168270415604
-0.28384162588440276
-10.859022403284557
2.734205486297137
-9.476946365738108
-16.006948055084784
6.319785315945025
-1.244354388064957
3.2246152642196506
6.411039822639831
-5.441377706968047
-5.579690543272651
5.377686973749823
-27.797884553932676
-32.388112696422525
1.0023776136992244
-23.548875370841458
-3.8365449591237826
-0.322236285958855
0.6528241406383004
-9.029067047513012
14.464398986909204
1.9293464665952569
-51.89313373595683
27.397265519211736
3.9846082336432214
16.942975727035083
25.37925607770738
8.660128599645638
9.090640116355196
-27.22070969217364
2.605205787675145
7.37931162782826
-11.453464453717764
11.212772124263909
-63.53048660191717
-15.613329955610066
-9.590688832717383
-39.74324763781414
0.2299679011192053
1.6866845492665448
13.098095184656971
-3.7337654586222078
-10.459280947497206
3.842448054233052
-3.1734047608197584
-42.98106565703044
-19.07632459317894
-16.04832226874524
-27.2297315533234
-1.7150286074357908
1.3432364942564519
11.042153742331589
0.6134678090692205
-7.585036654599918
2.239368458847771
-3.255608094832743
-25.26029100690055
-2.25440031433151
-15.876974276610573
-5.316265261858996
1.2582611124894925
0.5057392594057841
2.443005452979629
5.767777064250224
-65.59532125092609
3.1868043319496335
12.277386154330532
-47.57819552036097
-43.35699784007066
7.3372590783253315
2.1475891079176233
5.584475777213099
6.767864459321587
-10.64659760158056
-6.580147678685087
-11.024987995408067
3.279727735284604
-14.910104934027194
0.19961219876392633
-26.76234028941162
-14.787282714317582
-64.98028296155393
0.8084273514648652
-7.255454330642728
-5.490847231267638
11.695139328944052
-22.358902983533557
8.867159562753766
-22.084824878782428
-11.726823701371478
-9.351949223364997
-27.61642335521503
-39.25007041827733
-3.697143643140249
1.057952671352104
11.436716513746259
3.227912272163463
-27.41768216941347
3.67861616984971
-6.288489655798898
-2.7449165566753146
-6.141780052883268
-17.728422757588667
-16.589402690791378
3.685864744572032
3.294703385040693
-3.4712330473906507
3.136980952246123
2.370992381979101
-4.472350027511303
-7.234206295670138
-9.504027553588166
-12.534742852227106
4.343312799244844
10.526021140037951
-1.307301579006312
-2.0306810918872733
-6.721539281581929
5.933261928222562
5.125879483392006
4.318921734416418
2.3283934779269218
-14.1108705907155
-10.400593671295791
-2.8844732084065026
-35.60815064384264
-3.9550576002893933
-2.1941513584805286
-10.912032228561241
7.862280188025882
-9.328779860845014
9.206247754854909
-6.60575737685589
-39.82611072251257
-8.512401957164037
-14.77763746217537
-37.28047563104478
-3.7918610699274278
-2.7333708649418447
9.856126793911251
6.177895744389151
-4.650459875964415
2.254040535457763
-4.142552929377504
-28.490006091708945
-28.249710926031945
3.910768610600685
-18.53385878991337
1.0945309577609459
5.154346417523145
-7.75874519640734
-0.4825581917197761
5.870561853821453
3.42967088706437
-21.14890564553511
-3.9510679558575896
-13.118911814364346
-4.670247249101444
-17.882957298957656
4.1620721226832815
0.3033889486398125
16.917065110533052
4.442219947034572
-1.4695134662099245
-19.591048947726964
-52.28805848906921
-1.5009354413198348
-23.768235012806915
-5.3240119356107725
-8.550622671862692
10.489775329976089
5.130225469386616
-20.125556019941918
1.662849627252112
-45.32076764287881
7.749707596683721
-7.821878147789105
2.43974768809018
-50.02438794060262
-52.85596032017415
-28.142703358570113
-1.4010726841336432
2.8116551486715586
7.656918811327947
10.223963957015584
-11.209957492414436
-3.8478477764994894
-10.225344344748757
-32.041600830992294
-29.784728243305924
-9.590909678322644
-83.78182703478603
-10.274602063092537
-0.8893024486046022
1.540759436708898
7.916727655776333
-15.112202248893897
9.40754803626793
-24.516491956954194
-26.18104842999658
-16.919602131133292
-5.850410456966001
-2.5917497775478933
-8.474547588058094
3.2339048968117297
-0.6405024699290243
5.108313219781425
-3.7633829641259915
6.070853579064477
-5.677928221473401
-8.4338298690603
-5.336640650102469
-26.413263430164445
-20.213991935549302
5.059298172725391
-0.8722837920354571
8.45964440234856
3.2598297406173913
-1.7842463673790019
0.2909448216166588
-15.032935612213041
-16.196731039374036
-24.127573685174806
-13.85630316366743
-13.295901447028882
-1.9712699191807643
-0.7382078720676355
-0.5487043276225432
10.672239531581637
-9.870847628769873
-1.5713216822363791
0.04398049358587075
2.5342320498938324
-34.80609750188597
5.320918210968411
-27.081668003765238
1.8512341177265248
2.0844598857668215
-0.7449857850945234
-1.6828730068532236
-8.960266648176345
6.977499438230405
-9.08643923279365
-8.702557770462137
-33.335088780989935
-3.0922765178523215
7.281888160882565
-4.498937831790998
-3.8453486484400417
-16.526394304359613
5.974320253671114
11.341626078702765
6.740752269301034
-7.639599198860777
3.420655254143252
-26.753461247475723
-2.3654852364085106
-54.5474413314438
-4.403544021444918
-1.9063282156946748
7.145181115993209
1.3130239546033105
10.317455384522173
4.768341896482764
-25.212061747992532
-3.98688932523211
-23.052261410699053
-24.646465368983094
-7.737072679703404
-5.441396283636921
-10.740294790008955
7.409698379877537
4.796464961966474
-16.62666065605457
9.637571623690416
-27.2875438733036
-23.999025153874346
-19.830485486930414
-21.012834072102105
-12.795338863371251
-0.8338630127377451
11.253132191202951
-14.255778281674893
-5.520456078780784
3.718713480721107
-1.1134817674008817
9.43076036698978
-6.796076750446579
-25.189758130842915
-0.08706993983821221
-27.02427528509929
2.769843805218944
2.147116120094327
6.2565054532806785
6.141263796670255
-9.14972269679665
-5.595041759418254
-2.4672306729406612
-23.87957990891006
-21.23298679650227
-4.787115202259445
-46.102803642398285
-2.2701517775886666
-0.2324279092227739
4.843522540978454
10.02424690312601
-2.1097176020512105
-4.150278407677105
-6.270219106055971
-2.9600463177088456
-59.78441655884346
5.840128471866917
-21.450070299052186
-1.430529258310222
0.61930721896156
4.384545689952058
3.7893525455999004
-0.2496114510377172
2.8047643632461288
-5.677029477694921
-14.85810846214731
-18.18502965046686
-9.46556477319876
-11.685348195818104
-1.2115974927426691
-3.5873500669444818
-12.476111091988065
8.023362643058011
-13.825094520049149
10.662518306629284
-17.36210374092753
-39.44902501903569
-4.056053616843781
-29.732328681413854
-66.50606836191957
2.6592452791367527
4.182066018634483
-0.8952864276913437
-1.9246338978924578
-12.933937675260188
6.793486768874739
-16.811218007801777
-23.120921682116364
-4.417879395910742
0.9914076967244885
-61.00487621443935
-0.7253646132055116
4.042674596397001
13.108082687815145
9.217764451462646
3.0942821348720386
-28.637253135449907
-24.824234539826698
-6.068821285877821
-23.962489825677622
-12.076520080545256
-36.177387995886896
4.330185933300217
-4.083201824252692
-1.9035056706682845
1.7234768906292128
-4.661023596587185
9.35458150518127
-6.89998936692129
-16.04075904053477
-35.70110406015498
-14.578426752027791
-64.49512785237451
6.9573962851461095
8.076887014107673
-34.636640412709085
-9.913662658874182
-0.6774055342362235
8.23439385236929
-2.4233560393082048
-16.54487681187953
-26.281688209021752
-5.818815337206439
-31.659573790528242
9.699754734400308
0.41645088145985065
-5.046648087135083
0.09944959154900035
4.393805201199548
2.0495102098679783
-18.39460433294223
-29.804140485113862
1.2324881217541992
-13.00883435746604
-8.625060783168536
8.817042375176499
-3.6114646430687722
-11.541910389946747
6.6633727292839495
-34.58940535388347
6.439395170849713
-23.144254440899118
3.9714322996083724
-25.533233448465744
-28.08461458556103
-8.877708023953977
1.5383721337444816
8.737523725628696
1.6069981725767883
3.6664975717455444
-31.581861924749088
-2.2556198045917744
2.1230987024790267
-13.30856891183922
-38.798546583712174
7.249027365496769
-20.015186167849116
6.3094101126356135
9.271429914103468
-20.14882756314536
-2.7284856580117913
5.5201007031535765
5.194546070922048
2.076151409727912
-34.82777100347356
-11.795999351566733
-26.110328870502524
-53.5544673261185
-10.07311884159378
2.480518756569255
-2.123334674514893
9.359542248886854
2.35284707328451
4.402152324875999
-53.0110197796187
-12.760024393414026
-25.50211498165621
4.8421542277015766
-6.819489663078253
0.508138226407862
4.950452534953956
-4.089861695063337
3.143985041777489
-4.72515965367156
5.003085757240836
-9.73630110996968
-11.814118143224468
-28.437449489203917
-13.490640432022495
-36.383840001113086
-7.002673824626086
2.52436188371404
10.872702941133303
4.979079199760656
-2.7495014074851785
-4.739768690197504
4.382229293927899
-17.271963323758744
-10.265404911246739
1.5219512536465973
-0.02927440656452096
-1.8093066865388003
2.6266691880588695
11.887202912460097
-2.993226490888416
-55.65861187820941
8.387420254395789
-11.31150306475732
-10.602658669253113
-20.987095282226253
-26.23532107442407
-44.33224671429676
-5.854349115268365
0.27835959878878747
-2.801137173870756
10.468031801452192
-9.99788698234326
8.411820941953843
-40.446504111815464
-23.318814941504872
-21.148575150567304
-24.915593439365406
-60.93117981543125
-1.2013559955329036
4.478475578219933
-4.938513761119227
7.906961885544954
-53.24495472063169
9.127293053551057
-19.03193365656218
-31.235947844051324
-28.093858120220236
-42.576397818471754
-15.249340193442336
-5.946142979677939
-4.889484203632393
-7.535298975246599
4.63551790418779
-5.728446680458818
14.867416469907715
-34.30870319515003
-20.31457569980552
-14.55984439457424
-43.37065739954347
-56.87874228477146
-5.080371834834893
3.4568325479575837
3.1443054110386033
5.667071341569496
-9.16889829940375
5.761355882379707
-16.855270941956697
-20.396626361928554
-23.317555859288216
-12.131055799505905
-31.991642247163732
-14.60632557019872
0.6868368202006074
9.355641460001973
4.031660817287803
-36.773310019247546
10.249593048246721
-21.304341653905308
-59.493072600432285
-5.4476128113249
-28.556687192017414
7.701911598767279
1.3918765809517488
0.42375993034895476
-7.095435257897545
3.8248115665820897
-22.413304113371716
10.988318901491589
-28.306440434245808
-17.017365860291502
-9.612430299270533
-24.54668427292925
-22.3865051331697
-3.2552990464029796
-5.322311801352274
-17.593943493354384
-6.537449100284339
-37.60524838298373
9.158168906368909
-1.3438370255777463
-43.07870386616957
45.527808275611534
-33.971432821652996
-24.256992783357564
-2.999508617928769
0.9997323919684087
7.403678054791008
11.322450167181128
-6.8639698225702155
-2.2624476102084072
-4.621225868486665
-20.652351151777115
-69.75087391356001
-2.9454527970806765
-55.89410776976087
-1.5171318639550808
5.0078415746173475
-0.114930945633831
3.165046764373878
-5.426703636487174
4.219639449088985
-10.0455468235402
-16.65296258445946
-23.141229832412485
-10.735600007457968
-27.345964846297182
-5.324394478882515
17.93126144628418
-29.214892211467514
-3.1546041765519655
-6.72037320366874
-11.822889020538193
24.255653807250045
-15.204445672321077
2.0833337179723777
-5.761239753687453
-23.541553770481478
-0.6551087715805695
4.746769986812787
-19.01528353462694
-3.218716736824805
-8.227564650576035
11.269677862326908
-5.043283453477151
3.071789151333682
-59.290300955413144
-13.491238224997518
-14.180288122011103
-1.3015887639140282
3.5802730601290795
-1.5871933047093356
-2.151903623112002
-5.908286523201235
11.345207358158788
-60.390530310240365
-18.65443288260827
-9.499832191699305
-24.163473208305735
-48.0334667759259
-5.792692292533399
1.5642929172365148
-11.412322527415565
5.506676395096636
-27.531609482278917
11.509806216374233
8.304892009578676
-21.00913784721479
-22.37991423335034
-15.06826671509205
-18.331510211818262
0.59639183193597
5.808528757402486
-1.9372707304465866
-2.8599364300614525
-34.11806236022678
10.564506999033203
-15.249419320220483
2.086191850883065
-18.257772766769918
-72.89243621589364
-14.966786619118164
2.278151971293191
-6.808209508677492
-5.4919647504763205
6.094725381350093
-10.470915660573121
10.757471949674528
-26.93165375021446
-2.2640940685255333
-23.648035134963177
-28.958627438253103
-22.580924622829116
7.069171881212103
3.299288102634171
-9.982176935366269
1.5192252420376677
1.0401840111956009
-4.825728979912382
8.540829044811781
0.4719506792604742
-7.137196050038453
10.778645942506449
-47.38590433323321
-10.937942468036653
-1.0696117467703106
-19.088829375595132
18.136028733616108
-17.773376067920875
7.444792729774531
-28.085821086622133
-42.944037651986655
1.43598415302831
-46.71731571094402
-21.841579030131243
2.4876111845211133
3.875549590221108
10.913552638754162
3.080831944193768
-4.201622548891026
-18.154909170536673
4.937509637470211
-4.316943500529106
7.663731812580487
6.347084070744016
-14.22846196281155
-6.2125808810195196
0.2539558953602281
1.2185152800965602
8.646697936211602
-2.2419050308300488
3.664885156774303
-9.198827577141683
-15.438486458548823
-31.431157445022855
-7.142134307224749
-29.039353240012034
2.91744865494011
4.132795745405778
-9.433986091390402
-1.5333874235343639
15.097958423401499
1.5106614775601899
-17.437490400853832
-28.43001650226013
-4.821716952371807
-16.39110117681624
6.687766806281671
-1.2179428755345452
0.3084974618249898
6.213969557657733
4.3748835887663695
10.370260074846758
-3.118054401848709
-9.006448992766302
-32.2285232958467
6.823622777186471
-10.253816779489442
-3.9842557018149503
-6.996332300514821
0.2247180475461974
6.766675882766518
3.4679569800196477
-9.227377511778563
6.213661990939683
-17.933669372950675
-31.040198718379216
4.158302851039592
-9.77376805780399
-4.986478403870093
-4.7729380962951735
6.97105677464894
-5.3761271286922945
3.2091619366664066
3.3668672091998397
2.1861665891755306
-8.09425438683628
-10.533385822731297
-20.14565629818877
-5.209787393658601
-32.10837761900646
5.5712350364771925
6.318367482179989
-10.023765584791423
-2.2551094949122814
4.980636809377311
-0.7502902745325275
-3.4367923237348643
3.4726704576958776
21.060471541563615
-38.143724451559486
-17.67772468162465
-2.016874713777172
4.202607282528805
-0.3100588086806404
4.622020819895371
-5.3942516859507466
1.8339220204191626
-9.034183127772238
-8.596691672582633
-20.402645134718675
0.7753801201021511
-32.12868083024389
6.073900232671761
4.824931894071277
-8.523060295880754
-2.399255556890617
-4.257191053115065
0.8886561610773671
4.114245505946221
-2.0839004705635897
10.639446957203317
-11.555021169444123
14.585984523412467
5.2141089961977904
6.177115796257414
-32.87777132523009
1.351005900344544
-11.283440755687018
7.110963208622113
-14.575969359373762
-0.4487485096135202
2.932797731090289
-52.468470608337
-10.348799191214225
-10.28731512682745
4.828456433393279
4.193089502145223
3.788564975183191
-31.222160347400006
10.775812180380555
-15.49146236711012
-18.487497305959682
-50.296911888595844
-25.707094571667266
-20.46817730599803
0.3165355724089869
5.368358371263276
8.104828722010236
7.296962214321324
-6.3225135635635645
-4.163483313449864
-4.516026821003065
-36.944740851787245
-63.362981514078946
-13.92423950372964
-25.445330960682178
3.416777366325407
11.008804221186274
-34.99724448383102
-2.8584803331674316
0.49329780783417876
-7.992551788006879
14.402916318253602
-4.616141501952702
-89.59659921901658
-9.18974538312821
-76.67979060253198
1.8195251976624203
3.242030768273466
2.0599704966345485
-0.7732989954603946
3.6259316312054874
-0.0324222989590881
3.03683958421834
-8.711568204488387
-13.534266314222295
-4.307377203360954
-7.469399115871813
6.836230366125025
4.993800352862531
-9.730834299880115
1.4313433580378896
3.623319248560226
-5.171327353380166
4.749127182759883
-12.163176000917788
-35.50634526802954
4.902395153988503
-37.67684202003514
2.0603218235204936
1.701894977906318
-10.835651331802744
3.0410802570769784
-32.6251738339147
12.124746565174062
-20.009765196632085
-9.319741999199657
-29.23558978255124
-10.22107200083073
-27.486846626924216
1.3885628718587073
4.416550384872537
-9.163002072614177
1.7820967745455762
-1.5487337572049364
7.317870013293036
-11.897916694369364
-21.372061055243208
-8.969900935435797
-23.50935429470177
-31.49795925815814
-1.7699813804173337
-0.4189360363247694
-3.9609184206279195
6.2779954373600075
-5.825410912348328
8.910416576926927
-24.117404542334505
-23.544113481466724
-5.1602862476291635
-35.9925376721398
-21.224820237871434
-9.171965693902386
7.986350903090745
-8.516998641306468
-0.5530165515670902
9.244474812401634
1.2939810639645803
-9.223886181432007
15.515282475843579
-21.37781812920401
3.404419762220581
-2.1133511386762542
-9.871158882020747
-5.5632150913494876
-1.2844690460386894
2.3621076067083706
18.30972385783116
9.978197790111016
-18.089107006572316
-69.28910738115486
-5.627729311196353
-19.59221526240528
-42.715972455911256
-5.194169970078196
-4.213114025549586
16.407682681735963
6.173862577441647
-16.11947189696237
3.519443014847014
-17.119628773828694
-13.842300941025226
-60.17515558421252
-34.35304682452388
-17.007620869582954
0.578919476439276
0.08315561526203874
0.6852662859323937
-0.2762387077256778
10.791509739748467
4.069080455767608
-2.241977361606893
2.7824173035544746
-40.045740246594704
2.9021145792862337
-27.38046571834755
-0.7845192004869808
4.612290593450938
1.2501337652796356
-0.07699260422557819
7.958718776046302
-2.337969682497407
-9.792282284180999
-32.47604379289029
-6.391295154134271
-1.2116452005612977
-30.090436624663564
0.5101714291882189
2.6061513532917
19.848230399695744
3.148373111128049
-9.079827893287955
-18.42556788255243
-21.38357788973371
1.3062523393618855
43.29214280413883
-41.166051172669896
43.318310086316934
-9.806681749403552
11.466080427750374
14.83083930482345
-4.071018520859484
-4.0442953543863975
-12.46794558457915
-17.71861092774432
2.596719175077948
8.969553644985421
-0.21494818920369174
-13.910171207539925
-2.7316140023897155
2.3591083831006063
-1.16954748028577
4.803552053135999
-33.90670683161096
9.061081983614255
-19.46159064453673
-17.33634796296434
-10.204036872506812
-30.397701694592744
-8.561494722394553
0.9167395362354718
1.5510512556512408
-5.946540553264819
3.2786622233269114
-39.0076336720521
10.740004847087635
-22.41635229410955
-10.659648465009406
-3.3875184950105837
-27.28816372229882
-35.52022211798079
2.2946417142022835
-0.2546188748964635
-5.043200979696943
-1.0415362739729046
-21.69653240364208
7.803632459307483
-40.60483696304452
-9.611613325895691
23.692666524665587
-26.33449034054551
-20.482131918079848
11.226959897797888
-1.5923856304791624
-7.3700639750072865
1.8527643917284253
-34.01358855290789
8.304039748682985
-34.22198052830526
4.727245168616234
-23.531893737929398
-32.60614157217567
-34.78326346166879
6.131530290734216
2.249673849858226
-3.833901591862933
-3.125635701081573
6.061334174228221
3.2976471932964877
-14.658539416234168
-6.790370614545409
-25.933966970995375
-4.967737280667571
-3.7678826952186313
1.0349229716637849
-3.684096104929991
1.4501987985976994
1.63468888759986
7.278969113209514
7.570745292715075
-12.87986470114915
-5.458393664570265
-29.217561812088466
-22.025910895680695
-20.269188612865193
-4.131179010301784
3.647029379734008
12.620295736125549
3.5565531069099108
-15.317980305583713
-13.063719179628414
0.922150899811681
1.4139144283922869
12.538681829481886
8.727138112878484
-18.52564100018344
2.509951350125672
-7.493187410231128
19.04669814093835
1.010877257723854
-16.033655452264036
10.752033296156014
-87.34715677327787
-38.685989959841976
-45.50110918066403
-26.502294488557652
-50.733800415764584
2.5913194195650595
-0.314167938361293
2.7558152916601535
-0.20622637101404528
11.550710367801598
-1.0910301564067098
2.9574559083663297
-6.765891037269847
-16.99088955502752
6.919822614005275
-30.967023755316944
-15.132443553740746
3.381495481595144
14.747639038764905
4.032669488883323
-7.707572228928873
-4.277714984759667
-47.26374860012506
-24.637766439725528
2.2034771675590585
5.055225531902886
6.085996499908652
5.12614636520905
0.5795489164124588
-0.4106009285607426
2.0570372997616415
-7.580668962843687
5.522951750107174
-12.722196025947433
-14.186953930276918
-9.833593589065021
-24.48439383895613
-7.894732283760772
0.3765230135550697
-2.0121574055236655
0.8953048956396934
4.369073710478347
3.2503693526443778
4.123829423703431
-24.732463923842275
-0.7859925770924252
-22.428214002882612
-9.4561471933307
4.9408286664713925
0.6549245627008284
-1.4154772537018658
-0.722770615291477
2.081164314928176
10.241914597594779
2.7758358102538665
-39.28588458829654
3.139585573627199
-16.86612088757104
-0.015570066398817861
-27.789819426351492
-5.394595732177572
5.933382930573829
6.477099285428242
3.470864097243557
-35.55135785739617
7.540264096992402
6.1079822294820785
-23.600915764623586
-36.866927918139424
-57.76331982820894
-51.00620152963283
-2.1525700543362616
0.3869134487430861
-2.3360622747624067
12.008867507726741
-63.48921337246523
9.006221048795979
-8.727496911007158
-48.752692874423424
-12.22768965970635
-57.80849581173742
-37.04068238197257
0.5459188536264783
-0.8262275389336926
1.809519688072072
-2.6492058070894595
-23.349807692602816
7.0826569335981535
-34.99094209863105
-6.001107104409727
26.59704271660492
-30.429329481616268
-23.394494682926105
-5.7267515557100115
-5.558115241288939
6.209754758245215
4.292679342520192
9.937972536592833
2.2765300663349235
-18.976287757999465
-11.47084042986026
-3.092654440587057
3.106121929202157
14.440463366824702
-0.6632273564444855
3.7481495861002454
8.099280443188011
4.461591479314064
4.50923853233386
-0.2993109918036936
-8.141250332823475
-19.334948026530306
-27.730382545977356
-19.83741941315798
-60.249146951009834
1.3979084867257399
7.0265778717040615
-18.4365480490924
3.9684713198744097
1.111952884509197
4.020166595853763
0.43378646313481983
-32.153618338186234
-29.384417490526687
-6.899551500260407
-39.5982776386941
1.6759214239778606
3.7859769635452434
-5.597681257449559
0.29690073353601143
-0.08801402706216965
2.4422331469476477
0.49948469902187753
-12.9974497298759
-2.368727708937488
-4.403335884176923
-8.56615535266248
-0.552428335283949
4.9184090081892915
-9.09833543243201
-5.052755600781996
15.074032203511358
0.8226000590133649
-23.95533914338526
10.761172730362729
-30.080855751309038
4.785696681885023
-15.54753681182359
7.792362699584032
11.449146685117487
-28.88681045218812
-11.611750886847009
7.366450804020626
-4.038842120313987
11.184017953348135
-9.740815753595506
-40.13848104924117
-1.7415934338085286
-52.476903660745634
1.9249416734319134
3.9322024287190196
6.71869341601427
1.2533275364817515
-22.956509114448444
-12.867604142012894
4.611847483241556
-50.3702730397845
0.3846249101718855
1.3359470850995967
-29.242652016274338
-6.948645344493944
1.287077455814294
16.16999041288758
8.330222460166304
0.8280965482726081
-5.514788139364244
-4.224784313665994
-26.530811930741677
-48.5260306726257
-13.327499509849277
-27.467290510975392
-7.912790093089355
-4.131045450675702
11.084200318459445
3.8510376234677435
-5.627883105787271
5.059030966882578
-25.54586472873176
-20.546145846557806
-12.620770023127795
-19.83748791587448
-18.726932556334134
-9.853908788900597
7.0428458581368245
26.873443980443106
-3.6307937937994836
-9.58960098158185
-16.42110421292569
7.7207711510862485
-33.901138061334805
-60.31153599518406
-16.214810979379145
-44.58504750731679
-5.014480321666834
4.453628836080536
-55.01740374607123
8.15564633044827
11.9349366570813
1.2146305546987781
11.777061797735232
-6.554958066615989
-32.05290997404299
-16.888255912159977
-17.71237821552747
0.32495240458942565
2.5377451067307604
-2.3462772644200216
