GIS
206
0.0
11
Comparison.Contrast
Expansion.Conjunction
Expansion.Instantiation
Expansion.Restatement
Temporal.Asynchronous
Contingency.Cause
Expansion.List
Comparison.Concession
Expansion.Alternative
Temporal.Synchrony
Contingency.Pragmatic_cause
252
17 0
18 0 1
4 0 1 2
3 0 1 2 3
2 0 1 2 3 4
13 0 1 2 3 4 5
18 0 1 2 3 4 5 6
13 0 1 2 3 4 5 6 7
11 0 1 2 3 4 5 6 7 8
81 0 1 2 3 4 5 6 7 8 9
355 0 1 2 3 4 5 6 7 8 9 10
15 0 1 2 3 4 5 6 7 8 10
131 0 1 2 3 4 5 6 7 9
25 0 1 2 3 4 5 6 7 9 10
2 0 1 2 3 4 5 6 7 10
3 0 1 2 3 4 5 6 8
12 0 1 2 3 4 5 6 8 9
15 0 1 2 3 4 5 6 8 9 10
5 0 1 2 3 4 5 6 8 10
46 0 1 2 3 4 5 6 9
10 0 1 2 3 4 5 6 9 10
4 0 1 2 3 4 5 6 10
11 0 1 2 3 4 5 7
8 0 1 2 3 4 5 7 8
11 0 1 2 3 4 5 7 8 9
8 0 1 2 3 4 5 7 8 9 10
2 0 1 2 3 4 5 7 8 10
17 0 1 2 3 4 5 7 9
1 0 1 2 3 4 5 7 9 10
1 0 1 2 3 4 5 7 10
1 0 1 2 3 4 5 8
7 0 1 2 3 4 5 8 9
2 0 1 2 3 4 5 8 9 10
1 0 1 2 3 4 5 8 10
13 0 1 2 3 4 5 9
4 0 1 2 3 4 5 9 10
2 0 1 2 3 4 6
1 0 1 2 3 4 6 7
1 0 1 2 3 4 6 7 9
1 0 1 2 3 4 6 9
1 0 1 2 3 4 6 9 10
1 0 1 2 3 4 8
2 0 1 2 3 4 9
1 0 1 2 3 4 10
8 0 1 2 3 5
9 0 1 2 3 5 6
6 0 1 2 3 5 6 7
4 0 1 2 3 5 6 7 8
2 0 1 2 3 5 6 7 8 9
1 0 1 2 3 5 6 7 8 9 10
4 0 1 2 3 5 6 7 8 10
10 0 1 2 3 5 6 7 9
2 0 1 2 3 5 6 7 10
7 0 1 2 3 5 6 8
1 0 1 2 3 5 6 8 9 10
14 0 1 2 3 5 6 9
3 0 1 2 3 5 6 9 10
2 0 1 2 3 5 6 10
4 0 1 2 3 5 7
2 0 1 2 3 5 7 8
2 0 1 2 3 5 7 8 9
1 0 1 2 3 5 7 8 10
4 0 1 2 3 5 7 9
3 0 1 2 3 5 8
2 0 1 2 3 5 8 9
2 0 1 2 3 5 8 10
12 0 1 2 3 5 9
1 0 1 2 3 5 9 10
7 0 1 2 3 6 9
1 0 1 2 3 7 9
4 0 1 2 3 9
1 0 1 2 4 5 6 8 9
1 0 1 2 4 5 6 9
1 0 1 2 4 5 7
1 0 1 2 4 6
1 0 1 2 4 6 9
1 0 1 2 5 6
3 0 1 2 6
1 0 1 2 6 9
18 0 1 3
2 0 1 3 4
4 0 1 3 4 5
8 0 1 3 4 5 6
5 0 1 3 4 5 6 7
1 0 1 3 4 5 6 7 8 9
21 0 1 3 4 5 6 7 9
2 0 1 3 4 5 6 7 9 10
1 0 1 3 4 5 6 8
1 0 1 3 4 5 6 8 9 10
28 0 1 3 4 5 6 9
1 0 1 3 4 5 7
2 0 1 3 4 5 7 9
1 0 1 3 4 5 8
6 0 1 3 4 5 9
2 0 1 3 4 6
5 0 1 3 4 6 9
1 0 1 3 4 7
1 0 1 3 4 7 9
1 0 1 3 4 8 9
1 0 1 3 4 9
16 0 1 3 5
5 0 1 3 5 6
1 0 1 3 5 6 7
13 0 1 3 5 6 7 9
1 0 1 3 5 6 7 10
1 0 1 3 5 6 8
14 0 1 3 5 6 9
1 0 1 3 5 6 10
2 0 1 3 5 7
10 0 1 3 5 7 9
2 0 1 3 5 8
23 0 1 3 5 9
1 0 1 3 5 9 10
6 0 1 3 6
1 0 1 3 6 7
5 0 1 3 6 7 9
5 0 1 3 6 9
1 0 1 3 6 10
5 0 1 3 7
3 0 1 3 7 9
26 0 1 3 9
1 0 1 3 10
1 0 1 4
1 0 1 4 5
2 0 1 4 5 6
1 0 1 4 5 7 10
3 0 1 4 5 9
2 0 1 4 6
2 0 1 4 6 9
8 0 1 5
4 0 1 5 6
1 0 1 5 6 7 9
2 0 1 5 6 9
1 0 1 5 7
1 0 1 5 8
3 0 1 5 9
13 0 1 6
1 0 1 6 7
7 0 1 6 9
4 0 1 7
20 0 1 9
1 0 2 3
1 0 2 3 4 8
2 0 2 3 5
1 0 2 3 5 6
1 0 2 4
1 0 2 4 5
2 0 2 5
2 0 3
1 0 3 4
1 0 3 4 5
1 0 3 4 5 6 8
1 0 3 4 6
2 0 3 5
4 0 3 6
2 0 4
1 0 4 6
3 0 5
1 0 5 6
1 0 5 6 8
1 0 5 7
1 0 5 8
8 0 6
1 0 6 8
1 0 6 9
49 1
5 1 2
2 1 2 3
2 1 2 3 4
4 1 2 3 4 5 6
1 1 2 3 4 5 6 9
1 1 2 3 4 5 8
1 1 2 3 4 5 9
2 1 2 3 4 5 10
1 1 2 3 4 6
3 1 2 3 5
2 1 2 3 5 6
1 1 2 3 5 6 8
1 1 2 3 5 6 9
2 1 2 3 5 8
1 1 2 3 6
1 1 2 3 6 9
1 1 2 3 10
2 1 2 4
1 1 2 4 5 6 9
1 1 2 4 5 10
1 1 2 5
2 1 2 6
1 1 2 6 7
1 1 2 7
1 1 2 9
9 1 3
3 1 3 4
2 1 3 4 5
3 1 3 4 5 6 9
1 1 3 4 5 7
2 1 3 5
3 1 3 5 6
1 1 3 5 7 9
1 1 3 5 8
1 1 3 5 9
6 1 3 6
2 1 3 6 9
3 1 3 9
5 1 4
1 1 4 5
1 1 4 5 6
2 1 4 6
1 1 4 7 9
1 1 4 10
6 1 5
3 1 5 6
1 1 5 6 8
1 1 5 10
21 1 6
4 1 9
15 2
2 2 3
1 2 3 5
1 2 3 5 6 9
1 2 3 9
1 2 4
1 2 4 6 7
2 2 5
4 2 6
10 3
2 3 4
1 3 4 5
1 3 4 6
6 3 5
3 3 5 6
1 3 5 6 7
1 3 5 10
5 3 6
4 4
1 4 5
1 4 5 6
1 4 5 6 7
1 4 6
1 4 6 7
15 5
8 5 6
1 5 8
1 5 10
26 6
1 6 7
1 6 7 10
2 6 9
2 6 10
1 7
1 8
1 10
1702
first32_in_the_year-ago
JJ_->_net:12
NN_->_assurance:2
NN_->_assurance:1
loss_<-_<det>_<nmod:of>_<nmod:of>:2
loss_<-_<det>_<amod>_<nmod:of>_<nmod:of>:12
JJ_->_Per-share:1
revenue_<-_<case>_<nmod:of>:12
CD_->_1?3/8:12
VBN_->_ended:12
$_<-_<case>_<nummod>_<cc>_<conj:or>_<case>_<nummod>:12
NN_->_assurance:12
profit_<-_<nmod:of>_<nmod:of>:2
loss_<-_<det>_<amod>_<nmod:of>_<nmod:of>:2
NN_->_net:12
NNP_->_Computer:12
first32_in_the_year-earlier
share_period
net_period
increased_<-_<nsubj>_<dobj>_<nmod:to>_<nmod:from>:1
from_per-share
last12_period_billion
share_year-earlier
ADVP_->_RB_NP_PP:12
WRB_->_When:12
says_<-_<nsubj>_<ccomp>:12
point_index
first2_per-share
$_<-_<case>_<nummod>_<cc>_<conj:or>_<case>_<nummod>:2
period_rise
$_<-_<case>_<nummod>_<cc>_<conj:or>:12
VBP_->_include:12
JJ_->_likely:12
%_per-share
up_<-_<nmod:npmod>:12
net_<-_<amod>:2
VP_->_VBD_RB_VP:12
rose_<-_<nsubj>_<nmod:to>_<nmod:from>:1
VP_->_VBD_ADVP_PP:12
NN_->_income:12
revenue_<-_<case>_<nmod:of>:2
or_period
NN_->_offering:2
VBP_->_include:1
%_<-_<nummod>_<nmod:of>:2
VBN_->_priced:2
ADJP_->_RB_JJ:12
WP_->_What:1
a_send
JJ_->_federal:12
going_<-_<nsubj>_<aux>_<xcomp>:2
RB_->_Now:1
RB_->_Now:2
IN_->_into:12
VBD_->_responded:2
VBD_->_responded:1
VBD_->_followed:1
PRP$_->_her:12
CD_->_One:2
first2_one
president_be
VP_->_VBD:12
PRP_->_It:12
NNP_->_Computer:1
gain_of
IN_->_In:12
period_to
._a
last1_yen
._->_.:1
._the
NN_->_chief:1
._of
NNS_->_yen:2
._to
some_at
ADJP_->_JJ:12
NN_->_officer:1
TO_->_To:1
said_<-_<nsubj>_<ccomp>:1
loss_,
loss_a
,_later
in_later
CD_->_1986:1
CD_->_22:1
million_<-_<compound>:12
some_say
-RRB-_->_-RCB-:2
's_say
NNS_->_investors:1
WP_->_What:2
have_''
VBZ_->_does:2
say_and
VBG_->_going:2
-LRB-_->_-LCB-:2
NP_->_DT:12
VBZ_->_says:1
or_to
IN_->_from:12
when_,
,_$
,_%
to_rise
NNS_->_shares:1
NN_->_loss:1
RBR_->_earlier:2
the_investor
share_of
NN_->_president:1
say_the
VP_->_VBD_NP_PP:1
$_have
VBD_->_did:2
say_to
%_be
some_the
NP_->_QP_NNS:1
%_in
VP_->_VBD_S:1
in_%
NP_->_CD:12
%_of
when_the
NN_->_income:2
NNP_->_Corp.:1
NN_->_sale:1
MD_->_may:1
NN_->_%:1
in_say
%_to
MD_->_would:12
$_and
they_'s
VBD_->_said:1
have_say
VP_->_MD_VP:12
but_of
share_,
CD_->_15:1
the_sale
in_rise
say_say
of_say
of_million
share_share
%_the
million_<-_<compound>_<compound>:2
a_sale
a_%
from_from
in_sale
some_,
WDT_->_which:1
:_->_;:1
share_a
S_->_PP_,_NP_VP:12
NP_->_NP_,_NP:1
NP_->_DT_CD_NNS:2
not_for
VP_->_VBD_NP_PP_PP:2
NP_->_CD_NN:1
PRT_->_RP:12
NP_->_EX:1
or_,
a_rise
of_''
some_of
ADVP_->_RB_NP:1
and_%
in_million
say_,
WP_->_what:1
$_<-_<case>_<nummod>:2
ADJP_->_CD_NN:1
of_%
$_of
VB_->_be:12
for_%
VP_->_VBZ_NP:2
PRP$_->_his:12
VP_->_VBZ_NP:1
ADVP_->_RB:2
ADVP_->_RB:1
not_it
SBAR_->_IN_S:2
be_not
the_the
other_to
VP_->_MD_RB_VP:2
VP_->_MD_RB_VP:1
SBAR_->_IN_S:1
some_be
do_he
the_rise
NP_->_PRP:12
not_of
first2_it
,_,
say_be
that_they
VP_->_VBD_VP:12
VP_->_VBD_PP:2
VP_->_VBD_PP:1
NP_->_$_CD:2
VP_->_VBP_ADJP:1
VP_->_VBP_ADJP:2
be_say
he_the
VP_->_VB_ADJP:2
VP_->_VB_ADJP:1
NNS_->_shares:2
,_at
IN_->_from:1
IN_->_from:2
VP_->_VB_S:1
VP_->_VB_S:2
not_to
share_to
NP_->_NNP:1
NP_->_NNP:2
,_net
``_be
VBD_->_was:1
VBD_->_was:2
have_of
the_Mr.
do_be
a_the
$_->_$:2
$_->_$:1
NP_->_NNP_NNP:2
''_be
NP_->_NNP_NNP:1
,_share
VP_->_VBD_NP_PP:2
ADJP_->_RB_JJ:2
ADJP_->_RB_JJ:1
he_in
of_from
VP_->_VBD_PP_PP:2
VBD_->_did:1
IN_->_that:2
IN_->_that:1
VP_->_VBP_VP:1
VP_->_VBP_VP:2
be_$
be_%
be_,
not_be
first2_Mr.
NP_->_QP_NNS:2
PP_->_TO_NP:12
S_->_VP:2
S_->_VP:1
VP_->_VBD_SBAR:2
VP_->_VBD_SBAR:1
VP_->_TO_VP:12
MD_->_will:2
be_a
MD_->_will:1
PRP_->_We:2
VP_->_VBD_S:2
,_to
VP_->_VBZ_RB_VP:1
VP_->_VBZ_RB_VP:2
a_Mr.
S_->_VP:12
in_$
and_and
he_Mr.
VP_->_VBD_NP:12
they_,
have_,
VP_->_VBP_VP:12
CC_->_or:1
CC_->_or:2
have_a
from_,
PRP$_->_his:1
the_they
PRP$_->_his:2
to_the
the_say
MD_->_may:2
NN_->_%:2
VP_->_VBG_NP:2
VP_->_VBG_NP:1
million_<-_<compound>:2
the_million
SBAR_->_WHADVP_S:1
SBAR_->_WHADVP_S:2
but_to
NP_->_NNP:12
the_%
the_$
the_,
PRP_->_they:2
PRP_->_they:1
VBD_->_said:2
MD_->_would:2
MD_->_would:1
the_not
VP_->_VBZ_VP:12
NNS_->_months:2
NP_->_NP_PP:1
's_$
VBP_->_are:1
NN_->_market:1
VBP_->_are:2
NN_->_market:2
NP_->_NP_PP:2
VP_->_VBZ_ADJP:1
VP_->_VBZ_ADJP:2
not_they
the_that
NP_->_QP:2
PP_->_IN_NP:12
MD_->_will:12
MD_->_could:1
MD_->_could:2
PRP_->_It:1
VP_->_VB:1
VP_->_VB:2
at_the
PRP_->_It:2
a_say
the_and
PRP_->_he:1
PRP_->_he:2
SBAR_->_WHNP_S:2
SBAR_->_WHNP_S:1
PRP_->_it:12
have_'s
NP_->_NP_PP:12
VP_->_VB_NP:12
PRP_->_we:1
ADJP_->_JJ:1
NP_->_CD_NNS:2
NP_->_CD_NNS:1
,_->_,:12
at_,
ADJP_->_JJ:2
NP_->_PRP:1
NP_->_PRP:2
IN_->_into:1
IN_->_into:2
be_year
to_$
to_%
earnings_$
from_the
and_''
VBZ_->_is:1
VBZ_->_is:2
RB_->_n't:1
RB_->_n't:2
S_->_PP_,_NP_VP:1
S_->_PP_,_NP_VP:2
,_say
first1_and
a_$
be_''
ADVP_->_RB:12
NNP_->_Mr.:1
NNP_->_Mr.:2
a_,
VP_->_VBP_NP:1
VP_->_VBP_NP:2
not_the
Mr._,
to_say
VP_->_VBD_NP:2
VP_->_VBD_NP:1
to_to
and_Mr.
NP_->_CD:1
%_<-_<nummod>:2
NP_->_CD:2
but_,
NP_->_NP_,_NP_,:2
NP_->_NP_,_NP_,:1
DT_->_the:12
he_and
,_->_,:2
,_->_,:1
a_be
VBZ_->_'s:1
VBZ_->_'s:2
PP_->_IN_NP:2
PP_->_IN_NP:1
WDT_->_which:2
IN_->_at:1
IN_->_at:2
some_a
NP_->_NNP_NNP_NNP:1
NP_->_DT_NN:2
NP_->_NNP_NNP_NNP:2
NP_->_DT_NN:1
the_even
in_Mr.
VP_->_VB_NP:1
VP_->_VB_NP:2
QP_->_CD_CD:2
VP_->_VBG_S:2
VP_->_VBG_S:1
,_''
VBP_->_do:1
VBP_->_do:2
IN_->_In:2
IN_->_In:1
CD_->_million:2
to_be
WHADVP_->_WRB:2
WHADVP_->_WRB:1
PRP_->_it:1
IN_->_that:12
RB_->_not:1
RB_->_not:2
PRP_->_it:2
not_that
that_the
CC_->_But:1
and_the
a_or
PRT_->_RP:1
PRT_->_RP:2
NP_->_NP_,_NP:2
VP_->_TO_VP:1
VP_->_TO_VP:2
,_Mr.
first1_but
but_be
in_the
a_to
a_we
,_the
S_->_CC_NP_VP:1
,_from
QP_->_$_CD_CD:2
VP_->_VBD_RB_VP:1
not_,
SBAR_->_WHNP_S:12
VP_->_VBP_RB_VP:1
VP_->_VBP_RB_VP:2
not_a
but_a
but_the
NP_->_CD_NN:2
be_be
first1_I
NNP_->_Friday:1
''_->_'':1
''_->_'':2
be_at
Mr._the
VBD_->_was:12
not_and
NP_->_EX:2
be_one
NP_->_NNP_NNP:12
CC_->_&:1
first2_that
to_year
the_''
be_market
VP_->_VBZ:2
VP_->_VBZ:1
first1_that
VP_->_VBZ_VP:1
VP_->_VBZ_VP:2
NNP_->_Mr.:12
and_say
ADJP_->_JJ_S:2
ADJP_->_JJ_S:1
be_they
a_million
he_,
SBAR_->_IN_S:12
NN_->_year:2
,_cent
VP_->_VBP_S:2
VP_->_VBP_S:1
to_from
PP_->_TO_NP:2
PP_->_TO_NP:1
be_Mr.
VBP_->_have:1
VBP_->_have:2
VBZ_->_is:12
VP_->_MD_VP:2
VP_->_MD_VP:1
$_be
a_from
VB_->_get:2
NNS_->_cents:2
and_,
VP_->_VBD:1
be_to
to_million
be_the
DT_->_some:1
DT_->_some:2
some_to
Mr._Mr.
be_of
VBZ_->_says:2
,_million
S_->_SBAR_,_NP_VP:2
S_->_SBAR_,_NP_VP:1
and_of
VP_->_VBD_VP:2
VP_->_VBD_VP:1
be_it
be_in
PRP_->_he:12
MD_->_can:1
MD_->_can:2
DT_->_the:1
DT_->_the:2
first2_we
VB_->_be:1
VB_->_be:2
of_$
say_a
from_to
NN_->_share:1
NP_->_DT_NN:12
NN_->_share:2
VBD_->_had:2
VBD_->_had:1
NP_->_DT:1
NP_->_DT:2
the_from
CD_->_five:1
PRP_->_We:1
RB_->_n't:12
IN_->_If:1
of_we
''_->_'':12
PRP_->_we:2
VBZ_->_does:1
to_we
be_we
PRP_->_you:1
the_we
JJ_->_net:2
VBP_->_'re:1
be_if
last1_million
CD_->_billion:1
CD_->_billion:2
$_up
name_be
DT_->_these:1
NP_->_CD_NN:12
billion_to
say_``
MD_->_could:12
last1_earlier
share_from
RBR_->_earlier:1
VBD_->_fell:1
VP_->_VBD_PP_PP:1
the_billion
$_$
$_,
$_a
year_million
VBN_->_named:1
million_'s
on_share
earlier_million
say_of
share_cent
CD_->_One:1
PP_->_IN_NP_NP:1
VBD_->_reported:1
with_$
VBD_->_rose:2
NP_->_NP_NP:12
million_million
to_can
SBAR_->_WHADVP_S:12
NN_->_income:1
from_$
from_%
%_year
WHADVP_->_WRB:12
earlier_to
RB_->_up:1
RB_->_up:2
to_sale
million_a
million_<-_<compound>:1
NN_->_vice:2
$_million
at_million
CD_->_billion:12
million_$
million_,
,_sale
year_from
from_million
VB_->_sell:2
million_the
year_year
share_$
who_Mr.
NP_->_CD_NNS:12
at_at
for_billion
IN_->_at:12
%_$
%_%
%_,
%_a
NP_->_DT_NN_RBR:1
billion_$
said_<-_<nsubj>_<ccomp>:2
last1_share
at_$
$_'s
the_net
last2_million
from_year
$_<-_<case>_<nummod>_<case>_<nummod>:2
NNS_->_sales:1
$_for
$_->_$:12
last2_%
%_<-_<nummod>:1
QP_->_CD_TO_CD:1
QP_->_CD_TO_CD:2
loss_$
NN_->_%:12
loss_million
VP_->_VBD_NP_PP:12
NNP_->_Inc.:1
CD_->_million:12
a_into
QP_->_CD_CD:1
VP_->_VBD_ADVP_PP:1
share_the
million_be
CD_->_million:1
$_billion
billion_billion
VBP_->_have:12
VP_->_VBD_SBAR:12
billion_<-_<compound>_<compound>:2
of_sale
up_from
million_in
QP_->_$_CD_CD:1
NN_->_quarter:2
CD_->_30:1
QP_->_$_CD_CD:12
VP_->_VBD_NP_PP_PP:1
to_billion
NN_->_year:12
month_to
year_sale
million_of
early_,
year_%
year_$
year_,
or_$
of_president
million_to
million_with
or_million
earlier_$
$_in
NP_->_NP_,_CC_NP:1
million_have
$_on
$_the
for_$
$_to
CD_->_five:2
DT_->_these:2
in_from
NN_->_president:2
for_from
$_with
first2_some
DT_->_Some:2
the_&
report_$
of_share
NNS_->_months:1
NP_->_QP:1
,_now
year_to
for_rise
NP_->_QP:12
NP_->_NP_NP:2
NP_->_NP_NP:1
CC_->_&:2
NN_->_year:1
VP_->_VBD:2
,_rise
some_in
they_one
VB_->_get:1
do_they
VBP_->_need:2
PRP_->_they:12
share_%
CD_->_15:2
VBD_->_closed:2
last2_say
she_she
:_->_;:2
VBG_->_going:1
VP_->_VBD_S:12
PRP$_->_your:2
PRP$_->_her:1
PRP$_->_her:2
ADJP_->_CD_NN:2
to_you
last2_share
NNS_->_investors:2
a_share
TO_->_To:2
be_Inc.
be_Co.
NNP_->_Inc.:2
._->_.:2
a_cent
the_you
share_<-_<det>:2
to_Co.
he_with
WP_->_what:2
VP_->_VBZ_RB_NP:1
earnings_million
PRP_->_you:2
be_you
VP_->_VB_S:12
rise_%
rise_$
month_from
,_yield
trading_$
to_gain
from_rise
compared_<-_<mwe>:2
million_share
NP_->_NP_,_CC_NP_,:2
DT_->_Some:1
PP_->_IN_NP_NP:2
VBD_->_reported:2
VBD_->_rose:1
NNP_->_Corp.:2
of_billion
$_year
first1_some
%_rise
a_revenue
and_president
from_billion
,_president
,_revenue
at_%
month_$
VBN_->_compared:2
VBD_->_closed:1
year_billion
%_million
VP_->_VBZ_ADJP:12
RB_->_later:1
a_billion
,_billion
million_or
last1_%
ADVP_->_RB_NP_PP:2
up_<-_<nmod:npmod>:2
CD_->_22:2
VBD_->_advanced:2
ADJP_->_CD_NN:12
NP_->_NP_,_NP_,:12
rise_to
up_$
from_up
$_or
for_or
VBD_->_fell:2
of_Inc.
VBD_->_had:12
NN_->_officer:2
VP_->_VBG_NP:12
be_president
some_and
ADVP_->_RB_NP:2
NP_->_NP_,_CC_NP:2
MD_->_ca:1
the_if
VP_->_VBD_ADVP_PP:2
NNP_->_Friday:2
last2_problem
WRB_->_When:2
VBD_->_earned:2
CD_->_nine:2
JJ_->_federal:2
first2_after
first2_when
IN_->_After:2
IN_->_After:1
1986_<-_<case>:2
CD_->_1986:2
NN_->_loss:2
-RRB-_->_-RCB-:1
analyst_the
share_have
-LRB-_->_-LCB-:1
other_say
NN_->_market:12
says_<-_<nsubj>_<ccomp>:1
WRB_->_When:1
share_in
but_''
Mr._say
VB_->_sell:1
early_the
he_say
say_not
for_sale
not_say
VP_->_VBD_RB_VP:2
not_he
that_say
DT_->_that:2
CC_->_And:1
NP_->_DT_CD_NNS:1
to_Mr.
other_and
other_,
first2_if
IN_->_If:2
NN_->_offering:1
loss_from
early_in
NN_->_sale:2
JJ_->_federal:1
last2_billion
VBN_->_ended:2
they_''
quarter_<-_<case>_<det>_<amod>:2
say_from
VBG_->_trying:1
CD_->_30:2
he_after
$_that
$_include
$_<-_<case>_<nummod>:1
share_<-_<det>_<det>:2
VBG_->_trying:2
RB_->_later:2
JJ_->_important:2
analyst_a
DT_->_that:1
some_'s
analyst_be
be_recently
NN_->_share:12
but_say
the_.
try_,
VBP_->_'re:2
gain_the
analyst_,
VP_->_VBD_PP:12
's_billion
NP_->_DT_NN_RBR:2
name_Mr.
name_have
year_<-_<det>_<advmod>:2
month_billion
of_revenue
million_up
say_%
the_period
VBD_->_announced:2
they_New
the_revenue
JJ_->_likely:2
and_later
VBD_->_closed:12
third-quarter_$
VBD_->_said:12
,_vice
NP_->_NNP_NNP_NNP:12
VBD_->_followed:2
said_<-_<ccomp>_<nsubj>:2
profit_%
report_share
or_loss
ADVP_->_NP_RBR:2
some_this
going_<-_<nsubj>_<aux>_<xcomp>:1
earlier_<-_<nmod:npmod>:2
NN_->_volatility:1
NN_->_volatility:2
last2_now
last2_yen
SINV_->_S_,_''_VP_NP:2
CD_->_1?3/8:2
MD_->_can:12
still_say
NNS_->_sales:12
MD_->_may:12
._be
with_say
VP_->_VBP_NP:12
ADVP_->_NP_RBR:1
JJ_->_unchanged:1
VBP_->_need:1
the_need
%_<-_<nummod>_<nummod>:1
VP_->_VBZ_NP:12
say_''
RB_->_not:12
PRP$_->_your:1
NNS_->_sales:2
VP_->_VB:12
VBP_->_are:12
not_on
not_we
VBZ_->_'s:12
be_can
compared_<-_<mwe>:1
%_will
NP_->_NP_,_CC_NP_,:1
VBN_->_ended:1
last1_ago
million_<-_<compound>_<compound>:1
VBN_->_compared:1
year_rise
up_<-_<nmod:from>:2
or_from
and_even
JJ_->_likely:1
first1_other
says_<-_<ccomp>_<nsubj>:2
not_will
''_say
;_to
JJ_->_Other:1
PRP_->_We:12
not_as
%_increase
share_rise
VBD_->_increased:2
VB_->_yield:1
NN_->_Revenue:2
VBD_->_gained:2
rise_rise
first2_revenue
or_rise
%_net
or_%
earlier_%
up_%
%_<-_<nummod>_<nummod>:2
MD_->_ca:2
cents_<-_<nummod>_<dep>:2
says_<-_<nsubj>_<ccomp>:2
VP_->_VBZ_RB_NP:2
NP_->_DT_``_NN_'':1
some_``
some_''
S_->_SBAR_,_NP_VP:12
revenue_a
NP_->_EX:12
not_''
's_rise
profit_from
JJ_->_important:1
VBP_->_include:2
income_<-_<amod>:1
NN_->_quarter:1
quarter_to
last1_rally
analyst_of
S_->_CC_NP_VP:2
they_say
share_sale
first1_not
RB_->_Not:1
quarter_million
increase_billion
NN_->_net:2
quarter_$
ago_$
VBD_->_increased:1
of_period
,_period
analyst_say
earnings_from
compare_from
RB_->_Not:2
of_cent
JJ_->_unchanged:2
VB_->_yield:2
VBD_->_climbed:2
earlier_billion
rose_<-_<nsubj>_<nmod:to>_<nmod:from>:2
earlier_rise
CD_->_1/8:2
million_<-_<compound>_<compound>:12
ago_from
much_say
VBD_->_fell:12
$_<-_<case>_<nummod>_<cc>_<conj:or>_<case>_<nummod>_<cc>_<conj:or>:1
DT_->_some:12
VBD_->_climbed:1
first2_now
VBN_->_eliminated:2
rise_billion
yen_to
state_$
CD_->_21.5:2
earn_from
RB_->_up:12
CD_->_nine:12
VBN_->_priced:12
loss_or
million_period
$_earn
income_rise
IN_->_If:12
third-quarter_revenue
compare_sale
months_<-_<case>_<det>_<nummod>:2
third-quarter_billion
$_year-earlier
NP_->_NP_,_CC_NP:12
revenue_share
quarter_cent
compare_rise
NN_->_Revenue:12
quarter_or
VP_->_VBD_ADVP_,_S:1
$_<-_<case>_<nummod>:12
VBD_->_plunged:1
NNS_->_investors:12
president_<-_<nmod:of>:1
from_earlier
vice_be
billion_from
Computer_to
SINV_->_S_,_''_VP_NP:1
WDT_->_which:12
about_%
yen_yen
NP_->_DT_``_NN_'':2
VBD_->_announced:1
$_loss
million_loss
net_of
1986_<-_<case>:1
a_net
cent_be
%_<-_<nummod>_<nmod:of>:1
NP_->_$_CD:12
$_%
net_a
net_,
$_from
net_$
NN_->_vice:1
million_%
million_from
cent_a
share_million
earlier_from
cent_the
million_for
net_to
year_<-_<det>_<advmod>:1
%_'s
third-quarter_to
NNS_->_cents:1
NP_->_$_CD:1
share_<-_<det>:1
first12_they_they
for_cent
$_share
VBD_->_jumped:1
share_or
a_period
year_revenue
or_or
cent_,
million_billion
million_year
billion_%
%_billion
month_%
income_<-_<amod>:2
VBD_->_gained:1
JJ_->_Other:2
cent_cent
first2_other
VP_->_VBD_NP_PP_PP:12
billion_<-_<compound>_<compound>:1
%_from
or_share
NNS_->_yen:1
rise_from
ADVP_->_RB_NP_PP:1
NNS_->_cents:12
from_net
earlier_sale
CC_->_or:12
VBZ_->_needs:1
$_sale
net_the
VBN_->_priced:1
NN_->_net:1
fall_from
$_net
cent_share
to_revenue
profit_rise
,_request
NNS_->_yen:12
%_<-_<nummod>:12
NP_->_NP_,_NP:12
QP_->_CD_CD:12
million_net
NP_->_QP_NNS:12
NN_->_sale:12
loss_%
VB_->_comment:1
VP_->_VBD_PP_PP:12
third-quarter_from
index_<-_<det>:1
revenue_have
revenue_on
revenue_or
third-quarter_%
quarter_billion
to_per-share
third_billion
WP_->_what:12
a_earn
DT_->_that:12
NNS_->_months:12
NP_->_NP_,_CC_NP_,_ADVP:2
NP_->_DT_CD_NNS:12
income_or
VBD_->_earned:1
last1_period
yen_<-_<case>_<nummod>_<case>_<nummod>:2
up_<-_<nmod:npmod>:1
NN_->_request:2
earlier_<-_<nmod:npmod>:1
cent_$
NNS_->_personnel:1
cent_from
cents_<-_<nummod>_<dep>:1
NNS_->_Sales:2
$_rise
JJ_->_net:1
CC_->_&:12
cent_million
first2_sale
from_sale
income_to
cent_to
VBP_->_do:12
PRP_->_you:12
$_revenue
NNS_->_shares:12
a_year-earlier
rise_sale
cent_%
million_cent
million_revenue
NP_->_NP_,_CC_NP_,:12
JJ_->_year-earlier:2
$_cent
income_million
%_sale
rose_<-_<nsubj>_<dobj>_<nmod:to>_<nmod:from>:1
share_revenue
third_$
cent_of
NN_->_quarter:12
fall_$
$_<-_<case>_<nummod>_<cc>_<conj:or>:1
quarter_<-_<case>_<det>_<amod>:1
$_<-_<case>_<nummod>_<case>_<nummod>:1
compare_$
JJ_->_year-earlier:1
$_not
net_from
million_sale
share_<-_<det>_<det>:1
VP_->_VBP_RB_NP:2
VBZ_->_does:12
first1_net
million_last
cent_or
net_share
from_revenue
nine_to
income_%
quarter_%
CD_->_nine:1
last12_million_million
year-earlier_$
year-earlier_%
quarter_share
months_<-_<case>_<det>_<nummod>:1
or_sale
share_billion
quarter_from
%_revenue
or_billion
year-earlier_from
for_revenue
or_cent
$_<-_<case>_<nummod>_<cc>_<conj:or>_<case>_<nummod>_<cc>_<conj:or>:2
third_%
VBN_->_eliminated:1
earn_$
the_year-earlier
million_year-earlier
30_million
Warsaw_<-_<case>:1
net_loss
income_$
ago_%
net_million
rose_<-_<nsubj>_<dobj>_<nmod:to>_<nmod:from>:2
up_<-_<nmod:from>:1
cent_revenue
gained_<-_<nsubj>_<dobj>_<nmod:to>:1
QP_->_CD_TO_CD:12
JJ_->_Net:2
VBD_->_rose:12
NNP_->_Friday:12
NN_->_loss:12
quarter_<-_<case>_<det>_<amod>:12
net_on
declined_<-_<nsubj>_<xcomp>:2
loss_<-_<det>_<amod>_<nmod:of>_<nmod:of>:1
net_%
net_sale
net_rise
profit_<-_<amod>:1
nine_or
cent_sale
first12_for_revenue
$_<-_<case>_<nummod>_<cc>_<conj:or>_<case>_<nummod>_<cc>_<conj:or>_<nmod:tmod>:1
income_from
month_fall
income_billion
$_period
revenue_revenue
net_net
net_or
NN_->_Revenue:1
a_comment
net_up
income_revenue
nine_from
nine_billion
period_$
nine_$
nine_%
cents_<-_<nummod>_<dep>_<nummod>_<dep>:1
first31_for_the_nine
last12_earlier_billion
cent_billion
net_cent
$_<-_<case>_<nummod>_<cc>_<conj:or>:2
billion_net
VB_->_get:12
he_later
NN_->_request:1
later_<-_<nmod:npmod>:2
share_<-_<det>:12
later_<-_<nmod:npmod>:1
old_<-_<nmod:npmod>:1
from_yen
VBD_->_did:12
yen_from
billion_<-_<compound>_<compound>:12
point_would
nine_of
loss_<-_<det>_<nmod:of>_<nmod:of>:1
compare_billion
$_<-_<case>_<nummod>_<cc>_<conj:or>_<case>_<nummod>:1
index_at
loss_share
period_from
CD_->_1?3/8:1
;_on
NNP_->_Corp.:12
bond_<-_<det>_<amod>_<amod>:1
million_rise
ADJP_->_JJ_S:12
share_issue
NNS_->_Sales:1
declined_<-_<nsubj>_<xcomp>:1
profit_billion
period_%
net_revenue
compared_<-_<mwe>:12
last12_share_share
first31_the_benchmark_30-year
VBN_->_compared:12
yen_billion
VBD_->_gained:12
earn_to
Virginia_$
CD_->_1/8:1
VBZ_->_says:12
billion_yen
%_<-_<nummod>_<nummod>:12
S_->_S_NP_VP:1
said_<-_<nsubj>_<ccomp>:12
VB_->_yield:12
cents_<-_<nummod>_<dep>:12
earlier_revenue
or_revenue
PP_->_IN_NP_NP:12
cent_rise
CD_->_1?1/4:1
index_<-_<det>:2
said_<-_<ccomp>_<nsubj>:1
revenue_<-_<case>_<nmod:of>:1
loss_rise
$_<-_<case>_<nummod>_<case>_<nummod>:12
VB_->_comment:2
RBR_->_earlier:12
last12_share_billion
month_revenue
VBD_->_reported:12
nine_revenue
net_billion
nine_rise
ADVP_->_RB_NP:12
period_billion
JJ_->_Net:1
NP_->_DT_NN_RBR:12
first12_for_sale
owns_<-_<nsubj>_<dobj>:1
last12_earlier_million
NP_->_NP_,_CC_NP_,_ADVP:1
fell_<-_<nsubj>_<dobj>_<nmod:to>_<nmod:from>:2
month_rise
nine_share
they_Corp.
looking_<-_<nsubj>_<aux>_<nmod:for>:2
first1_analyst
too_''
NNP_->_Computer:2
some_&
analysts_<-_<det>:1
some_New
some_York
first32_a_year_earlier
CD_->_30:12
first12_he_when
designed_<-_<xcomp>:2
PRP_->_we:12
VB_->_assist:1
-LRB-_->_-LCB-:12
-RRB-_->_-RCB-:12
Pioneer_to
JJ_->_abundant:1
NNP_->_Pioneer:1
third_<-_<det>:2
NN_->_guide:1
VBD_->_withdrew:1
NN_->_north:1
possible_<-_<advmod>:2
%_<-_<nummod>_<nmod:of>:12
profit_<-_<nmod:of>_<nmod:of>:1
argue_<-_<nsubj>_<ccomp>:1
's_request
say_<-_<nsubj>_<aux>_<neg>_<ccomp>:2
looking_<-_<nsubj>_<aux>_<nmod:for>:1
IMF_they
JJ_->_unchanged:12
NN_->_request:12
1/8_to
did_<-_<nsubj>_<xcomp>:2
did_<-_<nsubj>_<xcomp>:1
request_million
request_$
request_request
unchanged_<-_<nsubj>_<cop>_<nmod:at>:2
were_<-_<nsubj>_<advmod>:2
were_<-_<nsubj>_<advmod>:1
CD_->_1/8:12
10,000_<-_<dep>:1
TO_->_To:12
NP_->_NP_,_CC_NP_,_ADVP:12
maximum_<-_<det>_<nmod:of>:2
maximum_<-_<det>_<nmod:of>:1
costing_<-_<dep>_<dobj>:2
costing_<-_<dep>_<dobj>:1
first12_the_revenue
rose_<-_<nsubj>_<dobj>_<nmod:to>_<nmod:from>:12
yen_<-_<case>_<nummod>_<case>_<nummod>:12
JJ_->_Per-share:2
VBN_->_donated:2
VBN_->_donated:1
VBD_->_increased:12
year-earlier_revenue
line_<-_<nmod:poss>:2
containing_<-_<dobj>:1
JJ_->_abundant:2
CD_->_1986:12
yen_<-_<case>_<nummod>_<case>_<nummod>_<case>_<nummod>:1
pretax_from
1986_<-_<case>:12
first32_per-share_net_rise
yen_net
$_slip
income_<-_<compound>:2
NNP_->_Byrd:12
yen_income
men_<-_<det>_<case>:2
VB_->_comment:12
MD_->_ca:12
months_<-_<case>_<det>_<nummod>_<appos>:1
VBN_->_donated:12
said_<-_<ccomp>_<nsubj>:12
said_<-_<ccomp>_<ccomp>_<nsubj>:1
center_<-_<case>_<det>_<amod>_<amod>:2
NNS_->_Sales:12
VBG_->_Operating:1
million_<-_<case>_<compound>:12
volume_<-_<amod>:2
NP_->_NN_NN_NN_NNS:1
NP_->_NN_NN_NN_NNS:2
first32_revenue_rise_to
fell_<-_<nsubj>_<dobj>_<nmod:to>_<nmod:from>:1
CD_->_22:12
VBN_->_eliminated:12
10,000_<-_<dep>:2
loan_as
earth_<-_<case>:2
says_<-_<ccomp>_<ccomp>_<nsubj>:2
too_say
some_Corp.
analyst_''
president_<-_<nmod:of>:2
president_<-_<cc>_<conj:and>:2
and_vice
VP_->_VBZ:12
._,
be_vice
VBD_->_jumped:2
VP_->_VBP_RB_NP:1
NN_->_chief:2
they_Co.
VBD_->_plunged:2
CD_->_1?1/4:2
analysts_<-_<det>:2
cents_<-_<nummod>_<dep>_<nummod>_<dep>:2
earnings_revenue
gained_<-_<nsubj>_<dobj>_<nmod:to>:2
VP_->_VB_ADJP:12
VP_->_VBG_S:12
NNS_->_personnel:2
but_want
first2_maybe
CD_->_5/8:2
,_personnel
as_&
name_president
NNP_->_Vice:2
VBD_->_advanced:1
they_&
VP_->_VBP_ADJP:12
first32_the_Ministry_of
yen_%
NNP_->_Ehrlich:1
some_president
who_chief
jumped_<-_<nsubj>_<dobj>_<nmod:to>_<nmod:from>:2
jumped_<-_<nsubj>_<dobj>_<nmod:to>_<nmod:from>:1
million_<-_<case>_<compound>:2
CD_->_15:12
rate_<-_<det>_<compound>:2
yen_<-_<case>_<nummod>_<case>_<nummod>:1
wake_<-_<case>_<det>_<nmod:of>:1
first31_the_Treasury_'s
VBD_->_jumped:12
NN_->_guide:2
NN_->_offering:12
CD_->_five:12
DT_->_these:12
he_federal
VBN_->_named:2
president_president
NN_->_president:12
VB_->_sell:12
VP_->_VBZ_RB_VP:12
VP_->_MD_RB_VP:12
says_<-_<ccomp>_<nsubj>:1
VP_->_VBP_RB_VP:12
construction_for
year-earlier_to
VBP_->_'re:12
profit_<-_<amod>:2
state_million
last12_yen_yen
of_IMF
West_million
NNP_->_Appropriations:1
Appropriations_of
West_$
billion_rise
increased_<-_<nsubj>_<dobj>_<nmod:to>_<nmod:from>:2
income_sale
Warsaw_<-_<case>:2
vice_president
NN_->_vice:12
he_respond
name_vice
first32_he_have_be
VBD_->_withdrew:2
CD_->_5/8:1
NN_->_officer:12
IN_->_atop:1
NNP_->_Vice:1
grounds_<-_<case>_<amod>:1
pretax_to
containing_<-_<dobj>:2
year-earlier_billion
income_<-_<compound>:1
owns_<-_<nsubj>_<dobj>:2
VBG_->_Operating:2
targets_<-_<amod>:2
NNP_->_Byrd:2
NNP_->_Appropriations:2
VP_->_VBP_S:12
NN_->_aluminum:2
Byrd_of
NNP_->_Inc.:12
VBN_->_named:12
$_request
funds_<-_<amod>_<amod>:1
receive_<-_<nsubj>_<aux>_<dobj>:2
says_<-_<ccomp>_<nsubj>:12
million_<-_<case>_<compound>:1
military_request
21.5_million
%_yen
21.5_of
yen_rise
SINV_->_S_,_''_VP_NP:12
CD_->_21.5:1
trade_<-_<det>_<amod>:2
earn_rise
NNP_->_Byrd:1
million_request
CD_->_1?1/4:12
and_Ministry
net_<-_<amod>:1
up_<-_<nmod:from>:12
year_<-_<det>_<advmod>:12
share_<-_<det>_<det>:12
Wald_<-_<compound>:12
Wald_<-_<compound>:2
$_<-_<case>_<nummod>_<cc>_<conj:or>_<case>_<nummod>_<cc>_<conj:or>_<nmod:tmod>:2
VBG_->_trying:12
end_<-_<mark>_<nsubj>_<aux>_<nmod:by>:2
still_New
fund_record
year_<-_<advmod>_<det>_<appos>:2
NNP_->_Wald:2
trader_head
bond_<-_<det>_<amod>_<amod>:2
NNP_->_Carson:2
life_<-_<nmod:on>:2
NNP_->_Wald:12
race_<-_<det>_<amod>:2
wake_<-_<case>_<det>_<nmod:of>:2
said_<-_<ccomp>_<ccomp>_<nsubj>:2
CC_->_But:2
government_at
S_->_S_NP_VP:2
analyst_&
president_<-_<cc>_<conj:and>:1
first2_consider
authority_<-_<det>_<amod>_<compound>:2
Wald_<-_<compound>:1
advanced_<-_<nsubj>_<dobj>_<nmod:to>:2
:_->_;:12
NNP_->_Wald:1
RB_->_later:12
funds_<-_<amod>_<amod>:2
the_65
Opponents_<-_<nmod:of>:2
NNS_->_Opponents:2
jumped_<-_<nsubj>_<dobj>_<nmod:to>_<nmod:from>:12
CC_->_But:12
NNP_->_Pioneer:12
income_<-_<amod>:12
JJ_->_ineffective:2
NP_->_NN_CC_NN_VBG_NN:2
rate_<-_<det>_<compound>:1
designed_<-_<xcomp>:1
IN_->_atop:2
S_->_CC_NP_VP:12
VBZ_->_needs:12
VBP_->_need:12
NN_->_volatility:12
NNP_->_Pioneer:2
argue_<-_<nsubj>_<ccomp>:2
VBG_->_going:12
PRP$_->_your:12
NP_->_NN_NNS_NN:1
VBZ_->_needs:2
second_last
NN_->_famine:2
receive_<-_<nsubj>_<aux>_<dobj>:1
work_<-_<nsubj>_<nmod:in>:1
work_<-_<nsubj>_<nmod:in>:2
NN_->_north:2
NP_->_NN_CC_NN_VBG_NN:1
VBD_->_plunged:12
confirm_<-_<mark>_<dobj>:1
VP_->_VBD_ADVP_,_S:2
confirm_<-_<mark>_<dobj>:2
center_will
old_<-_<nmod:npmod>:2
tell_she
NNP_->_Carson:1
last1_comparable
vary_<-_<nsubj>_<advmod>_<nmod:by>:2
indications_<-_<det>_<compound>:1
first31_these_rate_indication
directly_by
last12_comparable_location
going_<-_<nsubj>_<aux>_<xcomp>:12
CC_->_And:2
comparable_<-_<nsubj>_<cop>_<neg>_<advmod>:1
last2_location
practices_<-_<amod>:2
first32_lend_practice_vary
location_<-_<case>:2
NNS_->_surpluses:1
first12_these_lend
possible_<-_<advmod>:1
IMF_,
managers_<-_<nmod:poss>:1
IMF_IMF
trade_<-_<det>_<amod>:1
increase_IMF
men_<-_<det>_<case>:1
JJ_->_ineffective:1
NNS_->_surpluses:2
grounds_<-_<case>_<amod>:2
NN_->_famine:1
NNS_->_personnel:12
Opponents_<-_<nmod:of>:1
Appropriations_request
Appropriations_$
VB_->_assist:2
end_<-_<mark>_<nsubj>_<aux>_<nmod:by>:1
managers_<-_<nmod:poss>:2
advanced_<-_<nsubj>_<dobj>_<nmod:to>:1
authority_<-_<det>_<amod>_<compound>:1
earth_<-_<case>:1
state_request
VP_->_VBZ_RB_NP:12
line_<-_<nmod:poss>:1
year_<-_<advmod>_<det>_<appos>:1
NNP_->_Appropriations:12
targets_<-_<amod>:1
NP_->_NN_NNS_NN:2
unchanged_<-_<nsubj>_<cop>_<nmod:at>:1
Appropriations_million
life_<-_<nmod:on>:1
center_<-_<case>_<det>_<amod>_<amod>:1
third_<-_<det>:1
DT_->_Some:12
did_<-_<nsubj>_<xcomp>:12
race_<-_<det>_<amod>:1
NNP_->_Ehrlich:2
NN_->_aluminum:1
glass_will
battery_be
first1_opponent
NNS_->_Opponents:1
NNP_->_Ehrlich:12
say_<-_<nsubj>_<aux>_<neg>_<ccomp>:1
NN_->_aluminum:12
23.29205384601559
16.476153605740326
88.22886642428529
72.85256115938341
15.690382296110915
8.936784758223203
83.59303636596955
15.266040218067994
107.1640019618594
72.58637214299344
10.657045586040633
71.63944430389888
30.148175627680637
22.17919640602001
14.816648115168654
95.53554179804974
20.838755107799
12.454288610262674
7.537772708534911
15.714195432084532
3.1762248684215715
5.059005691761197
32.59402200643556
9.202376042647858
19.28957192457943
18.192397833041134
9.520805814564588
13.937908037396157
2.3683207303297795
39.8573303716492
10.403032473757715
66.72660133956023
59.962803213275485
24.77700560878751
36.90555416285964
76.96147611485931
5.322379530581371
-4.176672006265577
22.037070991410932
23.128522225052762
12.243977685976635
-8.679590064878884
10.26169253662766
6.677055282297465
16.13229211500185
51.96620377521687
-3.1578224939305026
91.02701144180219
69.9332788602008
-15.718577415667895
19.252218132889936
46.70435980552307
-4.0445226178315234
4.3832815727810015
14.130195463507361
37.564994969890726
40.17398250699682
37.20006151429483
19.557631895298858
47.66982717820329
-3.7872958686346676
120.58332420283254
16.60727292654293
28.184338981676767
85.2672005053095
32.69053803479022
2.987269753509933
28.75908472026923
4.165029204350523
18.94198240995722
-22.646286345643734
23.22054987349869
4.9284412863759615
16.30213449133807
-3.490944965876806
39.35304486458166
-20.57116578020978
23.95245401738439
10.83018757334718
-0.07814206052876993
28.189715553249776
18.85595458955325
37.35269977462374
14.329590378489522
37.98062283683496
7.7139456467132295
-2.8263638335857024
-23.792000976628533
13.876939633610188
-9.674199489950734
17.640248974244866
9.358037090662707
5.287355661245352
-29.383362245480523
19.83439030231562
32.08406184207819
12.6006941299819
11.67109420047791
-72.0357429405949
28.08908802994431
8.46064644266463
-16.837756988835377
-0.23398348558767945
-1.6990077691560748
6.696365174970215
38.50270937604039
-101.30888402485132
19.8745025214824
24.734948919262656
22.193703159368972
-8.804369085799578
-17.56750295756944
-14.555759364648441
35.035628172930366
-40.62748380112257
89.18558445302556
-48.16984496130104
-13.120653648671434
-8.229322510114537
45.187411345113446
-29.492666098401624
50.66091949687584
-46.32391202615914
-5.072932917624322
-56.66420215344663
-66.45222185871276
2.506188511182447
-5.689815828933777
33.33643479010078
-26.29713335734803
6.8185687803464
31.309643531042457
0.12696429045374957
-42.51411435284874
15.48860636455656
68.13549416225128
-47.823854434701666
-57.44130982898384
-139.22313250934937
-68.95487607816831
-0.36506154016426606
13.002376220600949
6.751234142984306
-6.807674288883836
7.19318147595054
67.54189282991936
-69.46400240807957
-25.99146022442385
-42.69281900199499
-30.539960495217784
-42.52647674104501
87.32592419870184
-42.617389066730944
-3.127914611675258
-23.01315113009383
5.902112833672201
24.02867295484514
54.9295486004276
-32.605167850706145
6.687061291322809
-10.587165795661052
-1.1207788110405636
-1.3138486710918693
66.88587076616044
-8.576041112236991
-43.67956666762224
32.61864933745622
16.12766154420828
-34.03703150293835
17.891677078118448
-33.32803597596339
38.13855472433859
-14.892730716635112
-3.402103211095349
47.81904964861715
4.821205094869055
-3.3044322247488003
-47.17996001220904
10.88656449220016
-14.15599546464794
5.15710372892525
44.328868359135534
8.575940186234119
-10.661075933548572
-39.03061182319565
-21.524151771875914
22.062524948587704
-1.4248013442098277
-74.09094201660304
-5.077827244337617
26.213969332572894
5.0542888333521745
-29.480305465143427
-15.858136935254828
18.945260904769455
-47.6504817285759
25.863012344165185
-19.158448715852764
-0.5736062282704526
17.983882290428138
-6.05720465184862
-1.4312414291530373
-43.18012827150111
29.11139103603491
19.720648903019253
-27.092607085749254
72.79243478148976
-7.278425950894986
18.49816130003451
-5.728892779946388
-51.24312370665669
-13.727001580248203
-52.074371092838376
63.55019456340364
-34.943622268762816
33.16369359387667
-4.458138914007664
-74.82335407071868
10.279149309424637
5.678597826042383
-35.11833909019452
24.485814492665554
-6.930576843318587
-8.363854055816814
-43.59751749262853
47.99371505098307
-29.83362132119726
34.17712526516378
8.788421926494282
14.654540464158714
-24.59981582537043
-76.9496955065676
-5.498802138630174
-14.499340716233435
53.64342213773216
-32.5163486667314
-2.8137572536875393
-14.414721588020475
-7.530919591962467
32.23471430466463
-26.619988075297073
63.89863541963495
-57.37252764809776
12.528159875759604
-6.808336236874714
5.313928437391004
1.1448149954730782
-17.574179949461058
31.44703258101228
-34.75845628856078
4.364880506326376
-37.24277445939009
-22.683942923887095
-18.243432026879674
-23.004702179089794
68.01925808882064
-49.818127807683204
3.6249399710369716
-4.190775073324952
-30.113529104268462
14.702082711806614
-23.037276271519783
74.08106659063841
-9.504951799947447
21.587833190020724
-32.91512119318474
-34.280042003125295
42.325509554752145
-14.321056534957354
10.994359879527524
-26.619863979437746
2.733635276805357
-17.00930997292833
-10.053880632222251
18.49480871969668
-100.94622137691428
67.19547835099591
-8.339941497836387
-0.326429823043076
-40.01137136176219
47.25019612301847
-40.70767499267785
1.6910599837962785
2.0659329255538026
-22.62455161211856
-4.697683145330709
-14.334433047702515
-46.478997066793795
39.14705402811223
-5.0712524103715655
56.77353293977672
-49.81077285486002
-31.63476131949109
32.02833918300289
-3.7801056960788597
-19.406425224182886
-5.9467129267952545
16.87297908842263
12.212779853593625
-11.557349459657157
8.272132140833062
-15.120699816060934
-2.868625215046801
-37.29053802003264
16.978074832041074
30.78389594242705
-25.32410494973234
-0.9645969308762732
15.424007664723197
-57.2018724557291
-20.565194730186377
18.466808033735802
-7.6405560002338335
26.503964238724578
25.16964281718523
-21.744951244684255
-4.296142434475248
-29.793169398200494
-10.26546781915697
38.48909916122509
17.699886991594205
33.409161761951104
19.084837401419307
10.842698239507417
16.483136821420253
-38.572454498090565
-2.585311458081238
-10.057984214044307
-45.027380510459
-6.100294491651956
22.043735057973873
10.576850583977047
10.313680638208352
-8.16609040538859
-7.776037880930424
8.240631022321073
-9.782158160483714
-31.404652866443957
-18.882728930536146
14.665625191717334
-11.95307336775085
-68.03274862283469
9.682048219832105
-9.646604136408907
-6.897161645181237
4.65020924688473
34.62906703361656
23.391474667035382
-0.7568644695825206
-30.982945856838274
-45.36611600934446
48.90281251984862
-74.63424561892583
-22.422844608174998
38.36077545866822
-10.13553141949491
-17.454493511463003
-32.756014800085396
-34.219020788556186
55.41168770544466
-77.85725780148141
7.333277531455569
71.57273453827466
2.348230825798325
-12.891923977551615
-9.884448289595728
-17.74246954886945
48.91470923255093
-17.806992259948945
54.06147116552778
63.567502902609476
-32.61679430776305
24.50149621870266
5.202506928118127
-24.628732840736916
-11.62335505805635
-16.683308754903443
-13.099180258892854
34.42207473756582
19.69506798834213
-6.271173145066147
-4.3831828377210265
-16.368792866682405
7.892475985055485
-28.37216974957224
12.218888684225668
-25.32110639593812
-21.943531582210703
-34.16883342985365
33.865176531900254
-74.32954498611014
9.247476301206472
-66.79937992029812
26.158840217879472
57.370770753683985
-15.513367138204575
-30.596134413333065
-17.819620283829774
5.38047864769484
-37.233003975675054
25.24979405950951
8.067589802905223
-36.772821900597876
-11.57156251393458
-6.757531815077615
-15.103037027729739
24.115411416681496
10.128883106661272
0.6315343651206764
-24.25146174789931
-9.700273063920475
42.06374223541272
46.43212592848867
-13.013612268606057
-21.147967473871446
-13.397416697006594
13.960459259384765
-12.358046076960997
26.212310990431526
-19.615707758499145
-80.80661639824083
-66.1697023532253
-11.189387259563258
-30.749785552302505
-10.382369698559229
-5.087812583913413
-51.460524151602485
29.856762477920064
-24.944657168537663
19.162923213289176
5.875830642904906
-7.872473023377092
-2.2888052155539946
19.956055886078463
4.506619574524849
-39.60598551836956
-0.03341034711082935
-15.130816765940033
-36.46912328414753
5.106749541011117
10.152617182109179
-6.9295857878018285
6.846987106111962
1.8270776823004575
-22.40576852324718
6.105007900154286
17.27954299138966
6.315713949414849
-5.406887335818643
8.755688187905701
15.239634438805087
-0.6964569609638604
-5.1424654261992835
-0.2956215253560237
-25.53715963342938
-11.780347776722799
-38.050180557994494
-16.404695549834386
8.452055914804237
-29.4441989773168
-12.394807508679293
7.271214128534771
-25.082139818326638
18.490313979174374
-57.679598635016426
-14.268665627200463
-53.057497306395405
-16.745550754214364
-25.550677336767237
-18.412904690683256
4.572703059052969
-38.197125428185295
25.231877668039257
7.151334961721265
-38.50607157396742
-13.752811617966687
-22.148948293405983
-6.641587203443004
-34.36984567957242
2.5219077983127
-8.72580463705871
6.755152220442272
56.003551267479025
22.774854153340385
53.72141452698744
20.111199432463117
15.674424517051918
-29.839022279252923
-6.140569246908919
-9.20616178585421
-34.462405930617074
6.870360946072191
32.30522614090294
17.805776317727837
4.0362184144128275
4.628791262932606
-9.475565347050194
-10.809680512494197
-9.262824311137404
5.046311998174574
2.540706097233255
-12.053628647442698
-47.97618438232364
1.0382592725890585
1.3478086058648255
7.160226261254327
-13.177244527398392
-6.337216413933527
-8.846502120307841
-21.43181710560136
-7.198294681063905
3.007401631371926
-3.9165090488466068
1.381939188402098
-12.008554470291745
-6.577997377539852
-22.548836350980892
-8.593553917797184
34.857557774812705
8.69409549890883
2.7648321439566157
13.729133911111369
19.594977771098275
5.359620199966573
-0.05143035285560238
-1.9775326152337795
4.588386295128005
2.629034016090073
13.972551288266438
1.5007351774675923
5.749683469869165
-3.969509745417871
-7.089447753191961
10.906098471920307
1.8520246197007246
2.212293820890938
0.951855559940133
7.334022588876059
-5.048115937278531
-10.971752226409313
7.546280732643817
-7.560226268836041
-20.43907529756023
3.1223331150716778
1.5188158035266714
7.449316662972006
0.06360041913226078
5.133338141319895
-10.4155270609729
-7.861106973519514
-34.175821006189004
-15.03506125734859
1.5795524027985934
-29.268919674358887
6.1657588291379355
12.241772596126648
-34.50561220612069
-22.84841938614485
-23.566272608060032
10.773613365585655
2.4677613460801555
-19.480870807417542
-54.56945742839933
-0.23726650367295288
9.282669408506685
-0.06383453025233443
-29.82807867663414
-3.0804384123563913
-70.46363876344644
8.842419564438343
-16.870492983511845
26.534911446440454
25.92223891876311
-12.6297008502063
5.283093556086586
0.5116059556779535
6.011629071838527
-3.5269177454776255
-26.27384835226868
16.33245900987076
-51.3914285816132
-27.949553710548198
-1.7802853592506116
-23.31636705608531
-37.84312549265851
-19.42879531242245
-12.15354006231113
0.22021782278934188
-10.93493193498936
25.803713765020987
-5.375517122187356
-30.502504445538147
-13.575767706013474
6.188686525819035
1.6733013070015277
-3.058639586950842
-14.791208229764358
-0.642360264216963
17.792121950491516
12.646296541064142
5.041979968479196
-48.61073221287017
0.699471551153373
-8.175127899614335
8.09200248204024
8.74569121985816
-72.81860022138014
-8.992155611715631
16.76779550008986
4.30713978543524
-72.5406127750439
1.9651906338641145
-16.304475264591723
-4.52655517917667
11.341312554139053
11.937878184691172
-9.125820717232907
-18.030738674549205
17.638217019725733
-19.478792559683566
8.477875531619196
21.984731138583655
-16.025549419478857
-79.0791093951437
1.1571513476336026
9.959404914209928
-35.431858961336545
-2.825697151603827
16.31465381895816
4.764775304705246
-3.6358371301349512
-13.621366485316669
-61.8203971105303
-20.545391940778075
5.249494975591848
1.4517121245874116
-12.190465130106862
-1.510961241591609
-19.822765869357436
8.457376816456964
-38.55621606147197
17.864578389246148
-11.676603478057828
3.9389597766672786
33.337252269966804
-11.574462807898898
-10.26580608260791
4.177792541646283
8.20244277751551
-10.652600606870607
-7.303194962141191
-9.978467099624382
-57.49648012919753
-57.54557593903408
13.313671238748743
12.224825896320901
-0.12105983046040292
-16.2330788500363
2.323727601530973
-21.273105648909375
-40.34623438432187
22.199731889281498
-9.156687267048703
-4.95928684952841
6.701903899740168
7.025688200793183
-10.223686526569495
-3.1934641638999754
-54.609926038187524
-2.4251566714379686
14.087175697769114
-20.638975728821983
-53.554212018269574
9.265398566951921
-0.7447577400434611
-5.3534343474194355
12.87911333448064
5.571596164186744
-13.748990995241304
-2.733947945887131
-12.840780203272145
21.47389466196854
-5.026950766624305
5.265296778938646
4.789161531012516
18.85365143155072
-54.99334671563339
-11.048556168658699
0.5134912689647328
-6.662119803291308
0.5259856310278144
-97.03155348951915
-78.17244105264675
-8.35547199759658
4.255685257559216
2.341051152776191
-7.798194825616796
-1.5043750375158944
3.34195303860901
7.402750031787619
1.612766668204038
-50.56216033384012
-17.39668947528461
-7.6539686482969405
8.2937924045211
9.463398164096006
-35.94641701380697
-11.669316074391267
16.779663446648097
5.685031434060889
-15.27426984146951
8.448551797041032
-19.929616992415717
-10.371188195645518
11.021785233386392
-2.3563863145272035
5.353947269417462
6.224158295109459
14.288661003420248
-14.73936916777987
7.258371586842372
-8.439157730337776
9.957690483155762
-15.326886876442293
13.358082138658503
10.881384646315151
-54.98004028773266
-36.0417542391252
30.29287864702915
-69.17128215483545
37.44528596781462
-25.602617579214833
-23.421620413140275
12.246432989740327
-0.9500395249664138
8.725274727393439
-21.59828900731858
-0.5986980487090707
-48.422786660033644
2.9178182248013895
14.93253871409068
-5.065584460180186
-27.697318027652777
-28.054061252603685
-7.135636818817389
-5.798318082436654
-23.348404376960065
-4.935598475361121
30.01361818986146
4.314657101367123
28.142409535129154
14.048703845148106
-9.156798612742545
16.9666476415609
-1.4541115208208333
3.4234364286850214
9.304186132205949
0.01848829814415831
3.4170570481844087
9.687756184838523
-20.99422667483329
-17.450390231827573
-2.6645536534879897
-61.64281428790851
10.537798990814697
-0.21316379043199518
-32.73532517382268
8.313799177331642
0.8663321188730997
1.838900787384219
2.539247708182245
8.250275442719882
-41.34578981603286
-5.750311785286328
4.243592676720004
17.734819225300175
-48.14873814364665
-5.623815279285218
12.239229701919765
-27.273092398367854
-33.16978277036649
39.52848890861388
-1.152143910141571
2.1547169307547964
-17.36782708710162
-7.500323353261766
-7.982579366911478
10.198469061747144
-30.041904712241735
19.592266650001775
-27.9342954803503
-87.49692803910963
-39.83940607364985
-5.462571144674717
9.185694261479485
8.528940335253118
-41.82003262273073
-9.78491260751214
-21.48553304376284
0.7711858574595789
2.2134100356815765
-23.943764667174165
-76.57796258402237
0.5064401491838368
-7.352497052710277
3.7189355473229124
12.122255219988983
4.427926844927891
0.9659993537225802
-10.381290962667704
-25.11863993562493
23.951556160128717
-37.17534963413378
1.5243855699537636
-0.335363387607984
4.387883870390306
-11.655683931542724
-14.581805928518577
0.7967861606466795
6.724377980996998
12.730882674363157
-1.0238396639772795
-34.2826387577248
7.576046853905838
-17.29261090450571
13.97760882504582
-34.85730710700322
-8.959935682957692
21.15837498578339
-1.3977393810516845
44.01633397718014
-48.33989795433193
-21.672237165387536
23.783764236531933
-1.6498787817193352
-2.2317481279297646
-41.73937164027087
21.227382910618132
8.262611832455274
-14.258317557056625
1.471908943235648
21.120530041154325
-18.711590007528102
-0.9061825775494445
0.01700444581489924
-4.462671505727277
32.04826840061918
-7.500091691189068
1.6159900440508375
-10.428644145308322
-7.5414187726768835
-41.3773865855017
9.554898252383381
25.127946629640732
14.612555948052941
18.083044162066855
-49.46736713358785
-23.4605863348636
6.176846698876869
-45.88783948891553
-5.200959752816608
21.773147997670286
-67.82180704481712
1.2857030023353104
-3.363240366895277
10.398210558190478
20.6139764698125
-12.8062561301338
-40.78304773681506
-26.721955290819075
18.729770820353504
-28.00146724049499
-15.570820520279293
45.385134340951346
-8.528235551056852
10.037410532380541
-19.1972820131121
1.0688229940806169
8.199115410796859
2.480847056303986
23.79048003749123
-22.077496423825696
-54.408233122150484
-9.265364476704157
-4.796318811523214
-10.693699924691833
14.088894711319135
-0.5579481342066033
-3.5458070622043785
7.296773457131937
-4.36473253435859
-22.25866553084337
9.189297918233914
-3.0252909238569883
-0.28795769533563575
7.474935605096785
-3.675987513951679
1.6428333491113989
-1.6182662769692127
-9.568573752817954
-26.310070689001087
-60.529086383375294
15.419412538043021
22.5024269582283
9.601331130197718
20.331143071794493
-17.28451590383184
-45.44952846321709
-3.8571168574705874
-10.796827881574469
-18.1387741491607
-5.8104649810795035
-9.570537857868244
2.1583804026441946
-5.890060432010946
3.7892677306839824
9.255230358142365
5.760995962141658
-35.56516897620648
-0.6018701912109949
-49.23502517185815
-12.82600876280408
-32.48726099015942
17.324658691597563
8.40438552435452
-1.2843149830036746
13.817581202887547
11.961208982130206
-6.097619247725007
-8.238655888710854
-1.7297665368845725
-15.913495279984549
-0.6545231461477865
-34.97349300997631
20.082202771619052
12.48463449793309
2.9255190344509914
-64.58674105506948
-15.257608092078394
-133.2388676499741
25.98156691548733
3.5567116671252195
49.74509907117452
12.827955998386466
9.206351649927953
3.393169813193693
16.10670209999472
-0.15883578488401273
-81.73392737992741
-13.900275493665529
-27.879214634039393
6.858602869162132
-37.579558860322265
19.762880391685044
4.288839395781446
-1.5600182999928323
10.449203107937258
-0.8250853893652921
5.144449611555364
-5.0060449481335425
2.8181441339292235
5.043259772747394
0.23803091976956625
12.690179326854778
11.593649748657946
4.200131083155343
-47.35802300925
-1.911430015924792
-26.113719294633874
-17.157697355676493
-0.9359411142528713
-38.62223467457914
-0.2810812002545249
8.472854879467276
8.358269044802308
6.648672045202738
-55.13669955025889
-3.491173920008314
-13.898750317534198
-0.1552565025901238
2.548512415688131
-14.266148427800255
-30.3889745108141
9.738933146641859
-16.52964932245154
0.21649324591822783
1.213696330864813
16.059256941609853
-38.12967547620943
15.255062845670777
-1.093511121917976
-52.51777991336269
9.738898150558313
9.689891136482114
-14.751361067400051
7.23342174780652
6.302472049875912
1.8851302173503504
-41.107135880792484
-21.871404094393764
6.637719217847081
16.98339971627572
5.71267129846049
21.15166535650462
-4.1209023933054665
1.7556025634815802
-5.531681737064314
6.484639049009144
7.5803961753285325
-8.992306651704983
22.082553918277043
7.782501413823287
15.651734352515106
2.0964409268768844
0.7576398315721162
6.867123130393929
-14.301219000496124
-7.442549128089919
-9.57760242180947
-15.881480834337172
0.9554070544370077
2.2930758459596907
-4.6585974311986655
1.2767904784648612
-13.834501674070069
6.738196606281748
-4.502975273430417
12.319464333241545
-83.09258206218061
-3.9848107022117576
-15.177295375044233
32.270710548492254
11.427982429448639
-12.554815955056918
14.328293752446866
-23.509439466524263
24.06199690821122
-9.337360206146853
-3.253719620114814
-3.3820018906352924
-4.4989303021588825
-35.54757455271217
-7.9529229932884595
-9.099687669247707
6.364002292838344
10.348646718422462
-22.856265902333426
-1.6309284276465559
0.3897551929838037
-10.4117695218624
21.058342892478805
20.158259575303788
-1.246213071388805
7.557205693064387
-5.513217292855648
26.90082610234355
-97.65047775862577
-46.5399233945672
-46.6727047610677
-24.116859962645442
48.464886041163204
-36.936674987036135
1.7780847132181115
11.66177736322465
-3.479796988663692
2.968192973170807
-28.255424506329778
2.205242252711947
-3.507815216144518
16.206039335292576
-36.68878985027985
24.342385016949788
-12.53913483162124
-17.57526165708691
14.980246798936122
3.7146631443425235
-13.845323672761152
-42.00840160944669
26.662798202641998
-3.812696953732641
25.955883395016688
-25.112146766448497
10.277678294765739
15.997739691789947
-2.892632277557386
4.788087028425231
-32.069095700961135
2.28684136450875
-5.857500073804703
12.694836870273289
13.312417989079423
-48.491207213637104
-55.76739114115745
-6.967755442741225
-1.375656258619553
5.13124202117834
-11.376684421568342
9.474393412238733
-10.42842512448659
-4.576265510081293
-65.29091215520337
32.42057598857447
-21.42103533676841
26.777513637615673
-4.213499143103789
7.792912534735256
1.853130898530353
-1.4977090651084857
-22.971575541057426
-2.971744503515169
-19.168998878387686
22.931614068202872
39.75209890265478
18.67216165087556
-18.110754858283368
1.973914628596475
20.734028509784807
3.732690940145526
5.227489333858204
1.1132111893335224
-6.010656254858198
-6.891043629108992
-30.37124896063561
3.229812424559939
8.834209009393899
8.560898347983606
-42.176577953620665
-4.904270872491787
-10.355453062187301
-7.637292330528089
4.004837251804346
-2.9469680345914138
-1.4162649172614725
-8.012945292553546
-9.243370242215484
1.4282391030343673
11.603326961830453
4.182435039553791
32.66616226420539
-5.818848956350022
-25.419100855784464
-2.533474581402002
7.8706902112430654
-33.54234985903331
11.73276458602934
-4.470447648502773
10.469000498500595
18.091191959392063
-53.96180241412477
-7.492803289051155
2.3141372333983066
-61.18744594709324
11.436978102062701
-82.37480150108651
5.448400961550102
8.463484311919927
0.3974584565909902
-4.973115945473662
-4.855856084551235
-4.819048189478168
-9.846371650811733
-36.02880849095536
20.850796650038752
-22.24519453564111
-13.266961079193742
1.5837568742948265
-1.5239172647476085
-4.801296532958568
-23.04192981071157
17.813563813827603
22.33739182108851
-19.87095505340929
15.261063667300252
15.515239378056922
-18.889616916407245
2.0200649247694304
11.592461119799983
4.015400018769783
-7.935896594909456
-1.856894826001212
-28.089333381593516
2.6668164541450166
24.08168974626123
31.034615177693468
-23.171563470525893
-12.728554495039697
20.82080277807059
-8.439459429570393
-2.1861351370028137
5.312917532700196
17.50910374956633
-18.101043443594836
-28.484068524638282
4.742484436795419
-11.194484850061038
26.71329412507558
-24.490933489089294
-12.931624762993481
-32.60441871902388
-30.67591094709597
15.82048530027166
-5.769526082778412
20.089218695907583
-69.5897764854924
0.8326476443886417
0.05686046489518315
-5.305934988763161
15.134482166599543
2.4754199864646598
-3.7742257448384606
-3.293964119093575
-15.252344163992984
-29.97307659506981
-25.1481392281082
-0.4086932820357889
-1.9992330273885157
2.592178833316756
9.3810759809248
-0.04754148647788137
-3.1738482927706864
18.1985054049365
-9.844208627688385
-2.433350634088723
-22.411913069436764
8.821076040412024
7.865334498587294
2.3533645177857676
-15.233846246496205
7.466304764143461
-18.210488215323505
18.408520400223154
8.418946847661699
48.32195510938984
-22.552169155620867
-2.0572017402297913
-13.878978666023007
15.025885680046795
20.021693111500703
-15.175487100413045
-2.27285415694814
-0.10513306311297899
-6.804223812134909
-60.99145152577512
-19.430485955203675
-7.337264007689784
5.0888741071049015
16.409494996804142
5.25599305084033
5.283269364847855
-7.867134601331072
-55.8709960938234
30.159275569033127
42.122486321877645
-30.917823953418804
-0.29361980240315244
7.199690749560094
-30.067959030334535
9.140173971297486
-7.927493314940758
-17.374354021131204
18.280054786451814
-12.088544611656387
16.6689458329585
6.483063394997788
9.60052586738948
6.039367595455034
9.359933283575861
-2.47304283206935
-8.760736169546801
-17.62170608411166
5.0487913117292536
-42.999331226884564
-53.63241812571696
-1.07083642897623
-4.067153712543315
4.980217139884937
-6.707442861617341
12.576933665087811
12.092252133406133
-10.859297717431332
-7.893145743141071
14.051596373543855
-25.54582630553807
-48.75508076320167
5.614403918880754
0.8150813975037337
-12.801646430085508
4.225477200412412
-30.447271885940765
-2.8326977807540485
50.29245020461558
11.987054450548548
28.821998408566486
-29.08058162666306
-0.04437787922769054
0.4673230814806164
-3.024171197518856
8.175956139995257
5.355421716545724
-2.862706873945391
-8.984316356082285
31.42627263630453
14.515784599495943
0.6559317868775252
-8.774643010524889
10.092274551551109
0.41237705729206287
5.722220358987121
-62.763705760608794
9.0095479325973
-20.852863905443712
-25.417407357374373
-3.919972003689177
-34.53012165232689
-37.96822338933389
4.986626754124188
6.6478196058279675
20.243768894998038
0.20770284840207465
-29.99400998478142
-13.233035662251636
29.77923081454667
14.35857206514219
-7.000954531910087
-2.9659481100478677
30.33856712630044
-3.3272160917786646
6.61342475757577
-8.804255703559424
10.710614746248579
-36.10190428109071
6.528105662236676
2.7273322047168365
-25.71308413868696
-39.09363144591736
-40.866174849088544
-53.83795740268553
2.126156685453946
3.3255670400065425
-2.661683711825865
2.499611096600212
-12.841641922234984
9.287485083574502
-25.596965524134696
-19.424207462241743
-18.906740419006532
-39.30019170134658
-12.219110918664605
2.056592841309887
0.11480327538135349
4.285179499753403
3.9658161166280834
-13.833449828258892
9.040256458589106
-26.992794070897393
-25.069255435728774
-26.402045378916153
-13.286075140408604
-42.33579994198243
16.19750920041599
-9.711717859926795
-7.112112074033778
0.49649984142719905
-38.797593336179
-0.3813362549345589
-56.36502819342191
13.420530759606637
36.780377394372934
-0.28993821973413314
30.158896714416354
-0.8444504746764805
-0.7120314741964782
-2.567795337862653
8.533670814333961
-13.919953722086849
7.252320157087196
-30.977955648824754
-20.720016304653473
-28.02142152478684
-27.1849638786762
-14.705255317593052
4.241236772066153
-7.613806633802635
-10.644192106653719
5.7267738101519505
-68.2890247593525
10.352008521961231
-8.639154548706129
10.27530264179472
-29.210616595992473
-53.798579357138784
7.712686248871247
0.07095527530621926
3.248279654450225
-4.599757386625097
2.660796973961075
1.5189180792588948
4.289189629008133
-9.43120919727609
-9.598448764132069
-16.070635971407494
-10.471854295955652
-18.90572463672893
-1.6903989293839228
-8.282301978632223
28.127093204865954
0.9044530363187877
-21.043446865919957
-3.568410270155583
3.617606696771543
-6.6603605792807095
-54.01655719120363
-7.89306696850071
13.832300377538267
3.9479713293092336
-1.7416427536683696
-20.492509784791864
6.407572576072503
-78.47653071648023
14.19501727599539
-72.63368604510191
-2.5053408987164243
-28.34064764455982
-49.497163674034496
-66.66295403506402
8.474198344022398
0.15022500903839076
-27.60103177973369
-0.778324115302051
-8.467269933868542
15.650031781008755
-20.868602291843416
-85.87062178693598
-16.656344683721183
-68.56630599446106
-50.4326123444657
6.6087199879212895
6.584380684908209
-6.900181122282146
-3.2624408004521275
-3.2430768738488505
4.2661507129861125
-19.586182645929654
-7.081727257087686
-14.100529822297588
-8.660796744051185
-17.002551244400117
10.826087396965688
-13.950767965432295
13.905784744297055
-1.1339173958038127
-49.06078916298079
4.0338784007977235
-4.1358254155559155
13.820035685821253
-23.913848660337017
-67.5388044216014
-22.514966916266033
7.303749765094032
5.952647268536047
13.707280909241403
3.0812759860010135
-67.14787806335853
-35.65256968413996
-17.54496316762434
19.01701696812503
62.087089003615866
27.211124310274148
9.936117945265332
-10.514140224083253
2.8950672430414555
21.319225190060916
12.914653921860252
-29.008202175303794
-0.2946905226838785
-48.97693554513643
-56.22386346050847
-36.450144819910776
-9.471165854886962
-22.531905027584205
0.5837096727463145
2.2537330012436554
-14.539334451371388
2.8660841972275675
1.166556658516595
6.960024633901848
2.886713394525139
-25.781438553828817
6.55775313993
-37.339906635042084
-34.072763485620186
-7.287155380365306
-10.066452609752051
6.752608375543968
2.271429237974091
-30.266725534583315
6.655446566521646
-18.414294449910113
25.527414823081067
29.199304765660667
-19.3068213559235
2.1150207115299735
-10.986951290166687
2.9256919069982406
-26.49928197602707
20.874309517852193
-26.710641716863957
7.487799839871639
-50.28047271097179
-55.1921467655004
2.763914491929279
-43.76727418294655
-33.09999434261671
2.6738556283948087
3.042193174423489
2.9642946759048625
-1.9893878429652654
5.089069734513141
-1.049693686297692
6.074156541464036
-5.458865843270226
-9.97778286810722
-1.913452764034865
0.6626452370622502
14.717079829177063
8.250260915179858
4.057250391529376
-13.698766307473429
-18.210960233915756
-16.880025150439955
-30.017192180955124
23.674349486916455
39.79912280608579
-23.196714346589374
-22.949662719302477
-14.50057888023548
-7.954250577696577
-31.076909722718227
7.540196497261844
-0.9927126955591099
14.344011349763056
10.900653010481106
-32.408305335903634
-21.298576646041024
-5.909149651303247
-27.625861456270215
-12.559967075212677
9.045655845102566
-34.868834076398976
-9.570075304023495
29.11646855784764
-9.466127956904495
21.97631338883876
-71.76891234818545
-8.01807483217607
32.054714620100896
4.972344378795538
-4.061612380501623
0.6747699176151465
2.96789294887368
6.673983180114701
16.10180812256083
-7.442964436155461
-15.888028991691264
-4.329767210417521
10.09445870176651
4.282855552487955
-6.009482749685051
-4.236819030108427
-5.114876407026204
-2.4960973593447724
15.214100459432263
7.677653297486227
7.062050120830359
-67.30761450358763
-36.02445011859368
-49.69219740875248
-4.233725788533648
-25.2152141237076
2.4701851890318305
-5.7265268961781235
14.068263382953706
10.384632511661803
-0.9564404066305863
-0.6555051424728853
-30.568302269616357
-35.4044167256377
-3.475237552445012
-14.38866454901338
6.69739575369785
-13.440319954276948
-3.7907959344534357
10.534282989269647
-6.046212580119379
-126.61128049151071
18.67829996506451
7.983854311770165
-7.835962167999103
-95.14599997560471
-34.34865727018243
-30.17239998115365
3.0956143754597263
-4.974807437519447
-8.408808463336177
2.142464393358798
-68.00929316099841
16.40535923300789
-2.6355067816682327
-3.4275118065298256
-29.7787893672472
-89.52470310072103
-32.246242490596515
8.696802781688296
-1.1275302677103785
18.090688771744254
-7.601383305545166
-19.250002698699838
-14.642510804308245
-6.14463999367574
41.13658866314742
22.47389411441435
-28.43411160123182
13.829903585058313
5.989873114386147
2.4550380039535034
-4.630777154648156
-2.674062407335282
14.5235763651953
-3.016862463747815
-5.434782800748904
3.772223672496273
-19.138051067546925
14.504193956443466
-1.5771156073522308
2.3864475191792467
-17.661959720173755
-4.62499361982426
-6.228535192019573
-20.708747261355686
18.381716888694896
7.3731208522537415
-25.808301050341644
-19.31480890187812
-1.3929115987455252
-43.04993078015615
-14.105306178300326
-9.74785780441891
-0.9541498742110011
13.507237259704494
-42.853346172224775
12.298290947813246
11.87808039667879
-46.01632270063822
-78.10195750815973
-29.942795620486926
-43.61751811054701
-0.05296874769378679
10.466577724378007
-41.20956683197179
12.65350352230317
-19.745333792339974
6.113749269438392
-26.438319441712203
-44.30292264024951
-21.683051921198203
-22.64124688525159
-51.58687559762152
2.389479227687654
6.292491031176037
9.154243329292209
-3.3095721020543403
2.5369266799990666
-7.679410240174668
7.619181891634684
-7.24832246666521
-44.758069520540275
5.4809963130032635
-5.311927376875072
2.7000452569498545
6.085043357503302
-9.830664126508909
2.106960207945071
-7.372584071814492
-1.8559331116382864
-0.4192717763236722
-1.7507363203638597
-61.499482987763166
-1.267330631453666
-12.301538054164173
-9.321115266596077
4.578058101541837
4.93129347073407
8.70996994946345
-4.740861879439205
0.8074193970910866
-24.59110578944279
-23.85337519603632
-19.021634477573595
-11.055229258922909
-46.94826842580516
-2.325698840409538
-1.5337307491266703
-29.211439366911147
-0.0013230192432827081
12.662490558298098
9.278603099508388
3.1616163533294808
-34.84620134964917
7.5452131498243435
-6.5717758336171475
30.828335720101116
12.541253757588724
-7.4516765229098105
-1.9985016534351008
0.8730058779110181
-26.58930334512075
11.891461541349823
-42.99736128804652
-51.08052265858083
-19.148783117867396
-32.4385761675609
0.8430368708183233
7.830699865408599
-5.310522620248645
3.562551530130153
2.2786452506570933
-15.107621742337594
0.6784249697657945
-26.27031780451777
7.021527132070324
30.601011314187332
-47.54709211250262
4.001700422858603
5.829832106583904
7.636020345998933
14.848262171287711
-43.5974286815243
-12.305334297986493
-9.694968260567641
-0.5581120093947645
-8.430513308986109
-27.24744765233354
4.696978995003647
-16.820980600152886
2.5188456963208097
8.229782797335105
-17.118164843761477
-1.6583498685614293
0.6699271888450404
3.579995375021425
2.861401603331572
-3.759087643104857
-55.152773635653375
-2.890454028897784
-32.08125134072752
-4.530008467250696
5.4859842260219045
10.272488927299893
1.6287609006114163
-5.045056708655219
2.463886818101889
-11.10447097100126
-19.0429050096458
-24.248534613011948
-5.6590384366607065
-63.297364447616786
5.402970927221132
-6.227137420798537
-0.9678595647600041
11.44328158734169
-1.899933470516907
-32.07045372688772
-27.845666229516556
8.794896091673628
56.996880764997044
15.817941847224288
75.69668412419033
3.492518318205003
8.123025615430183
-52.3078090452849
2.128043984580889
-28.56147235916951
7.8644542707950995
-11.996773294728545
-20.220694203041948
5.591688201657204
-9.481942329804964
22.70725211468187
3.459439191529536
3.606678681482828
-35.79515826500994
2.890638801910722
12.102899488598855
3.086326434528325
-2.9457072836295617
0.0815435488056444
-10.645081550978494
-4.852099434853962
-32.23742609656946
5.192251029704623
5.541943514380233
6.901890209764065
3.9579726105387865
-2.352520725182714
-4.039789138364907
-23.5756848547727
-8.82651670704829
-13.408841810664672
-13.702445313498988
-67.13082908857947
-18.993832712832884
3.953418574395368
12.026984528058591
5.283271231072255
-21.373557734519842
3.6632699017027885
-3.4464776569764184
-1.4117680065730376
-12.754576887790716
-15.013122756396562
-11.921183207104932
4.900787466425566
-5.337237848633788
-11.899134779461308
5.413380190226893
7.938911294192719
4.7035856243575
-52.88306277122125
1.1662623679474042
-16.046115749978473
11.097244690984489
-10.07515400232608
6.7339700119351305
-1.1650205293634737
-4.687765886615798
4.58444067517445
-45.406277339049666
0.9950531078517217
-10.473436275990355
-10.888284156878418
20.235172222718898
-19.96067031678072
28.163445729845588
-0.8834742598765066
5.567054221179809
-14.806879951475574
2.1076953893077324
7.638393528863942
2.5898922159650564
-9.532669697873352
0.753885538485449
-9.780933925389935
-6.833922141981784
-29.718185308005232
-1.4796669940540825
-1.6768251486501242
13.702393471458198
9.95236765335368
-4.57298044430316
1.6597336799597722
-21.631094913456373
-25.747749159460632
-24.430418811589263
-4.337037924775734
-46.482911091240574
6.1461766193887275
7.254700583406675
-44.64151635550766
-5.0857707379782084
-2.851671657011627
-2.1508826862434045
-8.723081731634377
2.0441595599797067
-126.2847864725948
-5.778992654618284
-101.99601244867313
-9.129434886936533
1.1435598078152713
21.88192316590463
1.6233506754972709
-2.863327693678295
-5.49152454937261
-0.91868222905978
-24.36882525111435
-25.480760438518537
0.7253949244498488
-6.281458775034203
2.121174279999441
7.509929468337244
-59.74973386641808
6.036992476838599
-31.475296141832633
3.086141406887007
-5.415526488759283
-2.9822573153292025
24.383755284053073
-19.70265105280119
32.159267867566804
-0.4737688558712456
4.2480298459217956
-13.349263707627777
1.5967044834703241
4.907290492332586
5.947967159701826
-2.690497772545701
-4.104440629449306
-31.935485316807682
-11.887354920593541
-14.606626815001116
3.4060808960238607
-1.8560289212148828
-16.748985810835237
5.670137537001558
5.805060719823668
2.9012925686433007
-36.01021684706998
-14.227037182322496
20.718732781116195
5.352606264631973
33.09455859098083
-10.519354213195513
2.107116851731191
13.79313292554226
8.028581491028223
17.45485631790183
-2.1756107998526772
-16.14705056840016
-65.82012235598681
-62.56134433004142
-10.39445933657252
-18.978080954173347
5.0354149583677
3.597132219584479
-9.083315160050141
7.498318108223621
-57.81727131205927
11.302400359530992
-78.41321079285039
-56.428363025058616
6.3990302368114165
-27.54106208942189
-52.7060358259732
-15.228979825684295
-4.85060384248302
3.967178671856666
8.308909735707962
-39.00564117707215
18.434247586629358
-46.77877575907798
-17.248272236589884
-52.79791291672162
-33.44636613812653
-97.33339564332519
-2.6814383502306796
-7.075799075303564
8.19316046281208
-1.379090978916583
15.427163067326802
0.6181229133809136
2.992802727019524
-6.240845519074652
-67.97026820321737
40.1618401478999
-29.133701951505554
-9.345065290200345
4.521265447078707
5.361066352475124
2.3686393301934285
6.364208814575045
-0.9496246511364963
-7.405205782570759
-36.09791831269361
12.395642559531193
1.7255696523282524
18.68346410496339
-1.232540086254518
-5.073762766585092
5.944270763734502
15.740140010628785
-6.320099681458085
5.845922116959528
-5.5846104889725305
-66.58005143198346
-39.570822918718704
-13.775327562988872
-19.56468685173876
19.730180752005005
-6.987826786149944
-18.179752538106488
-2.589052390814215
-6.6687316627305595
2.546095431862644
8.361793606833976
-61.56472457882072
21.77521254582934
4.445032793372575
-26.749717013480677
1.349453517486637
2.753111136598867
-4.619017529729756
5.300411751607303
-19.863128510777607
5.329839943517541
-31.94213478499449
-7.455063944645515
2.586630429045695
-13.88176344156469
-25.744822272185935
9.509544229684305
3.2567404461077665
-8.261437707646671
-2.28211676539119
-0.4081508578141779
6.097457856744505
-34.188191101926
-11.863146830108441
-14.77195647780704
-17.980804577241685
-23.8087581794591
-3.1218046703496425
3.979059465278726
16.89022422572417
2.372451770572038
-40.51023403178691
3.2947131648731016
-5.428928036224258
-23.59230474130851
-52.40003141797369
-39.94139724470455
-40.31345532033663
-8.97136491231685
4.553383156126387
-3.7656030206823505
7.680549940121669
-49.999136737288396
10.9552074212556
-22.43796934778485
-17.823525012181662
-15.471637544239885
-40.892669531609094
-7.015282492146898
-5.253677083545934
-3.9673756530013025
20.724662955731667
5.269839438848643
-5.1519060381461115
-3.099504070846373
-9.500477813816339
-9.794429568394618
-1.5633567059701665
9.465989587269807
-3.6980298243517304
-6.293679487218048
-0.6354035658101802
20.6895979669035
12.358405338319326
-67.85458944738737
-6.952650418844178
-13.998778454615831
-21.422985033554397
18.80076370895555
-18.8470544457625
-39.52068050777337
-1.9041250346292928
-1.3342483366540554
9.81707520862307
-0.12376426018075648
-4.168161688298861
4.628361382090053
-7.302917148866267
-2.6853507678388016
-16.197608342560606
-9.005606589262198
2.3603268484255593
-0.3570764263907975
1.6306237123647254
-3.4669793354170597
-1.5878894755198099
-58.06673717651578
3.669005247532793
-41.92936886979192
1.2622171544350311
34.96632602242525
-3.8878260333255072
19.37120748374625
3.680106195017946
5.022587518320686
-1.469591184855827
3.792780151748913
10.520388395252741
-11.092565320806312
-38.05841825977488
8.324982729375447
-30.106796985610625
17.54989204897244
-50.85909602886844
-17.036658168716873
6.4028002495838745
13.841575912415301
13.874718891289085
-39.57006796150275
-5.414994898279282
-15.456214210105347
-9.44405649968155
-37.719982935120875
0.8854136715736409
1.9773669532496416
1.6675763350456627
6.036505927952894
-0.5497979653607992
-7.360209253116163
3.7475826975531756
-1.2562853714091942
4.604459460359743
-26.294345644606814
-8.666456654059797
-3.8490581353417896
-44.7639758637911
-3.276824861055645
-1.2683573175375358
1.151617257044176
5.1458425532202225
-10.502908635160416
9.3343927620354
-22.30993924109866
-24.181476008845188
-11.04330892779453
-16.56868649217821
-23.36875942203846
0.8527795362813562
3.858127373380735
-6.964901751807876
1.222985126392218
-1.828641888917371
6.581353517689299
-10.470757940509273
-9.072510949523515
-11.301671613862629
-15.835196375627952
-31.058366637713156
1.1808745884202079
-1.2407987895092818
13.166080782683355
7.136116962729718
7.571317235484658
-7.7406168956314785
-42.663846664990416
-18.412593057143464
-8.033062914834819
6.294249829804016
-15.612523406204577
9.527166819139584
11.585219254164048
-25.782816138756072
-1.194391531975926
9.051058937032149
-12.171471323941876
-5.971655836855316
7.164524486949074
-67.39383843627589
-9.29320842040164
-71.16270355575082
8.843733932370032
3.261982895932209
-3.9387811184328783
1.3667452081122375
-2.805181993296011
-1.412364545585679
-2.5048997340691255
-6.966042037962375
23.744954076139067
-2.964623426707845
-33.29932144392773
-9.91535654734001
10.836040286654406
-23.783867338160512
4.55469455979257
-17.004897224466248
9.46355495682707
-0.1153193293950614
-23.113249862824592
-14.85700591411594
-24.513711564076406
-75.3688616805211
-6.94616668146348
-3.521395837263956
8.008978891079428
3.1125062730454767
-12.010565347634241
8.721229901018987
-11.017154470507853
-4.31266948609295
-16.86896970714953
-13.369064323511546
-10.966106974063877
4.691228683738667
9.266640890947869
-18.067495235033373
-5.653639879516046
-11.638477435965571
8.905742922246045
-1.5272364487321464
-5.947704010201465
-55.79884249545965
-31.701840158228368
-5.598607820245044
-11.03245934718242
-12.735838649476602
-7.507119344251079
12.728589538810064
-29.789478689111164
14.429851390778696
-63.12518323260547
-22.735975363998847
-4.840013074174671
-80.39890629249103
-0.38782132932613544
1.4770405343669668
-4.808220506233771
7.20110855290913
6.201914752395133
8.549355219186818
-2.032081065397579
-14.658409261235432
-1.1547566100847342
-9.530908774844956
3.9025581126266027
0.044375738898055905
-3.368411667671089
2.454610540912322
-0.25105094349890056
0.7474842012463974
4.003590090073822
1.9612306420870524
4.142074290594703
-0.258985008921337
-16.38407766602065
8.25720425538576
-16.0560642392582
-13.532712535800464
5.6177261397526435
3.8503591407161513
-2.7877432414117087
-92.93013807193087
2.913298283028345
-29.20499804379533
-1.6352231720671748
44.76273569443958
-53.03902153486798
9.241975627309877
4.234388286889949
-5.976149615914295
-4.385838751371102
17.327428495425647
-52.488078427227094
2.7250220264380314
-2.822236458827275
1.6046959031798373
-76.27110797061574
-31.353525223529495
-45.99906779143016
5.545127448587227
-7.191336768587922
3.2760314345283184
3.7669838353251053
15.487758010394778
-2.152223285114367
-92.0651261190609
19.03698220435846
-48.31987287510305
-2.27306365173259
11.175005453722976
4.0097859638613835
-0.196251225655951
2.9558371123145655
0.09253253960160901
-2.5293211179009587
2.6044639703706203
5.081651448513743
-9.300445998207325
9.45114821948878
-6.639864284870491
-13.457563538955284
8.524340594687752
-2.857243216289828
4.288295955922836
7.630312981206598
-8.659558998388729
-6.325057887206083
8.54491155547008
-37.92365434599243
-33.22384202730089
1.9604626723739704
-23.56430706575331
-0.7107928635019842
11.053583692621881
-0.07034801011050096
1.8866429320351354
-3.246192915703258
-7.126420890374965
15.595764604560472
-16.81035780322418
-36.09158749295661
1.4714776786050274
-51.29445118578829
-5.809563406132559
-0.3328441610908186
2.937088768523087
-13.542110979302802
13.50393813823663
3.000885551121477
-68.12992891584203
41.11254262255917
13.848039498101844
24.735531946323093
45.1987615102855
11.447072527038701
11.68332346213396
-37.66828999660606
2.7259950496735192
8.841699909998578
-16.22700398907906
13.380714322578163
-85.28371541102048
-15.038213039574899
-10.81793473917535
-46.81248684412683
0.835199410988464
1.2770176413988805
16.386365840945977
-5.465519325060153
-12.73848499468241
3.568843847734823
-0.22462495750559075
-53.56782182634427
-20.403739222011453
-16.78211253715862
-27.606051777679305
-0.9914572493598914
0.5269277237726033
13.418203324842464
-0.6061348110243552
-7.571274828925505
1.4764404109888112
-0.6724702802640343
-28.653464358574098
7.317591347691707
-15.154560705814069
4.762784304178904
2.793245182396669
-0.8229944077452487
0.20478825670755052
7.5826810479039395
-82.4360334276773
2.524138369204894
20.214274349233463
-61.56763637179637
-54.93090869602231
19.999936637015722
11.049530216246024
6.67403476108929
8.172487335966485
-13.06735573493636
-9.053983115783401
-12.217224082577545
3.0668554220933775
-18.40567251829613
4.750150549175206
-34.16060315509267
-19.447009531467657
-84.8643046729823
0.2808489287998679
-10.511808604954943
-7.74538262485021
14.895719413115554
-28.49700600035717
10.737028905787877
-27.719477509996445
-10.697176335416847
-7.440073272776177
-35.5005451680681
-50.75080889056086
-3.9557769659629205
0.1690001365568783
14.532740161809256
3.0014643865138515
-35.24792491555528
3.28363047853974
-4.361841153028802
1.0723167050501043
-1.5961791756544463
-18.452475764764014
-13.151380713294042
5.768103980802012
2.1007703415339716
-2.8749788508359657
3.2237120877009815
3.8242128608336823
-6.214330569612518
-7.936643831354762
-6.558995250664969
-3.2232646252333756
7.727195354792558
27.272263602346406
-1.8830771159628732
-4.001423751793915
-8.64683030990915
7.727827115502762
3.7998765674398904
5.594329154141918
7.1404812659450005
-17.37985047462914
-10.23917134501125
-1.9141556618442914
-44.17844596249301
-5.35312723699649
-3.599449469512531
-15.070379859579589
10.038524248834367
-10.812592277048047
10.570787696159515
-5.530837762239155
-51.8502141946298
-8.589936983669123
-14.690030581885786
-47.25525457607257
-4.929513694790555
-4.7439862534915065
12.98557168361731
7.165515532400542
-7.069853915183767
2.3314090802178042
-0.8429162596536712
-36.169674398595085
-37.72478628327193
9.468541693825486
-19.582295831004572
1.3942357953201778
5.7399822305512
-9.736557121195183
-1.203660018352525
9.151328154972589
2.9580079425895853
-25.85493391469499
-1.4090463806800475
-12.085812613760229
-1.9354139344097714
-16.882637651792248
5.3393672617483
-1.247509843370438
18.819692400238594
5.282773939140311
1.8782844107041425
-23.627738474122726
-66.50975879243084
-1.0930387621624738
-31.13729766751413
-5.49590330712973
-5.780783590304743
15.186122147840514
7.0977943035544815
-28.169070909478
0.684421778325019
-59.67885119349277
7.8301090297646505
-5.415989272994636
10.032828749707082
-66.17630761129226
-67.77122650905781
-31.488876167884495
-2.633705786794745
2.162564093576589
9.62337646308817
13.442227554742948
-12.351129338549498
-3.6093186241935227
-15.228420587866719
-38.707214406719146
-35.38869657200164
-12.5322728403417
-111.2064521703686
-14.336566997992474
-2.3152419336128904
1.979267100775009
9.77429725668458
-20.07769529702312
11.383714746751012
-30.075521828720454
-32.48076959458463
-19.79500949104545
-3.0151768345667147
3.954996260940468
-12.142055115640627
3.289876130027655
-1.0621967173590274
6.292527199252551
-3.5863675687152616
6.827604092350136
-4.8476545131481945
-7.520106415233617
-3.2544741327324256
-32.85860486980286
-21.279356097918594
6.434158804976458
-1.7218550999509583
10.868148151799394
2.981719007761157
-2.6865694362654944
0.8320649289557229
-19.95708819287575
-20.349182616715574
-23.807306796314943
-17.902995684155773
-9.980323118717518
-3.2171580007203704
-1.7898622087716842
-1.8785152521883965
13.367060358991829
-13.381869377558795
-1.387582706233323
1.1951221903829579
6.518647953115445
-37.637915256153576
8.627826404939032
-32.10228940803825
-6.5474285836791495
-6.533677653292547
-20.106647271807105
7.597276741279969
14.960015531669564
7.499606976215959
-6.456226059674455
8.617647591666323
-33.77134748324107
1.0439933030857866
-68.28008722775095
-5.62539831243081
-2.631041101743766
9.789330917312569
0.2982115303384294
15.144155461817185
4.194143413468049
-28.64173865187699
0.6424672655898331
-26.167897407811505
-25.881945424008187
-1.9799479759497418
-5.158383926779935
-13.61066141690531
8.59191061264075
5.333811797425786
-18.308169734926928
9.876927615190738
-23.182087185447003
-25.280072342864703
-25.36427420481693
-19.619760539770386
-5.171744340917909
-1.257274811186881
13.674105915535565
-18.972056715875112
-8.828133658042681
7.0830681398388755
-2.7600483324457805
13.564288251517556
-4.076404210001357
-25.029981114085153
4.137958947924497
-26.144252523224377
3.509857056918503
1.3191050606960006
8.34254099294428
7.061567824626424
-9.44433579150045
-5.708086830950903
-3.1254299359806823
-26.788464618017695
-20.933158158520573
-6.587062309512392
-55.484566248253635
-3.801378044275272
-1.098651958707638
5.573322807936254
12.904632253617287
-2.7296735567521218
-5.053675278461238
-7.209209175546061
-1.2763940389073096
-74.93527320279013
8.082752341784857
-23.412100041539176
-1.7101174374389032
-0.13850339349792762
5.697432395687718
4.001615727147378
0.5432718163221804
2.4791744289617927
-3.8219207704894504
-14.725570020785945
-18.445428260182595
-9.299567667614546
-7.488506746470883
-1.6506713959346175
-5.396752807830589
-17.346130860583834
10.014374907951055
-15.861228669152247
12.391228191150791
-19.997730020636364
-48.81676764719312
-2.5591282910827955
-34.26796109818268
-88.09436881731203
3.070582060176194
4.420809120629512
-1.816356087546684
-2.742931599511198
-14.190376021005505
7.357840378175639
-19.569277766491616
-27.44646295954808
-2.5836487599976907
8.853739322148172
-77.32421068982848
-1.7911210556869137
3.477760860475056
14.001276563168007
12.767528787433701
6.62939934272388
-36.09044008235619
-27.974279522739558
-7.861092404205102
-33.68097431033115
-16.38237500597095
-46.271174810467436
5.847473259874056
-7.105340470008418
-1.5057432106491726
1.3317876254857381
-4.932598159551306
11.249968493514187
-4.444239835375059
-18.19408416832276
-45.11324334944298
-15.215144037583954
-83.79191066903581
9.41692847474505
9.693311861821398
-46.45418520431854
-14.861356869255468
0.08538532521724385
9.46880278734369
1.4169519947335925
-18.96857313495221
-31.081088737090603
-2.210044634753805
-35.969560037520004
11.245640766415457
-4.957219479687349
-14.988110663979281
7.850786459070049
-42.49662850959964
6.397857738462575
-25.846406598560858
8.782641327111792
-31.323079370645928
-30.49729834420665
-5.378432626882462
3.0393083134698315
11.504022715356367
1.5880315717982225
3.5259031886156524
-40.100855268702645
-5.699358877983467
7.969509977366723
-14.905532214522948
-46.72573362932981
15.782651678729776
-20.35313606172281
-14.325179652231629
2.6482581783701806
-4.89287186145525
11.333535696153861
4.788362435932621
5.545170295226187
-71.25791350007796
-14.086289004971182
-28.872084214251036
11.630652704606677
-0.0617116882659961
0.5118614086446254
5.537964368778087
-5.183366035441608
3.32068524012087
-5.442642136774401
5.564167437480695
-10.996944082825337
-12.810592796565295
-34.072567684121246
-15.353659995062243
-43.42757704146096
-9.93094149626868
2.9547151045230673
13.541429649560081
5.111235725545109
-3.552644749605282
-5.3519579393967565
5.099311441264951
-19.240907536771758
-2.248569147227056
2.648051937587987
10.888725869304581
-1.9884371476340865
3.214607876441682
15.124544302174511
-5.260900237339064
-72.63819165305827
9.294714478664512
-12.62292083577006
-9.703666024549772
-25.35759209348584
-29.531076652945142
-56.841455261556916
-8.23443422467927
-0.398931185717311
-4.337046310959195
13.389761937941959
-11.555494066125535
9.67014421962498
-52.20560026115329
-28.23900971064102
-23.86958416906747
-30.702217048545396
-79.52557584168338
-1.7517370790372153
5.604305549323057
-7.728353075192725
10.21214649766435
-70.03520399661471
10.188780275687822
-22.585209244223535
-39.73562243170784
-36.02328422670144
-54.00534938085998
-15.229051016959316
-8.171642269530233
-7.696217799595182
-10.33499039245217
5.236110526945068
-5.229902694438069
18.362275800440685
-41.696336244640236
-23.856686396668852
-16.7151559416918
-55.341537169231636
-74.03175208712898
-6.793189914002144
3.6894431396553546
3.660990147161421
6.706114111044008
-11.419606795179561
6.542089588950072
-20.17854240625242
-24.233498890524302
-27.92113830513371
-12.503324928819714
-37.29021758558623
-20.59851412530664
0.32206679766575697
13.243538700570394
4.250516585089119
-46.74199494270445
11.831329162600014
-25.212058643051382
-80.51590873926837
-3.8801240079185346
-33.152010616135996
15.39688011692722
1.7496215797996904
-0.13636144135732975
-9.980348665161845
4.286152060477833
-26.115832949383922
12.973679466539984
-34.45014351102152
-20.417682348188524
-11.967401475514468
-29.165352984325384
-25.825664427205915
-5.1081633398570165
-6.19851919652827
-24.175112257946516
-9.461881034187694
-41.03229297089548
9.270055069239874
5.985927421832432
-55.79649413146195
59.46850588421659
-36.52358105290477
-29.135934346715782
4.170282023550515
-1.41980290656097
-6.0063756206284555
3.3434220763880163
-9.69533577925348
6.065306386845769
-33.07559837188099
-5.6499412875675326
7.724419483829788
8.8749412625464
-20.2385949665664
-4.744648284780694
0.17311158013452044
9.368031331361696
15.106285974688419
-8.095558596854502
-2.7352022985064686
-6.586257777439155
-25.054130158377372
-92.50672548833967
-3.050380034751351
-71.66505969107568
-2.085294893244911
5.737704431641672
-0.0012616134161094195
3.27541936804262
-6.620209549300394
4.401240495404851
-10.897178129898816
-19.09747816221061
-26.282647300797112
-11.378882290796515
-29.662203290066564
-7.23175285722146
22.645802717262974
-37.8744086066369
-4.578502950620697
-7.449729465230902
-19.087302316328632
33.2243456521172
-16.28145755679404
11.371586492462065
-1.9881038422738369
-22.982649696270965
-1.275466418499882
6.105379655896401
-24.586401849445608
-5.889692398976223
-9.943874142360905
13.064380161778072
-3.4202192530352478
9.44200065508189
-79.18499023466285
-13.124916853574414
-10.290355853372986
-2.263375129143014
4.391630414257782
-1.5542909583001405
-4.540530007777747
-6.2438958266637865
13.694111277889228
-80.59299659407377
-22.347002529680893
-7.5013497540428595
-28.550046818891364
-59.54474806726685
-7.890669944526964
1.3389190215108515
-14.332648185579963
5.619862485590257
-35.46217177503883
13.26391864894799
17.377852198678827
-24.287758564478846
-29.998257112732222
-12.517323341488721
-18.77339498788104
0.2508673273162212
7.273644182281261
-2.167687386493254
-5.075776836573002
-45.40029104513778
12.576565647023067
-17.81007180201892
7.840340738337914
-24.474540571415297
-97.4265012854175
-13.93702606404027
2.29116365989347
-9.98340112290678
-7.193387996994687
7.12055922762722
-11.31138424522228
12.81274950049795
-33.65222037324317
1.378199125216486
-29.165467745147375
-34.00385708307833
-25.52273026126396
9.22089466747887
2.685304146798104
-12.299138593695918
1.4464585599598765
1.4734750323904926
-7.342811851811278
14.060459664094017
5.152340747459569
-1.0625904476527004
17.761681451033333
-54.780228991239234
-15.488894130849719
-2.3533727286206823
-25.27229374275941
23.14447684243719
-20.374505720709546
7.164336924881814
-31.38235333928419
-54.11136228404079
4.906634389653209
-55.043698595735705
-23.227613341709915
2.7914774797523942
3.02198017284761
11.767662381578116
3.0591527880324785
-3.157842751273412
-21.676015487140653
13.469232999353796
-4.657901460312658
16.942753403438953
12.159419330616007
-10.200123342152844
-8.260029202237401
-0.9915875587643148
1.663407908221883
10.894826354498278
-1.4794258382599494
3.341256254121216
-9.013730520892398
-15.538815760081182
-39.009227299984154
-5.233642380930034
-30.98650772541543
3.923887715303628
5.069284642746721
-10.953784485552008
-2.9265700806273443
18.111379652635605
0.9030773990435832
-20.164680224044776
-37.88762252231402
-5.47945321199364
-19.515603695745952
16.45273337117821
-1.6860262759363929
-0.15059033194864124
8.44368520517209
4.385856060246377
13.29012658323521
-5.170516654865591
-6.663025560161093
-41.337990816701655
11.803713007206676
-9.094984214218059
1.2662959917143326
-9.499226219653323
-0.7117367288546825
9.53757730196971
3.2331230719182678
-10.515962122862266
6.7464843774746415
-19.4902001807667
-37.77475815935628
10.117969221099418
-6.5569660774036596
2.6116933394685193
-6.738667000095806
8.317817020835884
-6.665729318317814
3.4874637036882454
6.38849452243565
1.1509485449764298
-8.199160196697967
-9.954625072781898
-21.805433354425574
-1.2134463959875488
-36.114429738614085
7.0460212329718495
7.406535297121303
-11.538571310333493
-4.785430891685751
10.43819714468628
-3.4511256599089317
4.634798125717951
11.428166214911066
34.541520158200136
-40.38166916212578
-16.51611663628336
-7.0975344861977705
2.3054628615661885
20.389838819207426
-2.3734837616641182
-13.745796543603054
1.5565649759096858
-0.5559654839749242
-16.8528842433408
-4.775909848963535
-28.126935788759113
-13.303936688062185
-2.3131490473086567
4.363740056704103
-0.4073808744233265
5.1677374598883254
-6.172523592707271
0.9792107810477901
-8.897995822858064
-6.463967612099523
-20.298086363770246
6.631825871190308
-33.989151185391506
8.315371466724342
5.92981188275798
-9.64816221373582
-4.110492646003478
-2.2900389675163715
-1.5925268387922835
8.90637162158788
2.871744456747403
17.445992155289613
-9.503498299910413
28.38188511245866
7.0744010196425755
7.939646218952602
-43.95845516588883
1.0638810236938752
-10.937396612440589
6.705518719102727
-15.9935921028975
4.539277393236818
6.650180884971656
-66.48313410095216
-6.760386499301943
-14.487603455058084
6.414206548598516
5.27228679834164
4.096372002685488
-40.51037717113985
12.706050615246781
-17.448667164846267
-22.095319297419966
-68.88325676026561
-30.785371850726907
-24.36086292203673
0.31701024902938535
6.164395699118035
11.119902017750466
8.911398106241506
-8.984712379966021
-6.229156682890949
-4.581113242024376
-48.03225342434328
-83.52156434831267
-17.410000023560492
-30.471243770314505
3.9979851634717285
13.744179792130456
-48.5191368017184
-4.30627234057129
0.5048163306667774
-11.133813071477075
20.223952295873268
-4.703236662056691
-119.98839333173795
-11.42897464073771
-101.95150430277975
2.6932139302835205
3.05700581943875
2.977906268109546
-1.9583204441215107
5.10906811229512
-1.1264319918028614
6.098850561121413
-5.426792020117556
-9.957427664788426
-1.8502559986756766
0.6967197470992978
8.891880794377741
5.193502186019234
-12.68549780598623
1.2410230970371
4.921157208751592
-7.155298098154393
6.434476611856674
-10.750971362322236
-41.38271526301721
9.034757472900338
-39.30584253133897
2.603612527486246
1.5003201084508042
-14.955582785264305
3.132559767932504
-43.35819875610072
15.032620868428818
-26.225321736338294
-9.52639408812959
-38.48246860392149
-9.318257685348147
-32.89223622537721
1.713605946679177
5.162282473871025
-11.955028920647981
1.6078290961050223
-0.8889909883449976
8.129003073239595
-12.38281521539044
-26.316363346687567
-10.051873809274246
-27.80268430203531
-38.037036218185065
-2.6530146884917105
-1.0939354129634493
-5.444959639463248
7.379076013090125
-6.2060622964855785
10.323800113041992
-29.36904672730033
-28.687830286129255
-4.251806368963217
-44.56574636211484
-24.00716040412478
-13.077166027770101
10.114159457331061
-11.658555105851676
-1.9266426398638394
13.29527469355286
-0.3692293609042552
-9.183171329662319
27.704245631115754
-23.112421105351675
10.977513605571541
7.166899712642115
-12.792241987861598
-8.523459563642152
-1.0783017154681183
1.6922109624855066
25.965205033323038
11.62680915041698
-21.734582236282897
-92.87573933637853
-2.3374066227344588
-22.363787726820586
-52.30352745833465
-6.522307601531179
-7.20891698353
21.58128366860884
7.47420032347079
-20.753468340437248
3.7045267927575
-19.31772876485495
-14.67188938423143
-76.6100916316872
-43.40619334744396
-16.88085580838575
-0.03544343621927348
-1.3928000545025623
0.9211600457777256
-0.7585664215810994
14.599801155174221
6.7952432183273315
0.4184905405291932
9.584634036337915
-43.49159169554961
4.816398726142344
-29.43815117764419
-1.7847573208345922
4.423829191924114
2.147546374000276
-0.5867054997989607
14.56331455932633
-1.4121271460100284
-13.696745756186097
-38.28795518799243
0.8540858462364728
-0.9042857385971783
-31.39999842728609
0.16744630106109137
2.465479303696123
23.95702006857421
1.6357034546872478
-9.366589746790442
-18.30999708176241
-28.473924478197826
5.373225012210116
72.55079824969854
-58.06765518859124
57.386886252916774
-1.847688565546556
4.183578627076589
-5.3084549676624775
6.744543750024286
6.251148108928303
-4.141390379226178
2.1397231534435033
-4.921561410246544
-28.54100025079313
-4.292887323921396
-8.725784406475439
-11.552003654351532
14.337331043825982
16.360402102982267
-7.120488250628789
-3.9674072045547915
-16.706046817209867
-17.82882493361448
10.11786523267304
20.511049987040757
3.4952380898013478
-8.015545230763667
-3.428335923949904
2.7836938441744286
-1.787948030758935
5.259544760584688
-43.520203690432275
10.353969550532529
-23.071321242459646
-20.30607026493643
-11.291493224587155
-36.28427516747349
-7.858486223380465
1.2941503614103373
1.3766299466321446
-8.298710203059755
3.2925257010683247
-50.51536537159238
12.829771846003531
-27.18649955499047
-10.889803590289283
-2.3085564216142047
-33.223373773644134
-44.39735150495129
2.6442931586597274
0.15367253351947685
-8.101258935896889
-2.0949270847128023
-21.771257502116157
8.106438159372408
-47.73592464030384
-9.214159548564075
29.418306977805795
-27.758841527752885
-23.86640111883287
14.359729426766101
-2.2408054803693496
-9.345060892732974
0.9824412306519923
-42.35641018678884
9.3264215296536
-42.3673184810559
9.319821724874714
-30.190050902828936
-37.789451994926694
-43.881026149909665
8.515782168584416
1.727558272360116
-4.127191389444721
-5.367649105417539
8.650795718202705
3.5341467367550754
-19.39847940427325
-6.22119973166299
-28.56560813720116
-4.527875628305079
4.6776376327395806
1.7980421061605023
-6.681633449471188
2.228328911350699
1.0234330643990637
10.602901109867897
9.164058683897089
-13.941336680581003
-1.824404564982442
-34.03619993973487
-27.519078605643443
-19.162931517586216
-7.081048299837944
2.8315234950362673
12.665309641536055
4.948495235755101
-20.16121186497467
-12.703667514100989
6.982746274548564
3.204861882278219
20.647758230561138
14.223242908232525
-18.462828026839432
3.4277406183089307
-12.676669884058667
26.101600719781885
0.3356754254151375
-21.169373979956635
13.349334318601578
-120.43537693362424
-50.86808974781692
-58.031278739129945
-32.36228901947692
-63.09200834037349
2.8092869441873027
-1.486030055780593
4.808563763544793
-1.5781718849576194
15.634127417259
-0.13442576380583127
5.60162808696385
-7.640768915334637
-13.565035461886703
10.575659373240017
-32.36605895207348
-18.734078803500623
4.77579844948218
15.809881355505077
4.033906914909927
-6.993677284086364
-5.983557256626173
-59.14763453051673
-29.880879378891752
3.9021903388969714
14.857279002508168
15.812674362202312
7.287014948389028
-0.12338101182216654
-0.48077923419848645
1.7681070450192369
-8.052826256020884
5.447158901938822
-12.367137422789224
-14.799210918708132
-10.61145298371143
-28.24505819420931
-3.4828524077049376
0.92172802900319
-3.5021134304574906
1.4378735499743067
4.764116781731558
2.6069195898243622
5.443762453851766
-35.594951170093694
1.4289322051851285
-28.226713383560817
-10.257632855374762
12.496755737572748
0.9396012068215205
-2.1039041525035627
-1.4674207610470704
1.3420214536523094
10.87653901671205
3.476953183640412
-46.2338852415895
7.671087467268064
-15.73070128560383
2.2072819108280135
-32.1037006922426
-1.0138842460111368
2.153802908601529
-3.4856891788234163
2.8130844228216283
7.933946918476509
0.7534996690371241
5.951719732463487
-5.404875046598601
-22.196056423072545
-1.4039146939246878
-12.507016527567954
-7.620531087756893
7.394104113086571
8.570004864531493
3.524894578191738
-46.57524692545939
8.255017460015528
13.03508113319849
-29.226848174640306
-47.539974559762214
-76.8099397417075
-65.57946342223059
-2.9110608043521884
-0.5756018799475697
-3.3518158467206103
15.606077029989173
-86.53545366824747
10.329637360064702
-8.839019859841613
-65.71403139419182
-13.693534035615043
-77.27049261074289
-45.772588723757785
0.7758309529607974
-0.6353290437352719
1.885106079858982
-4.242986673929417
-23.583163453510167
6.705924872585443
-38.0682583360969
-4.263104429792282
33.306558311218964
-32.41989146137746
-26.70716329298175
-7.338987715604965
-8.419832360251686
8.032982536549007
4.656823600021515
10.984975886856642
3.264188817245392
-26.23740498190962
-11.941618901202128
-1.4779104851083844
8.310361634876655
26.588121428454542
3.30570080582043
5.749888003936675
11.622880712556281
-8.749302801873103
1.6944053247313664
-10.390905154823727
-1.821387357455394
-2.3959236020348684
2.6456209439932317
23.92236860268798
23.812766201502036
-1.3470162766200566
4.279720245816965
11.125070153266794
4.968698889309268
5.7341794810887565
-0.9786138598934944
-10.27497650463913
-23.262738548485803
-34.264055150740326
-25.287867634492876
-79.067731649425
1.2121486641554178
8.579156017570762
-25.435002483011157
4.743522261605624
0.9225050361983431
5.262777995625859
0.7941699824758759
-42.16422668686378
-36.065590838639714
-7.906826241195855
-49.305343643310515
2.4144328288498063
3.9726080100150316
-6.4586692023944865
0.06996080065935217
1.2514321628679062
1.388859193784647
2.3272077687635635
-13.046074592823949
3.15559808112993
-2.538631210947049
-2.976120430195595
-0.06972804339449779
6.283601602925319
-13.599212854816948
-8.327229097141855
16.04138780517379
1.6899922720352452
-26.45466616741921
18.49561976328287
-28.624689399482023
8.5731979193946
-9.132986458216845
10.47552262759643
14.151530424631424
-38.69819728667269
-16.915848782309087
8.990844685955205
-5.651779728318489
14.337868556534033
-9.690530327494029
-49.80667755071505
-0.3330800806833256
-67.32492413096215
2.3642285247833206
3.906014024561184
8.603272204460477
1.2381321728416648
-28.18881547985906
-14.427663426934581
6.185156703743088
-66.59854096946832
7.986470346069178
1.2069711152711466
-31.703001970570075
-9.438940291334859
0.02863614933669023
21.68831167581664
10.914888267309546
1.2333004506883647
-7.982137837757754
-6.434501149946582
-32.73100502179472
-62.00093703941328
-16.284361526734187
-31.934959714989425
-8.789799526271066
-4.352914736218455
12.559495114983726
3.9894166936480544
-4.251111579398511
3.9112458771130214
-20.72710044119017
-19.51204062287399
-12.473127635972173
-18.078336782635546
-12.147647092006398
-13.017766000733591
8.170885845676073
35.10552883685054
-6.020447128781646
-14.094217131399665
-22.79268048045546
11.827282680972884
-42.935092315042745
-77.52597060590999
-19.939417068790707
-54.409985543490514
-7.450484971408251
3.874510911447853
-76.67907397684009
10.958414010288664
15.266766431414036
1.5908674506830107
18.0200465712411
-5.570470059472992
-35.55464784488165
-21.708000434380583
-16.618369458861565
0.8043940887530958
2.45943210244067
-2.702009077392556
1.5394054479181127
4.652846119955669
2.6905216370661176
-12.101862551550248
-5.05858634542849
-0.8472130219232681
-3.960342655482763
-4.571417122885489
-1.4705088941219375
3.064486016161493
-23.08799166059351
6.855540173207186
15.084796580474592
-0.6918612550022569
-9.41429512670252
-35.11445597031998
-1.2494621669701844
13.874179195408118
-43.53593186762125
-3.3791998492963637
-0.4644134559343467
9.224178423409397
6.226646272902657
-4.536558949787584
4.191966222153422
-13.608115691573708
-21.859561037288913
-30.049765819818568
-15.863890608904253
-29.676709803034623
1.7922329783395075
6.867329256542867
-6.991689944350405
-1.209331476209095
-2.53054653507225
3.9034435536751353
-0.9057921440728824
-14.942944428014897
-30.138691474015115
-6.847773926080936
-29.83623516113593
5.532666546798539
4.640621947951442
-19.124581264822922
2.72085609730534
-13.004743124331277
4.082859811353543
-4.271244012137338
0.5962750714160152
-1.1424851332333188
-11.31224112796984
-10.333322751709126
-13.004107835887112
-10.195334584788192
-9.372738672108559
17.176464448865385
-17.65451571457682
9.066599215752067
-19.877721608525835
-23.13155341929708
9.077454378284916
-10.996050417485785
-13.297561411498444
-7.044407467598383
-3.079353600853722
-7.56896336957216
15.765197412566756
-34.82927487576499
8.702851540008442
-60.766974160108255
-18.56231716260009
-2.8624690191902733
-54.98548269862554
-12.054286493627949
-4.864178258949755
4.428041449526273
1.528446192077113
5.5741017033394895
-11.695603329166369
8.157904382491063
-16.653804946579925
-27.76988571019723
-25.04067640600207
-20.758733184868984
-35.48738167932714
1.5376644809366544
6.318067491133238
-4.197711980088701
2.8459328455129986
-9.122622027346067
6.713419370368482
-13.557846299764668
-19.447682273655698
-33.49448790696805
-19.55496090251762
-41.263745394660226
-12.636353572095866
14.45862653036675
1.0507128436072821
4.846197458162835
-1.754362790095799
-7.581088957038276
-25.955530778465576
17.013032761251555
-18.15837877309568
-25.813582772759073
-36.85715770081853
6.9282022145009305
7.680469982348913
-11.714431457824851
-2.764777902935788
-11.203279184606124
-1.1443520128464364
9.59167731371402
-12.358377632775545
-7.790469620591962
5.318401043428217
-102.00018183188256
-5.809372682194078
3.5945963360528026
12.981916235877083
9.713458265760075
-13.788398293817043
-3.8585831532363946
-4.400938266991283
-27.92193609144207
-40.83897252677104
-17.477733044553958
-2.116451485360919
1.1644867992946328
-16.930793229467263
21.926738039967432
1.9137389484122784
-5.967296656289797
-9.14433653771248
5.897824879223636
17.734519181559303
-42.76095901959443
11.857140235161811
-14.903218162886485
4.566446903133043
10.860607932896198
-77.92821122404925
5.964482401385456
9.896140706743683
-4.479904992569933
5.7038612776628925
-14.92445105940196
-32.571496236305364
-19.7806602141208
-70.04194435311135
-0.7113022649525576
0.34878342824495956
-2.4073014913045183
5.637625072872764
-1.7575931750854537
7.784696719238984
-27.6801998289645
-9.510643081200183
-18.64590641821939
-26.455661148944124
-29.467911757112983
-17.507025365646363
4.623459126940152
35.45618333492383
3.125790212827274
-21.13723590859163
-27.657177906059445
10.24262823150466
-48.214005509753065
-87.8751406273487
-14.883837972327964
-65.93425509258752
0.044925850699160996
4.359633759255421
-8.491780512588424
2.1276668016759963
-1.8657481588812157
8.440356044222604
-17.313575693685934
-17.682854827991026
-23.008735139336913
-18.904644497217962
-43.28057172673135
-28.517542868881097
36.324705939328865
1.5605368332192504
-1.4224279338883172
-115.61395240743533
-14.31937521252534
-23.631713799518234
-32.318457475098526
-15.247740694823868
-30.65287012821915
-20.34271368490239
0.35464594085353474
-5.26837043582326
-1.283419792904084
-2.146003982706709
23.982719897758194
-0.4701249505301548
-18.583411706112084
8.335190810188545
8.338404351326316
-6.32990513774351
-1.4007919596776433
0.6039473615122697
5.156347539661242
-9.75716161051648
2.508095110866906
-4.751189852598705
6.348524718275934
-11.287337404729868
-17.77999388757077
-17.89909390527663
-14.209814650807362
-10.546884944667909
0.306007061351651
-2.2976846832802904
1.2750463027281862
3.4613001115787485
-16.68985032604468
9.406480760780095
-13.967966316091236
-8.008283037855012
-18.42878497496364
-16.999285413067124
-18.505375456535674
-4.796195114446252
6.38376972684646
3.815194967818083
9.681990373546396
