GIS
206
0.0
11
Comparison.Contrast
Expansion.Conjunction
Expansion.Instantiation
Expansion.Restatement
Temporal.Asynchronous
Contingency.Cause
Expansion.List
Comparison.Concession
Expansion.Alternative
Temporal.Synchrony
Contingency.Pragmatic_cause
252
17 0
18 0 1
4 0 1 2
3 0 1 2 3
2 0 1 2 3 4
13 0 1 2 3 4 5
18 0 1 2 3 4 5 6
13 0 1 2 3 4 5 6 7
11 0 1 2 3 4 5 6 7 8
81 0 1 2 3 4 5 6 7 8 9
355 0 1 2 3 4 5 6 7 8 9 10
15 0 1 2 3 4 5 6 7 8 10
131 0 1 2 3 4 5 6 7 9
25 0 1 2 3 4 5 6 7 9 10
2 0 1 2 3 4 5 6 7 10
3 0 1 2 3 4 5 6 8
12 0 1 2 3 4 5 6 8 9
15 0 1 2 3 4 5 6 8 9 10
5 0 1 2 3 4 5 6 8 10
46 0 1 2 3 4 5 6 9
10 0 1 2 3 4 5 6 9 10
4 0 1 2 3 4 5 6 10
11 0 1 2 3 4 5 7
8 0 1 2 3 4 5 7 8
11 0 1 2 3 4 5 7 8 9
8 0 1 2 3 4 5 7 8 9 10
2 0 1 2 3 4 5 7 8 10
17 0 1 2 3 4 5 7 9
1 0 1 2 3 4 5 7 9 10
1 0 1 2 3 4 5 7 10
1 0 1 2 3 4 5 8
7 0 1 2 3 4 5 8 9
2 0 1 2 3 4 5 8 9 10
1 0 1 2 3 4 5 8 10
13 0 1 2 3 4 5 9
4 0 1 2 3 4 5 9 10
2 0 1 2 3 4 6
1 0 1 2 3 4 6 7
1 0 1 2 3 4 6 7 9
1 0 1 2 3 4 6 9
1 0 1 2 3 4 6 9 10
1 0 1 2 3 4 8
2 0 1 2 3 4 9
1 0 1 2 3 4 10
8 0 1 2 3 5
9 0 1 2 3 5 6
6 0 1 2 3 5 6 7
4 0 1 2 3 5 6 7 8
2 0 1 2 3 5 6 7 8 9
1 0 1 2 3 5 6 7 8 9 10
4 0 1 2 3 5 6 7 8 10
10 0 1 2 3 5 6 7 9
2 0 1 2 3 5 6 7 10
7 0 1 2 3 5 6 8
1 0 1 2 3 5 6 8 9 10
14 0 1 2 3 5 6 9
3 0 1 2 3 5 6 9 10
2 0 1 2 3 5 6 10
4 0 1 2 3 5 7
2 0 1 2 3 5 7 8
2 0 1 2 3 5 7 8 9
1 0 1 2 3 5 7 8 10
4 0 1 2 3 5 7 9
3 0 1 2 3 5 8
2 0 1 2 3 5 8 9
2 0 1 2 3 5 8 10
12 0 1 2 3 5 9
1 0 1 2 3 5 9 10
7 0 1 2 3 6 9
1 0 1 2 3 7 9
4 0 1 2 3 9
1 0 1 2 4 5 6 8 9
1 0 1 2 4 5 6 9
1 0 1 2 4 5 7
1 0 1 2 4 6
1 0 1 2 4 6 9
1 0 1 2 5 6
3 0 1 2 6
1 0 1 2 6 9
18 0 1 3
2 0 1 3 4
4 0 1 3 4 5
8 0 1 3 4 5 6
5 0 1 3 4 5 6 7
1 0 1 3 4 5 6 7 8 9
21 0 1 3 4 5 6 7 9
2 0 1 3 4 5 6 7 9 10
1 0 1 3 4 5 6 8
1 0 1 3 4 5 6 8 9 10
28 0 1 3 4 5 6 9
1 0 1 3 4 5 7
2 0 1 3 4 5 7 9
1 0 1 3 4 5 8
6 0 1 3 4 5 9
2 0 1 3 4 6
5 0 1 3 4 6 9
1 0 1 3 4 7
1 0 1 3 4 7 9
1 0 1 3 4 8 9
1 0 1 3 4 9
16 0 1 3 5
5 0 1 3 5 6
1 0 1 3 5 6 7
13 0 1 3 5 6 7 9
1 0 1 3 5 6 7 10
1 0 1 3 5 6 8
14 0 1 3 5 6 9
1 0 1 3 5 6 10
2 0 1 3 5 7
10 0 1 3 5 7 9
2 0 1 3 5 8
23 0 1 3 5 9
1 0 1 3 5 9 10
6 0 1 3 6
1 0 1 3 6 7
5 0 1 3 6 7 9
5 0 1 3 6 9
1 0 1 3 6 10
5 0 1 3 7
3 0 1 3 7 9
26 0 1 3 9
1 0 1 3 10
1 0 1 4
1 0 1 4 5
2 0 1 4 5 6
1 0 1 4 5 7 10
3 0 1 4 5 9
2 0 1 4 6
2 0 1 4 6 9
8 0 1 5
4 0 1 5 6
1 0 1 5 6 7 9
2 0 1 5 6 9
1 0 1 5 7
1 0 1 5 8
3 0 1 5 9
13 0 1 6
1 0 1 6 7
7 0 1 6 9
4 0 1 7
20 0 1 9
1 0 2 3
1 0 2 3 4 8
2 0 2 3 5
1 0 2 3 5 6
1 0 2 4
1 0 2 4 5
2 0 2 5
2 0 3
1 0 3 4
1 0 3 4 5
1 0 3 4 5 6 8
1 0 3 4 6
2 0 3 5
4 0 3 6
2 0 4
1 0 4 6
3 0 5
1 0 5 6
1 0 5 6 8
1 0 5 7
1 0 5 8
8 0 6
1 0 6 8
1 0 6 9
49 1
5 1 2
2 1 2 3
2 1 2 3 4
4 1 2 3 4 5 6
1 1 2 3 4 5 6 9
1 1 2 3 4 5 8
1 1 2 3 4 5 9
2 1 2 3 4 5 10
1 1 2 3 4 6
3 1 2 3 5
2 1 2 3 5 6
1 1 2 3 5 6 8
1 1 2 3 5 6 9
2 1 2 3 5 8
1 1 2 3 6
1 1 2 3 6 9
1 1 2 3 10
2 1 2 4
1 1 2 4 5 6 9
1 1 2 4 5 10
1 1 2 5
2 1 2 6
1 1 2 6 7
1 1 2 7
1 1 2 9
9 1 3
3 1 3 4
2 1 3 4 5
3 1 3 4 5 6 9
1 1 3 4 5 7
2 1 3 5
3 1 3 5 6
1 1 3 5 7 9
1 1 3 5 8
1 1 3 5 9
6 1 3 6
2 1 3 6 9
3 1 3 9
5 1 4
1 1 4 5
1 1 4 5 6
2 1 4 6
1 1 4 7 9
1 1 4 10
6 1 5
3 1 5 6
1 1 5 6 8
1 1 5 10
21 1 6
4 1 9
15 2
2 2 3
1 2 3 5
1 2 3 5 6 9
1 2 3 9
1 2 4
1 2 4 6 7
2 2 5
4 2 6
10 3
2 3 4
1 3 4 5
1 3 4 6
6 3 5
3 3 5 6
1 3 5 6 7
1 3 5 10
5 3 6
4 4
1 4 5
1 4 5 6
1 4 5 6 7
1 4 6
1 4 6 7
15 5
8 5 6
1 5 8
1 5 10
26 6
1 6 7
1 6 7 10
2 6 9
2 6 10
1 7
1 8
1 10
1702
first32_in_the_year-ago
JJ_->_net:12
NN_->_assurance:2
NN_->_assurance:1
loss_<-_<det>_<nmod:of>_<nmod:of>:2
loss_<-_<det>_<amod>_<nmod:of>_<nmod:of>:12
JJ_->_Per-share:1
revenue_<-_<case>_<nmod:of>:12
CD_->_1?3/8:12
VBN_->_ended:12
$_<-_<case>_<nummod>_<cc>_<conj:or>_<case>_<nummod>:12
NN_->_assurance:12
profit_<-_<nmod:of>_<nmod:of>:2
loss_<-_<det>_<amod>_<nmod:of>_<nmod:of>:2
NN_->_net:12
NNP_->_Computer:12
first32_in_the_year-earlier
share_period
net_period
increased_<-_<nsubj>_<dobj>_<nmod:to>_<nmod:from>:1
from_per-share
last12_period_billion
share_year-earlier
ADVP_->_RB_NP_PP:12
WRB_->_When:12
says_<-_<nsubj>_<ccomp>:12
point_index
first2_per-share
$_<-_<case>_<nummod>_<cc>_<conj:or>_<case>_<nummod>:2
period_rise
$_<-_<case>_<nummod>_<cc>_<conj:or>:12
VBP_->_include:12
JJ_->_likely:12
%_per-share
up_<-_<nmod:npmod>:12
net_<-_<amod>:2
VP_->_VBD_RB_VP:12
rose_<-_<nsubj>_<nmod:to>_<nmod:from>:1
VP_->_VBD_ADVP_PP:12
NN_->_income:12
revenue_<-_<case>_<nmod:of>:2
or_period
NN_->_offering:2
VBP_->_include:1
%_<-_<nummod>_<nmod:of>:2
VBN_->_priced:2
ADJP_->_RB_JJ:12
WP_->_What:1
a_send
JJ_->_federal:12
going_<-_<nsubj>_<aux>_<xcomp>:2
RB_->_Now:1
RB_->_Now:2
IN_->_into:12
VBD_->_responded:2
VBD_->_responded:1
VBD_->_followed:1
PRP$_->_her:12
CD_->_One:2
first2_one
president_be
VP_->_VBD:12
PRP_->_It:12
NNP_->_Computer:1
gain_of
IN_->_In:12
period_to
._a
last1_yen
._->_.:1
._the
NN_->_chief:1
._of
NNS_->_yen:2
._to
some_at
ADJP_->_JJ:12
NN_->_officer:1
TO_->_To:1
said_<-_<nsubj>_<ccomp>:1
loss_,
loss_a
,_later
in_later
CD_->_1986:1
CD_->_22:1
million_<-_<compound>:12
some_say
-RRB-_->_-RCB-:2
's_say
NNS_->_investors:1
WP_->_What:2
have_''
VBZ_->_does:2
say_and
VBG_->_going:2
-LRB-_->_-LCB-:2
NP_->_DT:12
VBZ_->_says:1
or_to
IN_->_from:12
when_,
,_$
,_%
to_rise
NNS_->_shares:1
NN_->_loss:1
RBR_->_earlier:2
the_investor
share_of
NN_->_president:1
say_the
VP_->_VBD_NP_PP:1
$_have
VBD_->_did:2
say_to
%_be
some_the
NP_->_QP_NNS:1
%_in
VP_->_VBD_S:1
in_%
NP_->_CD:12
%_of
when_the
NN_->_income:2
NNP_->_Corp.:1
NN_->_sale:1
MD_->_may:1
NN_->_%:1
in_say
%_to
MD_->_would:12
$_and
they_'s
VBD_->_said:1
have_say
VP_->_MD_VP:12
but_of
share_,
CD_->_15:1
the_sale
in_rise
say_say
of_say
of_million
share_share
%_the
million_<-_<compound>_<compound>:2
a_sale
a_%
from_from
in_sale
some_,
WDT_->_which:1
:_->_;:1
share_a
S_->_PP_,_NP_VP:12
NP_->_NP_,_NP:1
NP_->_DT_CD_NNS:2
not_for
VP_->_VBD_NP_PP_PP:2
NP_->_CD_NN:1
PRT_->_RP:12
NP_->_EX:1
or_,
a_rise
of_''
some_of
ADVP_->_RB_NP:1
and_%
in_million
say_,
WP_->_what:1
$_<-_<case>_<nummod>:2
ADJP_->_CD_NN:1
of_%
$_of
VB_->_be:12
for_%
VP_->_VBZ_NP:2
PRP$_->_his:12
VP_->_VBZ_NP:1
ADVP_->_RB:2
ADVP_->_RB:1
not_it
SBAR_->_IN_S:2
be_not
the_the
other_to
VP_->_MD_RB_VP:2
VP_->_MD_RB_VP:1
SBAR_->_IN_S:1
some_be
do_he
the_rise
NP_->_PRP:12
not_of
first2_it
,_,
say_be
that_they
VP_->_VBD_VP:12
VP_->_VBD_PP:2
VP_->_VBD_PP:1
NP_->_$_CD:2
VP_->_VBP_ADJP:1
VP_->_VBP_ADJP:2
be_say
he_the
VP_->_VB_ADJP:2
VP_->_VB_ADJP:1
NNS_->_shares:2
,_at
IN_->_from:1
IN_->_from:2
VP_->_VB_S:1
VP_->_VB_S:2
not_to
share_to
NP_->_NNP:1
NP_->_NNP:2
,_net
``_be
VBD_->_was:1
VBD_->_was:2
have_of
the_Mr.
do_be
a_the
$_->_$:2
$_->_$:1
NP_->_NNP_NNP:2
''_be
NP_->_NNP_NNP:1
,_share
VP_->_VBD_NP_PP:2
ADJP_->_RB_JJ:2
ADJP_->_RB_JJ:1
he_in
of_from
VP_->_VBD_PP_PP:2
VBD_->_did:1
IN_->_that:2
IN_->_that:1
VP_->_VBP_VP:1
VP_->_VBP_VP:2
be_$
be_%
be_,
not_be
first2_Mr.
NP_->_QP_NNS:2
PP_->_TO_NP:12
S_->_VP:2
S_->_VP:1
VP_->_VBD_SBAR:2
VP_->_VBD_SBAR:1
VP_->_TO_VP:12
MD_->_will:2
be_a
MD_->_will:1
PRP_->_We:2
VP_->_VBD_S:2
,_to
VP_->_VBZ_RB_VP:1
VP_->_VBZ_RB_VP:2
a_Mr.
S_->_VP:12
in_$
and_and
he_Mr.
VP_->_VBD_NP:12
they_,
have_,
VP_->_VBP_VP:12
CC_->_or:1
CC_->_or:2
have_a
from_,
PRP$_->_his:1
the_they
PRP$_->_his:2
to_the
the_say
MD_->_may:2
NN_->_%:2
VP_->_VBG_NP:2
VP_->_VBG_NP:1
million_<-_<compound>:2
the_million
SBAR_->_WHADVP_S:1
SBAR_->_WHADVP_S:2
but_to
NP_->_NNP:12
the_%
the_$
the_,
PRP_->_they:2
PRP_->_they:1
VBD_->_said:2
MD_->_would:2
MD_->_would:1
the_not
VP_->_VBZ_VP:12
NNS_->_months:2
NP_->_NP_PP:1
's_$
VBP_->_are:1
NN_->_market:1
VBP_->_are:2
NN_->_market:2
NP_->_NP_PP:2
VP_->_VBZ_ADJP:1
VP_->_VBZ_ADJP:2
not_they
the_that
NP_->_QP:2
PP_->_IN_NP:12
MD_->_will:12
MD_->_could:1
MD_->_could:2
PRP_->_It:1
VP_->_VB:1
VP_->_VB:2
at_the
PRP_->_It:2
a_say
the_and
PRP_->_he:1
PRP_->_he:2
SBAR_->_WHNP_S:2
SBAR_->_WHNP_S:1
PRP_->_it:12
have_'s
NP_->_NP_PP:12
VP_->_VB_NP:12
PRP_->_we:1
ADJP_->_JJ:1
NP_->_CD_NNS:2
NP_->_CD_NNS:1
,_->_,:12
at_,
ADJP_->_JJ:2
NP_->_PRP:1
NP_->_PRP:2
IN_->_into:1
IN_->_into:2
be_year
to_$
to_%
earnings_$
from_the
and_''
VBZ_->_is:1
VBZ_->_is:2
RB_->_n't:1
RB_->_n't:2
S_->_PP_,_NP_VP:1
S_->_PP_,_NP_VP:2
,_say
first1_and
a_$
be_''
ADVP_->_RB:12
NNP_->_Mr.:1
NNP_->_Mr.:2
a_,
VP_->_VBP_NP:1
VP_->_VBP_NP:2
not_the
Mr._,
to_say
VP_->_VBD_NP:2
VP_->_VBD_NP:1
to_to
and_Mr.
NP_->_CD:1
%_<-_<nummod>:2
NP_->_CD:2
but_,
NP_->_NP_,_NP_,:2
NP_->_NP_,_NP_,:1
DT_->_the:12
he_and
,_->_,:2
,_->_,:1
a_be
VBZ_->_'s:1
VBZ_->_'s:2
PP_->_IN_NP:2
PP_->_IN_NP:1
WDT_->_which:2
IN_->_at:1
IN_->_at:2
some_a
NP_->_NNP_NNP_NNP:1
NP_->_DT_NN:2
NP_->_NNP_NNP_NNP:2
NP_->_DT_NN:1
the_even
in_Mr.
VP_->_VB_NP:1
VP_->_VB_NP:2
QP_->_CD_CD:2
VP_->_VBG_S:2
VP_->_VBG_S:1
,_''
VBP_->_do:1
VBP_->_do:2
IN_->_In:2
IN_->_In:1
CD_->_million:2
to_be
WHADVP_->_WRB:2
WHADVP_->_WRB:1
PRP_->_it:1
IN_->_that:12
RB_->_not:1
RB_->_not:2
PRP_->_it:2
not_that
that_the
CC_->_But:1
and_the
a_or
PRT_->_RP:1
PRT_->_RP:2
NP_->_NP_,_NP:2
VP_->_TO_VP:1
VP_->_TO_VP:2
,_Mr.
first1_but
but_be
in_the
a_to
a_we
,_the
S_->_CC_NP_VP:1
,_from
QP_->_$_CD_CD:2
VP_->_VBD_RB_VP:1
not_,
SBAR_->_WHNP_S:12
VP_->_VBP_RB_VP:1
VP_->_VBP_RB_VP:2
not_a
but_a
but_the
NP_->_CD_NN:2
be_be
first1_I
NNP_->_Friday:1
''_->_'':1
''_->_'':2
be_at
Mr._the
VBD_->_was:12
not_and
NP_->_EX:2
be_one
NP_->_NNP_NNP:12
CC_->_&:1
first2_that
to_year
the_''
be_market
VP_->_VBZ:2
VP_->_VBZ:1
first1_that
VP_->_VBZ_VP:1
VP_->_VBZ_VP:2
NNP_->_Mr.:12
and_say
ADJP_->_JJ_S:2
ADJP_->_JJ_S:1
be_they
a_million
he_,
SBAR_->_IN_S:12
NN_->_year:2
,_cent
VP_->_VBP_S:2
VP_->_VBP_S:1
to_from
PP_->_TO_NP:2
PP_->_TO_NP:1
be_Mr.
VBP_->_have:1
VBP_->_have:2
VBZ_->_is:12
VP_->_MD_VP:2
VP_->_MD_VP:1
$_be
a_from
VB_->_get:2
NNS_->_cents:2
and_,
VP_->_VBD:1
be_to
to_million
be_the
DT_->_some:1
DT_->_some:2
some_to
Mr._Mr.
be_of
VBZ_->_says:2
,_million
S_->_SBAR_,_NP_VP:2
S_->_SBAR_,_NP_VP:1
and_of
VP_->_VBD_VP:2
VP_->_VBD_VP:1
be_it
be_in
PRP_->_he:12
MD_->_can:1
MD_->_can:2
DT_->_the:1
DT_->_the:2
first2_we
VB_->_be:1
VB_->_be:2
of_$
say_a
from_to
NN_->_share:1
NP_->_DT_NN:12
NN_->_share:2
VBD_->_had:2
VBD_->_had:1
NP_->_DT:1
NP_->_DT:2
the_from
CD_->_five:1
PRP_->_We:1
RB_->_n't:12
IN_->_If:1
of_we
''_->_'':12
PRP_->_we:2
VBZ_->_does:1
to_we
be_we
PRP_->_you:1
the_we
JJ_->_net:2
VBP_->_'re:1
be_if
last1_million
CD_->_billion:1
CD_->_billion:2
$_up
name_be
DT_->_these:1
NP_->_CD_NN:12
billion_to
say_``
MD_->_could:12
last1_earlier
share_from
RBR_->_earlier:1
VBD_->_fell:1
VP_->_VBD_PP_PP:1
the_billion
$_$
$_,
$_a
year_million
VBN_->_named:1
million_'s
on_share
earlier_million
say_of
share_cent
CD_->_One:1
PP_->_IN_NP_NP:1
VBD_->_reported:1
with_$
VBD_->_rose:2
NP_->_NP_NP:12
million_million
to_can
SBAR_->_WHADVP_S:12
NN_->_income:1
from_$
from_%
%_year
WHADVP_->_WRB:12
earlier_to
RB_->_up:1
RB_->_up:2
to_sale
million_a
million_<-_<compound>:1
NN_->_vice:2
$_million
at_million
CD_->_billion:12
million_$
million_,
,_sale
year_from
from_million
VB_->_sell:2
million_the
year_year
share_$
who_Mr.
NP_->_CD_NNS:12
at_at
for_billion
IN_->_at:12
%_$
%_%
%_,
%_a
NP_->_DT_NN_RBR:1
billion_$
said_<-_<nsubj>_<ccomp>:2
last1_share
at_$
$_'s
the_net
last2_million
from_year
$_<-_<case>_<nummod>_<case>_<nummod>:2
NNS_->_sales:1
$_for
$_->_$:12
last2_%
%_<-_<nummod>:1
QP_->_CD_TO_CD:1
QP_->_CD_TO_CD:2
loss_$
NN_->_%:12
loss_million
VP_->_VBD_NP_PP:12
NNP_->_Inc.:1
CD_->_million:12
a_into
QP_->_CD_CD:1
VP_->_VBD_ADVP_PP:1
share_the
million_be
CD_->_million:1
$_billion
billion_billion
VBP_->_have:12
VP_->_VBD_SBAR:12
billion_<-_<compound>_<compound>:2
of_sale
up_from
million_in
QP_->_$_CD_CD:1
NN_->_quarter:2
CD_->_30:1
QP_->_$_CD_CD:12
VP_->_VBD_NP_PP_PP:1
to_billion
NN_->_year:12
month_to
year_sale
million_of
early_,
year_%
year_$
year_,
or_$
of_president
million_to
million_with
or_million
earlier_$
$_in
NP_->_NP_,_CC_NP:1
million_have
$_on
$_the
for_$
$_to
CD_->_five:2
DT_->_these:2
in_from
NN_->_president:2
for_from
$_with
first2_some
DT_->_Some:2
the_&
report_$
of_share
NNS_->_months:1
NP_->_QP:1
,_now
year_to
for_rise
NP_->_QP:12
NP_->_NP_NP:2
NP_->_NP_NP:1
CC_->_&:2
NN_->_year:1
VP_->_VBD:2
,_rise
some_in
they_one
VB_->_get:1
do_they
VBP_->_need:2
PRP_->_they:12
share_%
CD_->_15:2
VBD_->_closed:2
last2_say
she_she
:_->_;:2
VBG_->_going:1
VP_->_VBD_S:12
PRP$_->_your:2
PRP$_->_her:1
PRP$_->_her:2
ADJP_->_CD_NN:2
to_you
last2_share
NNS_->_investors:2
a_share
TO_->_To:2
be_Inc.
be_Co.
NNP_->_Inc.:2
._->_.:2
a_cent
the_you
share_<-_<det>:2
to_Co.
he_with
WP_->_what:2
VP_->_VBZ_RB_NP:1
earnings_million
PRP_->_you:2
be_you
VP_->_VB_S:12
rise_%
rise_$
month_from
,_yield
trading_$
to_gain
from_rise
compared_<-_<mwe>:2
million_share
NP_->_NP_,_CC_NP_,:2
DT_->_Some:1
PP_->_IN_NP_NP:2
VBD_->_reported:2
VBD_->_rose:1
NNP_->_Corp.:2
of_billion
$_year
first1_some
%_rise
a_revenue
and_president
from_billion
,_president
,_revenue
at_%
month_$
VBN_->_compared:2
VBD_->_closed:1
year_billion
%_million
VP_->_VBZ_ADJP:12
RB_->_later:1
a_billion
,_billion
million_or
last1_%
ADVP_->_RB_NP_PP:2
up_<-_<nmod:npmod>:2
CD_->_22:2
VBD_->_advanced:2
ADJP_->_CD_NN:12
NP_->_NP_,_NP_,:12
rise_to
up_$
from_up
$_or
for_or
VBD_->_fell:2
of_Inc.
VBD_->_had:12
NN_->_officer:2
VP_->_VBG_NP:12
be_president
some_and
ADVP_->_RB_NP:2
NP_->_NP_,_CC_NP:2
MD_->_ca:1
the_if
VP_->_VBD_ADVP_PP:2
NNP_->_Friday:2
last2_problem
WRB_->_When:2
VBD_->_earned:2
CD_->_nine:2
JJ_->_federal:2
first2_after
first2_when
IN_->_After:2
IN_->_After:1
1986_<-_<case>:2
CD_->_1986:2
NN_->_loss:2
-RRB-_->_-RCB-:1
analyst_the
share_have
-LRB-_->_-LCB-:1
other_say
NN_->_market:12
says_<-_<nsubj>_<ccomp>:1
WRB_->_When:1
share_in
but_''
Mr._say
VB_->_sell:1
early_the
he_say
say_not
for_sale
not_say
VP_->_VBD_RB_VP:2
not_he
that_say
DT_->_that:2
CC_->_And:1
NP_->_DT_CD_NNS:1
to_Mr.
other_and
other_,
first2_if
IN_->_If:2
NN_->_offering:1
loss_from
early_in
NN_->_sale:2
JJ_->_federal:1
last2_billion
VBN_->_ended:2
they_''
quarter_<-_<case>_<det>_<amod>:2
say_from
VBG_->_trying:1
CD_->_30:2
he_after
$_that
$_include
$_<-_<case>_<nummod>:1
share_<-_<det>_<det>:2
VBG_->_trying:2
RB_->_later:2
JJ_->_important:2
analyst_a
DT_->_that:1
some_'s
analyst_be
be_recently
NN_->_share:12
but_say
the_.
try_,
VBP_->_'re:2
gain_the
analyst_,
VP_->_VBD_PP:12
's_billion
NP_->_DT_NN_RBR:2
name_Mr.
name_have
year_<-_<det>_<advmod>:2
month_billion
of_revenue
million_up
say_%
the_period
VBD_->_announced:2
they_New
the_revenue
JJ_->_likely:2
and_later
VBD_->_closed:12
third-quarter_$
VBD_->_said:12
,_vice
NP_->_NNP_NNP_NNP:12
VBD_->_followed:2
said_<-_<ccomp>_<nsubj>:2
profit_%
report_share
or_loss
ADVP_->_NP_RBR:2
some_this
going_<-_<nsubj>_<aux>_<xcomp>:1
earlier_<-_<nmod:npmod>:2
NN_->_volatility:1
NN_->_volatility:2
last2_now
last2_yen
SINV_->_S_,_''_VP_NP:2
CD_->_1?3/8:2
MD_->_can:12
still_say
NNS_->_sales:12
MD_->_may:12
._be
with_say
VP_->_VBP_NP:12
ADVP_->_NP_RBR:1
JJ_->_unchanged:1
VBP_->_need:1
the_need
%_<-_<nummod>_<nummod>:1
VP_->_VBZ_NP:12
say_''
RB_->_not:12
PRP$_->_your:1
NNS_->_sales:2
VP_->_VB:12
VBP_->_are:12
not_on
not_we
VBZ_->_'s:12
be_can
compared_<-_<mwe>:1
%_will
NP_->_NP_,_CC_NP_,:1
VBN_->_ended:1
last1_ago
million_<-_<compound>_<compound>:1
VBN_->_compared:1
year_rise
up_<-_<nmod:from>:2
or_from
and_even
JJ_->_likely:1
first1_other
says_<-_<ccomp>_<nsubj>:2
not_will
''_say
;_to
JJ_->_Other:1
PRP_->_We:12
not_as
%_increase
share_rise
VBD_->_increased:2
VB_->_yield:1
NN_->_Revenue:2
VBD_->_gained:2
rise_rise
first2_revenue
or_rise
%_net
or_%
earlier_%
up_%
%_<-_<nummod>_<nummod>:2
MD_->_ca:2
cents_<-_<nummod>_<dep>:2
says_<-_<nsubj>_<ccomp>:2
VP_->_VBZ_RB_NP:2
NP_->_DT_``_NN_'':1
some_``
some_''
S_->_SBAR_,_NP_VP:12
revenue_a
NP_->_EX:12
not_''
's_rise
profit_from
JJ_->_important:1
VBP_->_include:2
income_<-_<amod>:1
NN_->_quarter:1
quarter_to
last1_rally
analyst_of
S_->_CC_NP_VP:2
they_say
share_sale
first1_not
RB_->_Not:1
quarter_million
increase_billion
NN_->_net:2
quarter_$
ago_$
VBD_->_increased:1
of_period
,_period
analyst_say
earnings_from
compare_from
RB_->_Not:2
of_cent
JJ_->_unchanged:2
VB_->_yield:2
VBD_->_climbed:2
earlier_billion
rose_<-_<nsubj>_<nmod:to>_<nmod:from>:2
earlier_rise
CD_->_1/8:2
million_<-_<compound>_<compound>:12
ago_from
much_say
VBD_->_fell:12
$_<-_<case>_<nummod>_<cc>_<conj:or>_<case>_<nummod>_<cc>_<conj:or>:1
DT_->_some:12
VBD_->_climbed:1
first2_now
VBN_->_eliminated:2
rise_billion
yen_to
state_$
CD_->_21.5:2
earn_from
RB_->_up:12
CD_->_nine:12
VBN_->_priced:12
loss_or
million_period
$_earn
income_rise
IN_->_If:12
third-quarter_revenue
compare_sale
months_<-_<case>_<det>_<nummod>:2
third-quarter_billion
$_year-earlier
NP_->_NP_,_CC_NP:12
revenue_share
quarter_cent
compare_rise
NN_->_Revenue:12
quarter_or
VP_->_VBD_ADVP_,_S:1
$_<-_<case>_<nummod>:12
VBD_->_plunged:1
NNS_->_investors:12
president_<-_<nmod:of>:1
from_earlier
vice_be
billion_from
Computer_to
SINV_->_S_,_''_VP_NP:1
WDT_->_which:12
about_%
yen_yen
NP_->_DT_``_NN_'':2
VBD_->_announced:1
$_loss
million_loss
net_of
1986_<-_<case>:1
a_net
cent_be
%_<-_<nummod>_<nmod:of>:1
NP_->_$_CD:12
$_%
net_a
net_,
$_from
net_$
NN_->_vice:1
million_%
million_from
cent_a
share_million
earlier_from
cent_the
million_for
net_to
year_<-_<det>_<advmod>:1
%_'s
third-quarter_to
NNS_->_cents:1
NP_->_$_CD:1
share_<-_<det>:1
first12_they_they
for_cent
$_share
VBD_->_jumped:1
share_or
a_period
year_revenue
or_or
cent_,
million_billion
million_year
billion_%
%_billion
month_%
income_<-_<amod>:2
VBD_->_gained:1
JJ_->_Other:2
cent_cent
first2_other
VP_->_VBD_NP_PP_PP:12
billion_<-_<compound>_<compound>:1
%_from
or_share
NNS_->_yen:1
rise_from
ADVP_->_RB_NP_PP:1
NNS_->_cents:12
from_net
earlier_sale
CC_->_or:12
VBZ_->_needs:1
$_sale
net_the
VBN_->_priced:1
NN_->_net:1
fall_from
$_net
cent_share
to_revenue
profit_rise
,_request
NNS_->_yen:12
%_<-_<nummod>:12
NP_->_NP_,_NP:12
QP_->_CD_CD:12
million_net
NP_->_QP_NNS:12
NN_->_sale:12
loss_%
VB_->_comment:1
VP_->_VBD_PP_PP:12
third-quarter_from
index_<-_<det>:1
revenue_have
revenue_on
revenue_or
third-quarter_%
quarter_billion
to_per-share
third_billion
WP_->_what:12
a_earn
DT_->_that:12
NNS_->_months:12
NP_->_NP_,_CC_NP_,_ADVP:2
NP_->_DT_CD_NNS:12
income_or
VBD_->_earned:1
last1_period
yen_<-_<case>_<nummod>_<case>_<nummod>:2
up_<-_<nmod:npmod>:1
NN_->_request:2
earlier_<-_<nmod:npmod>:1
cent_$
NNS_->_personnel:1
cent_from
cents_<-_<nummod>_<dep>:1
NNS_->_Sales:2
$_rise
JJ_->_net:1
CC_->_&:12
cent_million
first2_sale
from_sale
income_to
cent_to
VBP_->_do:12
PRP_->_you:12
$_revenue
NNS_->_shares:12
a_year-earlier
rise_sale
cent_%
million_cent
million_revenue
NP_->_NP_,_CC_NP_,:12
JJ_->_year-earlier:2
$_cent
income_million
%_sale
rose_<-_<nsubj>_<dobj>_<nmod:to>_<nmod:from>:1
share_revenue
third_$
cent_of
NN_->_quarter:12
fall_$
$_<-_<case>_<nummod>_<cc>_<conj:or>:1
quarter_<-_<case>_<det>_<amod>:1
$_<-_<case>_<nummod>_<case>_<nummod>:1
compare_$
JJ_->_year-earlier:1
$_not
net_from
million_sale
share_<-_<det>_<det>:1
VP_->_VBP_RB_NP:2
VBZ_->_does:12
first1_net
million_last
cent_or
net_share
from_revenue
nine_to
income_%
quarter_%
CD_->_nine:1
last12_million_million
year-earlier_$
year-earlier_%
quarter_share
months_<-_<case>_<det>_<nummod>:1
or_sale
share_billion
quarter_from
%_revenue
or_billion
year-earlier_from
for_revenue
or_cent
$_<-_<case>_<nummod>_<cc>_<conj:or>_<case>_<nummod>_<cc>_<conj:or>:2
third_%
VBN_->_eliminated:1
earn_$
the_year-earlier
million_year-earlier
30_million
Warsaw_<-_<case>:1
net_loss
income_$
ago_%
net_million
rose_<-_<nsubj>_<dobj>_<nmod:to>_<nmod:from>:2
up_<-_<nmod:from>:1
cent_revenue
gained_<-_<nsubj>_<dobj>_<nmod:to>:1
QP_->_CD_TO_CD:12
JJ_->_Net:2
VBD_->_rose:12
NNP_->_Friday:12
NN_->_loss:12
quarter_<-_<case>_<det>_<amod>:12
net_on
declined_<-_<nsubj>_<xcomp>:2
loss_<-_<det>_<amod>_<nmod:of>_<nmod:of>:1
net_%
net_sale
net_rise
profit_<-_<amod>:1
nine_or
cent_sale
first12_for_revenue
$_<-_<case>_<nummod>_<cc>_<conj:or>_<case>_<nummod>_<cc>_<conj:or>_<nmod:tmod>:1
income_from
month_fall
income_billion
$_period
revenue_revenue
net_net
net_or
NN_->_Revenue:1
a_comment
net_up
income_revenue
nine_from
nine_billion
period_$
nine_$
nine_%
cents_<-_<nummod>_<dep>_<nummod>_<dep>:1
first31_for_the_nine
last12_earlier_billion
cent_billion
net_cent
$_<-_<case>_<nummod>_<cc>_<conj:or>:2
billion_net
VB_->_get:12
he_later
NN_->_request:1
later_<-_<nmod:npmod>:2
share_<-_<det>:12
later_<-_<nmod:npmod>:1
old_<-_<nmod:npmod>:1
from_yen
VBD_->_did:12
yen_from
billion_<-_<compound>_<compound>:12
point_would
nine_of
loss_<-_<det>_<nmod:of>_<nmod:of>:1
compare_billion
$_<-_<case>_<nummod>_<cc>_<conj:or>_<case>_<nummod>:1
index_at
loss_share
period_from
CD_->_1?3/8:1
;_on
NNP_->_Corp.:12
bond_<-_<det>_<amod>_<amod>:1
million_rise
ADJP_->_JJ_S:12
share_issue
NNS_->_Sales:1
declined_<-_<nsubj>_<xcomp>:1
profit_billion
period_%
net_revenue
compared_<-_<mwe>:12
last12_share_share
first31_the_benchmark_30-year
VBN_->_compared:12
yen_billion
VBD_->_gained:12
earn_to
Virginia_$
CD_->_1/8:1
VBZ_->_says:12
billion_yen
%_<-_<nummod>_<nummod>:12
S_->_S_NP_VP:1
said_<-_<nsubj>_<ccomp>:12
VB_->_yield:12
cents_<-_<nummod>_<dep>:12
earlier_revenue
or_revenue
PP_->_IN_NP_NP:12
cent_rise
CD_->_1?1/4:1
index_<-_<det>:2
said_<-_<ccomp>_<nsubj>:1
revenue_<-_<case>_<nmod:of>:1
loss_rise
$_<-_<case>_<nummod>_<case>_<nummod>:12
VB_->_comment:2
RBR_->_earlier:12
last12_share_billion
month_revenue
VBD_->_reported:12
nine_revenue
net_billion
nine_rise
ADVP_->_RB_NP:12
period_billion
JJ_->_Net:1
NP_->_DT_NN_RBR:12
first12_for_sale
owns_<-_<nsubj>_<dobj>:1
last12_earlier_million
NP_->_NP_,_CC_NP_,_ADVP:1
fell_<-_<nsubj>_<dobj>_<nmod:to>_<nmod:from>:2
month_rise
nine_share
they_Corp.
looking_<-_<nsubj>_<aux>_<nmod:for>:2
first1_analyst
too_''
NNP_->_Computer:2
some_&
analysts_<-_<det>:1
some_New
some_York
first32_a_year_earlier
CD_->_30:12
first12_he_when
designed_<-_<xcomp>:2
PRP_->_we:12
VB_->_assist:1
-LRB-_->_-LCB-:12
-RRB-_->_-RCB-:12
Pioneer_to
JJ_->_abundant:1
NNP_->_Pioneer:1
third_<-_<det>:2
NN_->_guide:1
VBD_->_withdrew:1
NN_->_north:1
possible_<-_<advmod>:2
%_<-_<nummod>_<nmod:of>:12
profit_<-_<nmod:of>_<nmod:of>:1
argue_<-_<nsubj>_<ccomp>:1
's_request
say_<-_<nsubj>_<aux>_<neg>_<ccomp>:2
looking_<-_<nsubj>_<aux>_<nmod:for>:1
IMF_they
JJ_->_unchanged:12
NN_->_request:12
1/8_to
did_<-_<nsubj>_<xcomp>:2
did_<-_<nsubj>_<xcomp>:1
request_million
request_$
request_request
unchanged_<-_<nsubj>_<cop>_<nmod:at>:2
were_<-_<nsubj>_<advmod>:2
were_<-_<nsubj>_<advmod>:1
CD_->_1/8:12
10,000_<-_<dep>:1
TO_->_To:12
NP_->_NP_,_CC_NP_,_ADVP:12
maximum_<-_<det>_<nmod:of>:2
maximum_<-_<det>_<nmod:of>:1
costing_<-_<dep>_<dobj>:2
costing_<-_<dep>_<dobj>:1
first12_the_revenue
rose_<-_<nsubj>_<dobj>_<nmod:to>_<nmod:from>:12
yen_<-_<case>_<nummod>_<case>_<nummod>:12
JJ_->_Per-share:2
VBN_->_donated:2
VBN_->_donated:1
VBD_->_increased:12
year-earlier_revenue
line_<-_<nmod:poss>:2
containing_<-_<dobj>:1
JJ_->_abundant:2
CD_->_1986:12
yen_<-_<case>_<nummod>_<case>_<nummod>_<case>_<nummod>:1
pretax_from
1986_<-_<case>:12
first32_per-share_net_rise
yen_net
$_slip
income_<-_<compound>:2
NNP_->_Byrd:12
yen_income
men_<-_<det>_<case>:2
VB_->_comment:12
MD_->_ca:12
months_<-_<case>_<det>_<nummod>_<appos>:1
VBN_->_donated:12
said_<-_<ccomp>_<nsubj>:12
said_<-_<ccomp>_<ccomp>_<nsubj>:1
center_<-_<case>_<det>_<amod>_<amod>:2
NNS_->_Sales:12
VBG_->_Operating:1
million_<-_<case>_<compound>:12
volume_<-_<amod>:2
NP_->_NN_NN_NN_NNS:1
NP_->_NN_NN_NN_NNS:2
first32_revenue_rise_to
fell_<-_<nsubj>_<dobj>_<nmod:to>_<nmod:from>:1
CD_->_22:12
VBN_->_eliminated:12
10,000_<-_<dep>:2
loan_as
earth_<-_<case>:2
says_<-_<ccomp>_<ccomp>_<nsubj>:2
too_say
some_Corp.
analyst_''
president_<-_<nmod:of>:2
president_<-_<cc>_<conj:and>:2
and_vice
VP_->_VBZ:12
._,
be_vice
VBD_->_jumped:2
VP_->_VBP_RB_NP:1
NN_->_chief:2
they_Co.
VBD_->_plunged:2
CD_->_1?1/4:2
analysts_<-_<det>:2
cents_<-_<nummod>_<dep>_<nummod>_<dep>:2
earnings_revenue
gained_<-_<nsubj>_<dobj>_<nmod:to>:2
VP_->_VB_ADJP:12
VP_->_VBG_S:12
NNS_->_personnel:2
but_want
first2_maybe
CD_->_5/8:2
,_personnel
as_&
name_president
NNP_->_Vice:2
VBD_->_advanced:1
they_&
VP_->_VBP_ADJP:12
first32_the_Ministry_of
yen_%
NNP_->_Ehrlich:1
some_president
who_chief
jumped_<-_<nsubj>_<dobj>_<nmod:to>_<nmod:from>:2
jumped_<-_<nsubj>_<dobj>_<nmod:to>_<nmod:from>:1
million_<-_<case>_<compound>:2
CD_->_15:12
rate_<-_<det>_<compound>:2
yen_<-_<case>_<nummod>_<case>_<nummod>:1
wake_<-_<case>_<det>_<nmod:of>:1
first31_the_Treasury_'s
VBD_->_jumped:12
NN_->_guide:2
NN_->_offering:12
CD_->_five:12
DT_->_these:12
he_federal
VBN_->_named:2
president_president
NN_->_president:12
VB_->_sell:12
VP_->_VBZ_RB_VP:12
VP_->_MD_RB_VP:12
says_<-_<ccomp>_<nsubj>:1
VP_->_VBP_RB_VP:12
construction_for
year-earlier_to
VBP_->_'re:12
profit_<-_<amod>:2
state_million
last12_yen_yen
of_IMF
West_million
NNP_->_Appropriations:1
Appropriations_of
West_$
billion_rise
increased_<-_<nsubj>_<dobj>_<nmod:to>_<nmod:from>:2
income_sale
Warsaw_<-_<case>:2
vice_president
NN_->_vice:12
he_respond
name_vice
first32_he_have_be
VBD_->_withdrew:2
CD_->_5/8:1
NN_->_officer:12
IN_->_atop:1
NNP_->_Vice:1
grounds_<-_<case>_<amod>:1
pretax_to
containing_<-_<dobj>:2
year-earlier_billion
income_<-_<compound>:1
owns_<-_<nsubj>_<dobj>:2
VBG_->_Operating:2
targets_<-_<amod>:2
NNP_->_Byrd:2
NNP_->_Appropriations:2
VP_->_VBP_S:12
NN_->_aluminum:2
Byrd_of
NNP_->_Inc.:12
VBN_->_named:12
$_request
funds_<-_<amod>_<amod>:1
receive_<-_<nsubj>_<aux>_<dobj>:2
says_<-_<ccomp>_<nsubj>:12
million_<-_<case>_<compound>:1
military_request
21.5_million
%_yen
21.5_of
yen_rise
SINV_->_S_,_''_VP_NP:12
CD_->_21.5:1
trade_<-_<det>_<amod>:2
earn_rise
NNP_->_Byrd:1
million_request
CD_->_1?1/4:12
and_Ministry
net_<-_<amod>:1
up_<-_<nmod:from>:12
year_<-_<det>_<advmod>:12
share_<-_<det>_<det>:12
Wald_<-_<compound>:12
Wald_<-_<compound>:2
$_<-_<case>_<nummod>_<cc>_<conj:or>_<case>_<nummod>_<cc>_<conj:or>_<nmod:tmod>:2
VBG_->_trying:12
end_<-_<mark>_<nsubj>_<aux>_<nmod:by>:2
still_New
fund_record
year_<-_<advmod>_<det>_<appos>:2
NNP_->_Wald:2
trader_head
bond_<-_<det>_<amod>_<amod>:2
NNP_->_Carson:2
life_<-_<nmod:on>:2
NNP_->_Wald:12
race_<-_<det>_<amod>:2
wake_<-_<case>_<det>_<nmod:of>:2
said_<-_<ccomp>_<ccomp>_<nsubj>:2
CC_->_But:2
government_at
S_->_S_NP_VP:2
analyst_&
president_<-_<cc>_<conj:and>:1
first2_consider
authority_<-_<det>_<amod>_<compound>:2
Wald_<-_<compound>:1
advanced_<-_<nsubj>_<dobj>_<nmod:to>:2
:_->_;:12
NNP_->_Wald:1
RB_->_later:12
funds_<-_<amod>_<amod>:2
the_65
Opponents_<-_<nmod:of>:2
NNS_->_Opponents:2
jumped_<-_<nsubj>_<dobj>_<nmod:to>_<nmod:from>:12
CC_->_But:12
NNP_->_Pioneer:12
income_<-_<amod>:12
JJ_->_ineffective:2
NP_->_NN_CC_NN_VBG_NN:2
rate_<-_<det>_<compound>:1
designed_<-_<xcomp>:1
IN_->_atop:2
S_->_CC_NP_VP:12
VBZ_->_needs:12
VBP_->_need:12
NN_->_volatility:12
NNP_->_Pioneer:2
argue_<-_<nsubj>_<ccomp>:2
VBG_->_going:12
PRP$_->_your:12
NP_->_NN_NNS_NN:1
VBZ_->_needs:2
second_last
NN_->_famine:2
receive_<-_<nsubj>_<aux>_<dobj>:1
work_<-_<nsubj>_<nmod:in>:1
work_<-_<nsubj>_<nmod:in>:2
NN_->_north:2
NP_->_NN_CC_NN_VBG_NN:1
VBD_->_plunged:12
confirm_<-_<mark>_<dobj>:1
VP_->_VBD_ADVP_,_S:2
confirm_<-_<mark>_<dobj>:2
center_will
old_<-_<nmod:npmod>:2
tell_she
NNP_->_Carson:1
last1_comparable
vary_<-_<nsubj>_<advmod>_<nmod:by>:2
indications_<-_<det>_<compound>:1
first31_these_rate_indication
directly_by
last12_comparable_location
going_<-_<nsubj>_<aux>_<xcomp>:12
CC_->_And:2
comparable_<-_<nsubj>_<cop>_<neg>_<advmod>:1
last2_location
practices_<-_<amod>:2
first32_lend_practice_vary
location_<-_<case>:2
NNS_->_surpluses:1
first12_these_lend
possible_<-_<advmod>:1
IMF_,
managers_<-_<nmod:poss>:1
IMF_IMF
trade_<-_<det>_<amod>:1
increase_IMF
men_<-_<det>_<case>:1
JJ_->_ineffective:1
NNS_->_surpluses:2
grounds_<-_<case>_<amod>:2
NN_->_famine:1
NNS_->_personnel:12
Opponents_<-_<nmod:of>:1
Appropriations_request
Appropriations_$
VB_->_assist:2
end_<-_<mark>_<nsubj>_<aux>_<nmod:by>:1
managers_<-_<nmod:poss>:2
advanced_<-_<nsubj>_<dobj>_<nmod:to>:1
authority_<-_<det>_<amod>_<compound>:1
earth_<-_<case>:1
state_request
VP_->_VBZ_RB_NP:12
line_<-_<nmod:poss>:1
year_<-_<advmod>_<det>_<appos>:1
NNP_->_Appropriations:12
targets_<-_<amod>:1
NP_->_NN_NNS_NN:2
unchanged_<-_<nsubj>_<cop>_<nmod:at>:1
Appropriations_million
life_<-_<nmod:on>:1
center_<-_<case>_<det>_<amod>_<amod>:1
third_<-_<det>:1
DT_->_Some:12
did_<-_<nsubj>_<xcomp>:12
race_<-_<det>_<amod>:1
NNP_->_Ehrlich:2
NN_->_aluminum:1
glass_will
battery_be
first1_opponent
NNS_->_Opponents:1
NNP_->_Ehrlich:12
say_<-_<nsubj>_<aux>_<neg>_<ccomp>:1
NN_->_aluminum:12
21.30111327346124
15.45130138415159
77.58201267711544
65.71707971288912
14.737256017859982
8.710998900280142
72.99763422134981
14.491485633294038
90.56381583973685
63.96715268322369
10.46145364531269
64.76499674201254
26.969712237459042
20.02101554043368
13.956358122319587
81.07620210914345
19.344088128373617
11.985420944535665
5.627365793539973
14.796643164559892
1.7305996806094812
3.9227554874851656
29.40192105844703
6.986724732758384
17.97370914746277
14.24675006289083
8.872256959581044
13.322164642512446
0.5532687667150038
33.941420552809696
9.36659239883475
58.58726111676207
49.57307128425282
23.76071467465948
32.20515063152607
67.2030927190296
5.510972330857098
-5.33825236352258
20.424673596654237
20.813600181695225
6.370940540585987
-8.372799678877861
9.56640203413054
6.972971142177062
11.351571815527635
44.726152295468175
-0.7405358093833644
76.42794882694889
57.745014035947854
-14.378118933375859
17.8962599025446
41.226122610919944
-2.4899659663951104
2.9037535907969185
13.487783166272733
33.39121502157543
36.98957634702874
31.535248108138408
15.006109851630942
40.654552255662104
-2.2787419247987124
100.39162169448302
14.820517198873572
25.66762999921441
72.07277394960519
27.910453541054743
2.773802466950083
22.60365797651276
5.154053062271288
17.454679416775278
-21.45605560104754
20.26683769051004
4.502864002907844
15.115248357603198
-3.6562686613122826
34.0321664385527
-17.917920423620327
19.980044614027616
9.520120488110498
1.0227002696800715
24.943196430583782
15.616131424813492
31.896061582253846
12.674631903018431
32.04754975214125
6.784841322821396
-2.772009973907521
-20.640865609080745
12.482524949933074
-8.064551727821511
15.934870926541144
7.535466078710642
4.508768035905794
-24.856135934481657
17.640033159339634
27.347085876573747
11.501726300169484
9.94680319806388
-63.298471933699744
23.80005231205403
7.606280783066472
-15.064199167947768
0.43837633719470404
-5.116475075756031
6.886665444846479
32.89254139698694
-85.82207403954263
16.362373835558557
21.91623223451176
16.092065221812845
-6.246216535710124
-15.057742929922934
-11.66844991655394
28.647031587740575
-33.948730198359236
77.83195455644986
-40.50339478136045
-11.603307702705148
-7.420418399607034
38.088366957564084
-26.078051905895624
47.74100889849
-39.9966410331037
-4.632772832831662
-49.13182631037619
-57.508522620108074
2.7603663686394433
-8.587668670407066
30.23710023355673
-23.043241811039685
5.804808487332454
26.88170600376416
0.8789406662206485
-38.143006965084204
14.40298846078788
60.17373299619094
-41.18667547844137
-50.73948693279131
-117.87276572157602
-60.7785837801645
1.162009606147194
10.626689871746596
6.11792517610702
-6.756464809700763
6.683173010021107
59.06788888112624
-57.91860629012629
-21.538637037833805
-36.97287086897152
-24.165880420703427
-36.41660485562764
77.28144442083301
-36.757845525888136
-2.76896034764005
-19.685200983238758
4.463341154142427
21.878951120910905
47.20173371261735
-27.48703661551478
6.517104707355009
-8.676793981970947
-1.1127582544298624
-0.8647518735863785
57.47750595079521
-6.931008728506585
-38.31959193572435
29.251409904675565
13.743053113823251
-29.93717117731683
17.764865868583858
-28.557499390688914
30.238587823866695
-13.700737679737866
-2.264039830275992
42.588587892300964
4.940139347488039
-3.9124089716797426
-40.63740841911252
7.32758979085141
-12.918804165357109
4.861511557124344
39.52810700124054
8.040931861685324
-10.16642939555509
-33.48365073619004
-19.76004764503558
18.547105391333467
-0.4308057658408839
-66.06983845187129
-4.483597628015092
24.14224356432734
4.499625897057794
-27.110302878604216
-13.435012586158626
16.88902167097993
-40.37102365467449
22.758076632033696
-16.240864940996
-0.9959115096284248
14.20348201048148
-5.948704055966656
-1.0799391819022564
-39.1448304818797
26.578989850848345
13.95159910143464
-21.641856061214614
59.904720403800674
-6.382428013245337
16.924064894329927
-7.128212362780186
-43.449474852793294
-11.927829166010655
-44.896461816798755
56.81712657882363
-29.86350593705519
29.617180956941315
-4.8346233563688195
-63.61890850531058
8.017913575086911
4.918313689842308
-29.684539931191125
21.700274067762102
-6.052932528130337
-7.204649463714835
-37.980933177302255
44.12981091047801
-25.961504390781798
29.23652955034768
7.586090773778555
13.191313046785115
-22.13563617190402
-65.6246055756251
-5.595949858447462
-11.853752146216058
44.92986608251176
-29.458895336070693
-1.53199891998894
-14.878990453520865
-7.859046608079312
28.886325056783626
-24.63894498285813
59.685111207901386
-49.46597534742393
12.139202639424104
-8.351288747316168
3.3892455543024482
-0.964507975733997
-15.832631892631522
26.68766507232261
-30.636228952041947
4.793304638919295
-34.48270562258422
-20.537165987683714
-15.400274659263411
-20.814271008734018
62.28814018090023
-43.58562502496325
4.351918389520746
-6.2088421689452336
-27.159612255574014
13.742676837648295
-21.165926101227114
67.7261838425085
-8.321969226621876
19.144893234210375
-28.95252349002914
-28.688484268703547
37.28760063957593
-12.324998709048021
9.23043762998478
-24.758400219025262
3.29038085603359
-17.46902673904454
-10.160374283670341
15.999099705836368
-87.09601804286561
62.67398514979274
-8.351976622206058
0.9531817471295274
-33.13656396094466
40.45320983398211
-36.11093422322171
0.23795923809019226
2.709227021863622
-21.563945604975153
-3.0955246141784634
-14.893958844957126
-40.841042162906795
34.173724040524384
-5.653093212935294
53.24866860917322
-43.66409810470245
-27.74238228762099
30.09644261702015
-3.8682529456323556
-20.480332217653395
-5.320421022351473
13.326430420715925
7.40942696304839
-10.096636265746584
7.303141127885432
-13.122043294482923
-2.1098765770566543
-36.220207001515035
15.835270584453381
25.369445860529233
-23.421840373693065
-1.3624830624114495
14.147579345280331
-51.298652906697335
-17.628536993588188
17.54659841184537
-7.320556817525505
22.44266295140176
21.207857249634625
-18.641279151028197
-3.2745289019868062
-25.35434805249434
-8.28676898955175
31.990359091313888
16.089611057309774
26.646637032401884
13.776907940881784
10.261980826730575
15.448830968521078
-34.26014589580726
-3.7337855365412813
-8.618595581098234
-41.06234988866958
-5.500857296231057
20.58837607287206
9.940226593673428
8.562336357071572
-7.350063885332018
-6.534541342907479
6.66293996666551
-8.029656341553002
-27.19037313991774
-15.646289084503485
13.3219963844465
-10.814102118527195
-57.869960706112465
8.710644584626591
-9.055725505511898
-5.85943690819945
4.969049920929862
31.63007483753805
20.28200851515904
-0.669525719668103
-27.6195882550448
-39.61693198165647
45.2296778511021
-64.29935149024055
-19.612636504931867
31.669440392116023
-8.222713890069874
-14.977692666705428
-29.6655496183281
-30.46538252557074
51.13226127352409
-67.43290710039821
5.871331954152114
60.10701610522604
2.303120637470394
-10.377491323236754
-10.219586197262592
-15.647635243949464
44.34991089458687
-15.47071470789285
47.900015881527544
53.09896521617376
-27.033793394283688
22.11752125249251
1.0949536607777708
-22.125493176496477
-10.954347928662797
-15.442311368235675
-10.848192298562237
28.029642299867042
17.960882388213715
-5.112004262770965
-8.303743382923134
-14.850939118106494
7.037937140716222
-26.10197057746888
11.659059087703234
-21.659002740747848
-19.536505102469075
-31.04810755086407
32.118154616201146
-65.13201254964795
2.610202780430591
-59.72590054486794
19.9754565594234
49.61923662513621
-13.50357021830402
-26.751892918056292
-15.783362627816249
5.168076199744641
-34.09299584480867
23.1322697084721
4.535597579156532
-34.12790926877465
-10.374951474866231
-5.359115622474326
-12.557861989784612
22.46239636052718
8.925487105995371
-0.16937119496423114
-22.697496244975046
-8.66281475367543
36.02068339478585
37.01092167391763
-11.255900268258339
-17.813813010557695
-10.819339159514572
12.419753552446934
-11.759159847873073
23.350560740992226
-19.113165200214063
-70.72412657936727
-59.10642792103679
-9.63820831205855
-26.191031886930595
-9.291426773292327
-3.705994051790805
-45.99411165017177
26.72724440783583
-23.79715527262183
13.935621547600656
5.645920329447808
-7.692756403064316
-1.7389909448666634
18.889365100178097
4.342271848402431
-34.849497523022535
-0.4170166694746196
-14.93830005508299
-33.18503631022111
2.4701873190238985
8.980439942296229
-5.92256958068214
5.333065822438482
2.353265501449715
-22.276787550285903
6.351465925069201
12.200767007604671
4.2267838075785376
-6.64350317510716
8.15741195620348
14.422885083994366
-0.8506812657996243
-5.241197351267106
-1.018832370555205
-23.23608465668704
-10.522809707635083
-31.545466964035334
-12.710055997208341
6.88470867525064
-25.778765236448496
-10.945783023845934
6.866424316398627
-24.217987076973476
17.288639537921476
-52.21807586732367
-14.95268770488711
-47.24063490964602
-14.525650130472588
-22.516687390954697
-16.303975498167862
4.469362386197949
-34.925978290551974
23.132980730292687
3.717015274563841
-35.57016784236561
-12.190054851223021
-18.934560899506515
-5.841425286635591
-30.1592627888579
2.8432304366985637
-9.61823886542667
6.903145453902612
45.043946847407035
17.690480940287678
47.729320088927764
17.68932532688049
14.898045924441744
-26.4694001824205
-5.780002919320713
-8.99761134670635
-30.25014444062252
7.162019268992898
26.847779681787483
15.25535190140537
3.5296927568846153
4.504190208151105
-9.060305785440292
-9.568511391552232
-8.861467930799023
4.8875610704797365
0.7066306067194901
-11.820748335115434
-43.44715220714359
0.8766143465105136
0.9132734052128391
6.857112306704149
-13.01045522795864
-5.386515064200854
-8.351119424858386
-19.50424590356809
-6.799851659436812
0.8691822267400701
-8.547337047783504
1.9286045838272852
-10.672896919039342
-5.662225948666574
-20.491019718588284
-6.874569181966048
31.618957520661755
7.969141435497673
1.367624166168522
10.199179188182502
15.08264337801851
3.6314753782346534
0.29949688639180216
-1.3261477996409958
4.096820930268505
2.545128283287262
12.139103685567369
0.6179294197606229
4.769004988943914
-4.4276350521108405
-11.78143093189999
9.418330275250044
1.923623243342199
2.5937219269479153
0.5732649527167517
6.455042872776288
-5.397583636350538
-10.65054974650426
7.212035976250474
-9.656029156835842
-21.01803695420551
2.636606046693954
1.1161302702636258
7.320389478413797
-0.1757869221471331
3.990267202457174
-11.188309716442841
-7.5046215276622945
-28.24217281129722
-16.345216355111997
-3.6278681372216517
-26.243104589138483
5.973314816966996
11.755861877808723
-32.00853005411929
-20.210300833387414
-20.722223264341842
9.12451996552359
2.2373567661434284
-18.879307388231904
-49.6694612646135
-1.3182857901908442
8.762584792007676
0.20029857044945265
-26.46197530083001
-2.885282120306474
-60.25955042440175
7.18414126834764
-13.89007753342232
24.398284096126
17.876882657568146
-12.670291146553003
4.451203817242226
0.712372079616669
5.936326817791429
-2.1149917692686193
-23.1817467370314
14.185818797455779
-46.06413496948146
-26.453944736953463
-5.559605819985945
-20.72691099621101
-32.85447745832636
-16.39708669513373
-10.756638956552706
0.7381492142946122
-10.662904259537205
23.35620071006104
-7.775389556023004
-28.509057694533197
-14.404029375325765
2.786671511216553
1.9794883497427667
-1.8967595103932506
-14.209989933240553
-0.45695057289732555
14.591108377171834
10.922464745190746
2.107680406893799
-42.487033048119876
-3.523934809096764
-8.837254080339576
6.605837276239366
8.42291318619138
-64.57164402174692
-7.874078029013148
16.362681263444532
3.377963040259406
-62.41147757248068
0.7236133255155143
-18.35132293098036
-4.253121480043865
10.589711342790018
11.576223093126089
-8.09359263351973
-16.400677838855227
14.801178029393984
-18.024051759028517
6.351005159442926
19.427116471839504
-13.641553389913236
-68.89858877470287
1.35056017272544
9.228638943396046
-31.355570760586087
-2.2517795263790568
14.593262851305942
4.022463514413396
-2.881575466953529
-12.744342022272278
-56.21355505072354
-18.557544563789996
5.466451934007063
1.9221113973833952
-13.852064980954637
-1.5598003062812826
-16.683959961751196
7.052927733086313
-35.33518301227935
15.74643369482563
-15.997259359609542
1.2720842351599095
29.388105338424957
-9.967685049175696
-9.200464753181283
4.256135219364193
5.855439788220638
-8.420641914292377
-8.300057394277347
-8.742498928490347
-51.706874465119284
-52.21123176834099
12.090898696718146
11.537501075800698
-0.32672778837119987
-14.718539798274783
1.8875785209782348
-19.06830454556946
-34.19811284374385
19.008041884784166
-7.255991505636469
-5.498492414806954
6.5861608145031925
7.100899733930766
-12.641723049702588
-3.218697534547089
-48.914583052110224
-2.1576674868863304
12.647668917936532
-20.03459814613646
-50.03247493563008
6.793009243482503
-0.9394424398399042
-5.067628272977224
12.712267774735498
4.740764900467375
-13.945946990245229
-1.6223405981350778
-13.148924961261917
17.049750806459304
-7.217547426854676
2.3116909369132723
4.368420490893218
17.349549797328113
-48.52358816735344
-9.810978442903743
-0.1727871244868009
-5.455573287687892
0.4885062606233692
-85.05352129235442
-70.42191745826469
-8.293688268252344
4.451343171999623
3.0741744190952716
-9.962638901752316
-1.6417012316196575
1.711303771892204
5.902126027125467
1.3876277694379446
-45.74595873229947
-20.005397364615078
-7.265122773798976
7.30096145045428
8.705042994618928
-31.45886171588397
-9.612569539797558
14.72898548490571
5.357627270245219
-14.734057505023886
5.924285039261514
-19.47254782237892
-10.402236621828317
9.837621611817426
-1.2808882240020103
4.821018707294844
5.912816831099632
11.12270491811241
-13.73757005799024
6.049456115787576
-10.723632129937876
4.584078761205818
-14.07495955722001
11.971751192591551
10.442210366858617
-48.535876168039515
-31.102908531548216
26.53711607742616
-59.89242286007859
33.7863586592203
-24.32447587363052
-25.881873374138728
9.551922367424984
-0.21908341651550334
8.638367500987286
-21.491232610384802
-0.9849801145953565
-42.75498827821242
2.0252892896570027
13.399342282223934
-6.988784765062405
-29.16436837304087
-24.839324964742765
-6.370504247458122
-4.819650672863209
-21.818818623543436
-3.889641714004372
27.302027543609633
4.406711672564743
22.198545108350988
11.067937876798066
-9.390290797116581
12.930720884643614
-1.1143968004349638
3.115363064442612
7.992531324071571
1.0446469132850735
1.5482528786828766
8.351025644077025
-19.035362414152832
-17.345265572553284
-3.8794488980651063
-52.2441086197001
8.970238393509215
0.7354291758725715
-28.581250940183036
7.437024496441735
0.5670129303307196
1.542329123134631
2.6118249821135073
6.0889426909353634
-39.07446272307689
-6.281938673076131
3.977474876293959
15.966610560374779
-41.90056405062647
-4.567237221095541
9.83080373516824
-22.828482054615222
-30.912468343266685
33.663127570228035
-3.75804222675015
0.21916726564484362
-14.94437454337534
-6.112561789257428
-7.305287377705282
9.297471771403833
-27.6693795464827
17.976775680107018
-25.687149838090768
-76.69194848208652
-36.58016637486819
-7.6658954337592125
8.614720527969501
8.257011949742042
-38.650599168119555
-8.821602028060088
-19.95881307578132
0.28746905554816315
2.4160663244049143
-22.662105716563353
-68.98506646286806
-0.0021509185212833515
-5.846338738452704
3.78304878154695
11.52982204278286
4.112824966404986
0.7546140935512877
-10.650154213892371
-22.69614901169814
20.627791548609437
-32.61152779484132
1.1493648611920153
0.3920001861783362
4.644897081914987
-13.625662875407615
-13.385026007146628
-0.9491649595211391
5.226151176496042
11.58536016548495
-3.9616569071731838
-34.14937770877112
6.477348579316912
-14.18140057182876
12.745416188826278
-32.081356491325295
-7.783498502652008
17.36383642466439
-0.20131652114126464
36.50463997361325
-43.61029032968372
-22.8135315790185
18.08219346187645
-0.9331301637901102
-0.9614901650607783
-38.5604037460372
18.20810122234694
6.861162269931512
-12.474182304752368
0.8760753579396632
17.927234818240688
-22.507925954535285
-2.095451262025149
-0.3119650786385062
-3.3502598500822556
28.575522958784504
-6.495715413842953
0.617001278024963
-8.245514711239824
-8.197443051555851
-37.788698903528704
4.892232536339568
19.56712104129269
13.566001788235345
16.736584912633525
-43.00266461042661
-21.046004640047876
5.114485314495119
-40.79381562895439
-5.256599066175967
19.49092214563367
-59.51226832425119
-0.19263867586747985
-2.67395617667074
9.133129417348039
19.698827610565925
-10.839091881193834
-36.51184541380811
-24.49378615670692
15.094257881124282
-24.649127644043062
-14.325649077491308
38.579987987859056
-7.205683694514589
9.276515302438304
-17.963606867226122
0.9930724821968218
5.7295477539361315
3.2564380915144273
19.63846013247293
-21.368741358002893
-49.90945739636048
-10.570443753447488
-5.326256658629825
-9.554635915921137
13.146648377820574
0.22355866294792515
-5.098916333354308
7.284170628454239
-8.634303528104315
-22.225122902239896
5.761238982591171
-6.026353449608814
0.525058168059183
6.926928760668505
-4.825063304054599
0.8413604086266204
-1.9159727462589218
-8.17750330545764
-23.129513378288095
-53.31729112613525
9.964074189876277
19.165708253038975
8.448187554481525
18.33527719488375
-16.839721799157317
-38.88958338176904
-3.9442736240579173
-8.85961769102433
-15.04053573877362
-5.694442055801709
-10.456477388878064
0.35729100199848285
-5.724616154390214
3.9296000471081705
7.934021375312712
5.719737004758152
-32.70873239821755
-0.5012905245113544
-44.39913846849358
-11.971073751719475
-31.916900010312997
14.559079031506382
7.279775232623153
-0.2774391558011944
12.451248956168309
10.726142232402907
-8.00567379327959
-8.072247882691066
-1.914998199968521
-16.72000165315123
-4.626625293470968
-31.42370219899562
18.15962814418603
12.10353806541614
3.377716102680791
-57.47863420471417
-13.771062816837057
-118.20501689802273
22.277080183616327
5.047478269908812
44.36635896966976
10.316117706541243
7.783523483695339
3.3964911181815003
15.619925643728427
0.2328283251509613
-70.64093935871884
-13.629464970753844
-25.362189530197035
6.048681199163796
-34.11344754269029
16.867215894737164
3.918678140916033
-1.0949789240501464
9.315489697506719
-0.14527975764020296
4.122726347078967
-4.819588542715769
2.5416382582063823
3.7918228537946126
-5.423900709158439
10.820080700906804
10.839425695168412
4.124055959544491
-43.4086526133126
-2.209313862246901
-23.149219832815383
-14.913878721289015
-1.2441258262037684
-35.29456881172426
-4.110379367884988
7.169404356558162
7.988351136819073
6.766838335915755
-50.16046005937867
-3.547987391321187
-13.273559877359219
-0.4570375022436828
2.5822435065295366
-14.512730319526565
-30.78047740443947
7.630275077522898
-14.444797247522256
0.5698822573219742
1.9695931628133443
14.530372869513815
-33.26399042356976
12.081124891285832
-1.1318348664119797
-44.998945984020295
5.760945439079104
8.545547790424166
-13.171796368324761
6.764222229780801
4.781042232880641
2.3208208654015072
-37.42328479592115
-18.566888418298344
4.478057155784445
13.501938952059703
0.812245901418081
18.187644803932592
-3.349801163416017
2.1552304505364184
-4.895506342128673
6.009736100443612
5.368755076977719
-8.7581627596838
19.012733442076392
3.8593400109166014
10.472384851550894
1.7581115523104844
0.43027378171240027
6.610572374221228
-13.96020638517166
-6.307977806700652
-8.983872384403243
-14.83052714089502
0.1418417231840603
0.29162542237949307
-9.165349482726704
1.8296398176288915
-12.304523257077552
6.523291820040892
-4.136482809171164
11.355970285030919
-71.72474992469819
-3.6676716571713284
-15.064151124862068
25.815457282446737
5.082088168502028
-11.157912680175734
11.41191694308534
-20.807696378023188
22.908706573691642
-8.137808321536042
-5.7104166894334965
-2.5755018047188925
-5.5748782569640625
-31.633312300012886
-10.281678435830752
-9.970057625086799
5.408203346752529
9.625280700758411
-20.463693099692595
-1.192582219907568
0.20994449644838564
-8.387764170798206
17.968479257226093
15.460224811303565
-4.324742397650445
4.685884001261719
-4.820902616471997
24.034645263399312
-84.52410962351792
-39.80301874307192
-40.708067603431026
-20.355099751973505
43.29933954734428
-33.2729010897371
1.9491669254590094
8.436070613116335
-2.130895144442897
2.8944369191541766
-26.045682888133186
1.5830653039085445
-3.5993062017307755
13.970837831640134
-33.3421599610999
20.293160093541868
-13.995873011269344
-14.942080990888048
13.399584308242368
3.6139096952247036
-12.284386920750327
-36.04077462340995
24.101247560806986
-3.1163323151111193
21.908209712639714
-23.484463439551938
4.754243262072057
12.247916265527277
-2.534240582238966
4.9344905653279145
-28.1334639546441
2.1685931482755043
-4.4977571249352675
10.983615578349903
11.27197190898565
-42.917364562190656
-51.09831455278639
-6.95414385809978
-1.086350439452557
4.986907162020752
-10.093260924764262
8.668740231246728
-9.215594822917378
-3.508751511560567
-57.74137851662487
26.640715805423717
-21.545750719019658
21.473988768135353
-3.551955331943936
6.633597279000444
1.5928195096888924
-1.056983462774841
-22.26703797928203
-1.5607351631416155
-20.38680670102893
17.51792316449943
35.76213491769157
11.778534948961976
-15.756421690225586
2.2048844829060954
18.332176643219096
3.6712841312622833
4.026246682975039
0.45413469689424524
-6.054870869266056
-7.679087017913359
-30.09150911755891
2.890289039849543
8.29983498477809
8.245130933398485
-38.35151229579752
-4.787348666548222
-10.333575845321597
-6.735737047253004
3.666598623559755
-4.615703165025426
-4.723494359496856
-7.002901439050753
-8.150332172710916
1.5272092439810159
9.561734262613504
3.8166586755454626
28.412568625906502
-4.077545956701839
-23.015386665599326
-4.501095663727444
3.9770318963235867
-31.596953692765204
9.983784761511526
-3.710838007708391
8.61179442049546
15.926848215553235
-48.75019486791922
-5.168096358707861
1.5562189560690096
-53.99050144517058
7.850277908926937
-73.76765545969162
5.151590816415021
7.579558968710222
-0.0250830392294632
-4.465355538587211
-4.8460392278095465
-3.5525941352834502
-9.134020703531155
-32.58618444545227
15.128822591915641
-19.381039029797723
-11.282681046557745
2.087303932567752
-0.9662316280675334
-4.189030527090594
-22.16081560547129
14.021298270868884
19.60808738068059
-18.361206011418343
8.667143871054053
12.428537586204001
-17.07300903272688
2.10053321110753
11.275123931725592
4.25406580874127
-7.394415931563815
-1.8579311923586284
-26.223248497642523
-0.23985178683816955
17.87512275440411
24.771691373749746
-20.645002561179336
-11.695525693439834
20.181155514580972
-7.222162740953834
-4.737459341883022
4.63301928035904
12.86611084730983
-16.95318742754352
-27.40094529814355
2.5255882872073743
-8.556589375477705
23.85400175179589
-22.34480349064791
-11.961073966065081
-28.86207736377668
-26.406840402423473
15.072770315394504
-6.855951028142985
13.611934041220769
-60.128327953779326
0.8699862899823709
0.9188874354659209
-4.00683664211488
13.325403960336992
0.8083189344584598
-4.14048802769595
-2.1295425417460656
-16.59401292267028
-30.12647215645948
-22.298606715807413
-0.13558458326007816
-1.538119059149019
2.4807349584000216
8.83237654456346
0.41786456184713483
-3.2524646101960677
15.525571867319018
-9.872817990469352
-7.435891747658767
-20.470963915128973
8.373171670188492
7.964390393662666
2.421505818965553
-14.172960604368926
6.041872731623993
-17.145479948813755
15.695895904087859
7.470494508934035
42.119973047999075
-20.386088779781666
-2.000863071679117
-11.417301906490433
12.597039013060316
17.55863174050164
-14.166150084754934
-0.9698097314182879
-0.9334200854758401
-7.809955363454065
-53.45746804017468
-19.37395428027554
-5.574953714783671
4.5546208703956035
14.79523710402759
4.732779718736614
4.79484003099107
-7.068353649967458
-48.64752099303757
24.684315946636467
29.347861019313516
-26.897092468128577
0.3525517073126303
7.079065801627613
-28.360562925318344
7.663303131954524
-7.818289926690147
-14.9730990813342
16.845818000971573
-12.612085722922917
9.736337482393816
4.6331992455380115
8.554672902134485
5.9745213468324305
7.9176751516150645
-1.5724830406996375
-9.300377322704374
-16.04164369923077
4.465239182710569
-39.58412037223863
-50.287211472461635
-1.3891895773783625
-2.958390816471561
5.06285480378585
-9.859895869161264
10.74931867225828
10.064383828765594
-9.527742557609447
-6.9295962121462225
11.482566353249505
-28.734171434681972
-42.87097341146346
4.853685428449035
1.0146924842285738
-12.387251898789284
3.5853471221402944
-29.05755993568319
-1.0952095414667795
42.83201455711337
7.84112263832613
21.25616188555035
-28.69742740920266
0.2702487204913986
1.0589091915090547
-2.5524748677264153
7.242295689553858
3.3404721721264137
-3.5119719963163
-7.252997334256923
23.795953989103058
9.216962744741561
0.8264484323880259
-7.5753878222528135
8.99020565446018
0.37570869184030364
5.46898787076005
-54.839643927112036
8.54600884096228
-19.203214276890623
-23.465392854544007
-4.511039394222601
-31.69642240144744
-35.111625846974015
4.303775736232083
5.926473934362722
16.94951041166354
0.6322359633080965
-23.956947892633135
-11.089831576511672
23.534171453358923
10.031246959215396
-8.458269330143755
-2.8147341140482545
22.32058878776386
-3.059168220601679
6.000195199986392
-7.806675065131543
9.861988282424232
-32.14360924674742
6.487965354120292
1.1558530906142095
-23.798994803616623
-35.277211240341
-37.12692276795657
-48.159523437618816
1.8314328378892917
3.1601085205030817
-2.34441954242699
2.6285416273991995
-11.90270887068356
8.819987533839864
-23.686733365346853
-18.430767178259593
-17.628753112942462
-35.74988791674107
-13.233911107157436
1.715314719691163
0.5335188773726633
3.6317092528769184
3.8730183419014264
-12.513648119648643
8.508263296911526
-24.54578354232746
-23.18452186168975
-24.278594920384506
-13.40149481665829
-38.94532038909919
13.759691776080938
-8.575953351318505
-6.453476574365095
0.8209628812970173
-36.52823413434059
0.8033675863251393
-52.93083352607235
9.187357088136483
33.15825659214782
-5.7860785628450255
24.368890735948458
-0.6342443021445261
-0.3512110391532728
-2.5394656339560937
7.775208518068284
-13.1169225911136
7.179798323909432
-29.03399510809853
-19.893230523825263
-26.08962291918331
-25.95407595320284
-15.907823358584562
3.9441311487119917
-6.7893589939345445
-9.725581506675402
5.527631719138982
-62.19858377314386
10.064467081245791
-10.227267341164282
7.238677925022612
-26.389419865497086
-50.8879193689134
3.8694843662295955
0.010171007822166622
3.2284081864869485
-4.174647689120599
2.7699283059318054
0.8779342401285817
4.350607333144983
-9.93071868439857
-9.918094483842221
-16.393895723400327
-10.76854651832431
-19.784571536729405
-1.8761535415745585
-7.061731294407003
25.160442624834808
1.2554749719526463
-18.925436584878753
-2.347720913906695
1.8863027557056635
-7.915382063388202
-48.254405246397724
-9.224136500931644
8.652419994895336
3.889187673238272
-1.7108845339274557
-18.30255663726843
6.068309385057898
-69.66801932125887
13.328515409173765
-64.46946299656402
-3.4059920060284234
-25.921758655963487
-45.93652680697038
-59.66007914546296
7.268397622301739
0.2620729111134179
-23.52931702694813
-0.6269874431959521
-9.741077533706878
14.443089436881763
-20.941753457661665
-74.6322640257505
-12.717680900775628
-61.32121835877442
-45.32077790213834
5.81194678389032
6.117307554530725
-6.366426707516142
-2.4839207091120485
-3.649343297172588
4.524463059399756
-18.377469536403186
-8.182131258818941
-14.381226999332066
-10.01657313174535
-17.830079532453407
8.949206841084788
-12.49003013269871
13.64209421443997
-0.9248888945791789
-44.71322805239348
4.106863868953668
-5.355457545028935
10.500500260962522
-22.823011440809605
-60.0355728639126
-23.54586867748375
6.675697325074177
5.251798687314176
11.733280886774107
3.0581934879076087
-58.58458183715318
-29.976365660574107
-18.034615130094963
14.128856509468928
55.54905129376701
21.125315469342027
7.636079834750907
-8.988100201990424
3.1671042827539946
18.867435110258704
11.490979279283124
-26.649092106755408
-0.8802077059239788
-41.901048717150125
-50.23709512718003
-34.804236694621416
-8.912484054588772
-22.96998554781864
0.5802665519898254
2.1816684337024377
-13.255865048027736
2.9038162386932695
0.4317322278612643
6.996392728678346
0.13970901792234303
-24.67855148865612
4.982054697681852
-35.19532097849569
-32.00816338068722
-6.521716511263011
-8.594074271810765
6.319791584768972
2.121254949002925
-28.82257236575496
6.616568116268387
-19.86808747807657
19.40457863415127
26.160881885656597
-20.25059546465999
-0.6658011811975656
-9.473342992116454
2.850231961158774
-23.444856890224692
18.75920407299605
-24.33230172690545
7.503143561403513
-45.397292002781505
-49.45422549679441
1.3366754533960452
-41.013401403559335
-30.928975474752512
2.2726227596308934
3.0768069726824905
2.5972469407873158
-1.4619808473667923
4.475351614565828
-0.5467688378324844
4.808217381981368
-6.917515602588713
-11.738703775643351
-2.894989632215241
-2.91192236353427
13.513537923637347
8.345452442396999
3.194785857579014
-12.556043606200706
-16.504122853398687
-15.238529223586546
-26.536477936764797
20.6882589787902
34.36674220405809
-22.130508865325343
-22.80308078754573
-12.463909504025683
-6.657369227961171
-27.65009272057467
6.787874499565604
-2.5067068947922477
13.431379942835488
8.869176839183826
-31.15352351085043
-18.96460446542414
-8.705947195126923
-27.150563335891764
-10.569883690316042
8.550537754020471
-30.836549858243963
-8.248880267554734
26.51262597936503
-8.437931928099319
18.572948375617965
-62.31660211193137
-9.690690315596253
26.973718547498176
-1.5129373021111663
-3.5378802330547527
1.0265814271459877
2.7361173629158206
6.193848453375968
14.082439170041415
-6.020735982249
-14.505201487657576
-5.585675568905897
6.73678305358709
2.448913773258879
-8.422328724776401
-3.3806093966818884
-3.859204093308101
-2.4480595895458794
13.483211274578471
7.18893482340347
6.423406214492266
-59.07493800085574
-32.32044647459375
-45.39464111089622
-4.552404289474399
-25.205440519110496
2.703337183424287
-4.71221909100374
12.528606335372052
9.415125439921871
-1.024334959851537
-0.9042540588149328
-26.663854209077538
-32.73628219163773
-7.117419366346047
-12.487797332601394
3.37979435098117
-11.66383994910602
-2.92105884601081
9.713985279373809
-4.892531227411153
-111.06597781422093
17.15535816899903
4.720102950897537
-8.712684147719225
-83.29471965264705
-32.47318259949107
-28.705058938369426
2.4227769266049717
-4.1000654439301645
-7.135363021070717
2.4279408137506677
-61.009864253252765
15.252606760398034
-4.151150020386096
-5.465560254089438
-26.517419214437858
-79.57019473229677
-30.104118279328922
7.456782973070842
-0.4895951275673234
17.36690031413481
-6.4085999637606905
-18.053610689222715
-13.78274607262743
-7.001506253510316
34.33241533042376
19.60251627315239
-25.591950783764148
11.22629308293265
5.084381138431786
2.4041788715985737
-4.706270304856205
-2.0043305268900395
13.916274784467038
-2.235054312750199
-6.347272629212018
1.4045211485667304
-17.119479870009666
11.011378151381754
-4.481524237839796
2.088830256357223
-15.003945432871067
-4.588163626587591
-4.834502406917963
-20.18429811905044
16.963499508050425
4.586766019281997
-24.621744684909554
-19.050584990929213
-4.422342030000071
-40.141486777402314
-12.20050609171193
-8.07797083407052
-1.7451132796215703
11.794046403450384
-39.25478958015359
11.911031207162008
8.52422906993754
-41.00953066542128
-68.11248323554949
-29.129119014327145
-39.7984936550378
0.2768842454203728
9.930339259263592
-35.48461614130019
11.229223502366573
-17.71438763028214
5.214810084145192
-23.25067406331236
-40.530796446538574
-22.152242765432852
-20.314832368452006
-46.90512826222706
2.13860048418531
6.010861547495689
8.054771724454742
-2.5762675561926276
1.9137268897880197
-6.536435095228668
6.8224878469536465
-8.82236287939953
-42.3921617975066
3.675155102845394
-7.735660064306979
2.5113354831025525
5.941109936148749
-9.322534175355422
2.0624515995489032
-6.843758219952047
-1.4262085895668584
-1.1367465190344452
-3.0454733624952324
-55.627851978012096
-1.5543821405592082
-13.946870515129625
-8.514784432236274
4.480027611615424
4.3829167460278065
8.08487752988522
-4.424465369777544
0.9162967501773451
-22.328373937828413
-22.30060338169504
-19.792433759805093
-10.057296819283506
-43.731753558234544
-1.7277872805569605
-0.9616989212342029
-25.927327288918164
0.09567739316660262
10.096968254016167
9.039201721037802
0.9635573860145481
-31.782467715131887
5.414295624525668
-8.29718893783266
23.14232935432233
10.621532006410499
-6.376444042345445
-2.1723683441282673
1.2971092880961366
-24.013457665245145
11.408688521286035
-38.98293945033998
-46.05897777831579
-18.271719167690854
-30.70947182466608
-2.3756650135425557
6.606914842114354
-4.766854887223756
3.059678688602023
2.0112626203876163
-16.23566945375323
1.711497985132926
-26.513599511965623
3.470947241295164
27.96043389818275
-44.53928427822281
1.406267017650702
5.133660345689151
7.203821266324886
10.599651798124802
-37.76688768439224
-11.613931056939718
-8.095299978253928
-0.2613954654370292
-8.703555244127926
-27.680789893214946
4.1817413667301935
-18.993229633339197
2.3573938924385702
7.781240589620797
-15.317837713845464
-1.145832129086668
0.3477509318421639
3.5294926489919263
1.8741252598565312
-4.728658662734352
-49.57582021985108
-3.9540487400132474
-30.6625914532872
-3.954116174778493
5.192307985140921
9.137740225758312
1.8842416694320807
-4.817490544306784
2.559329610715962
-10.310742381133252
-18.222185638530533
-23.614064108219804
-6.332897331876719
-57.159013794478305
5.364019738664265
-5.48460469024411
-0.7481436743413874
10.037998611633276
-1.852088187655985
-28.636106262404766
-22.23403029641296
7.525908991002793
48.237785083670595
14.596608579495001
62.47925529934985
3.0761314875030252
7.590659990950677
-46.1515550559129
2.336746482803996
-25.72223723606334
7.545704162918754
-11.801262463678158
-19.05087607172874
3.631640804391272
-10.787798714239155
16.880316539051947
3.065584110678433
3.6850214141895483
-31.353298863080486
2.7627465881862543
11.124483285635826
2.9170221836647174
-3.209820263603798
-1.379029378013489
-11.267310844744333
-5.123523896776639
-31.019945177447067
4.6102191814366735
5.305669249095545
5.637410662507977
3.844316278199237
-1.4743589691378585
-3.3335061087370894
-21.430108275034765
-8.896951707258168
-13.547444570155761
-12.776848413735085
-60.67482684996051
-16.51504402794783
3.8523200079857176
10.825502335074562
4.969377155924481
-19.343088855231585
3.6691768149123716
-4.2158448845093925
-3.3979702999588928
-13.590151195827348
-15.060847631482932
-14.082893466911266
4.2782094890242055
-4.56438659402703
-9.965934567507388
5.04634079277697
8.082714282742057
4.115190952148893
-48.013313728389846
0.47437023338516404
-16.604767833916515
8.856120660411989
-11.374836544363621
6.086288044880927
-0.8336637727002549
-4.927130165916397
4.188944225542305
-42.33150993630106
1.8281653444087285
-12.186472534325993
-11.721973426008455
19.228176478019073
-20.893030142123024
22.117311405514958
-0.6727463369370161
5.2643689350990215
-13.332928182665782
2.2218545539931274
6.488649304256704
2.805403788102865
-9.75027120284173
-0.8224261618147226
-10.906813189799959
-7.5982053257945
-28.834456353871374
-1.0356107670295396
-1.1201019312852836
12.311196696908572
9.037931349292066
-4.07321611243944
1.1678947006644647
-19.309214256590664
-23.52807461872301
-24.809369075833246
-4.027386711405902
-42.88800398539658
5.860408166917535
6.943104924130727
-41.335025177930696
-4.562426530256205
-2.5402087888688696
-2.1630086078622464
-8.092258815649696
1.7266746086727789
-111.79275018100789
-5.314274279491395
-91.52749998994992
-7.9502292135397905
1.284000411810987
19.556822671534757
1.7828153847418466
-2.0353050928211136
-4.596802373626513
-1.8010870193845094
-22.473372177994158
-24.35567425066287
-0.7059437717452335
-8.468423830408248
1.869774512138656
7.408463205199509
-53.29471745243467
5.438891438578291
-27.812138697869322
3.2966960608473546
-5.583781005828327
-4.590483354536779
20.01511571411018
-19.74274803262489
24.76072675543139
-0.35958951681584583
4.199531103550607
-11.721532832154686
1.7676365977208919
4.573272426203186
5.376387492850511
-2.950790980674534
-5.0069129975225355
-29.80780335321283
-11.433618184498869
-15.436360668963328
3.6576007671070867
-1.2206739787977
-15.905430010694996
5.017722428099073
4.4394378630133025
2.4356169780693513
-31.665612489315436
-14.495428443262547
14.957750949021092
4.620161456221559
25.943647778291677
-8.776706374924718
2.252218281686761
12.184625634943304
7.258308348162416
15.402076515914999
-1.9503527145897994
-13.946444108538724
-58.208006005248954
-56.13519429345772
-9.940289285116847
-18.85992719335568
4.331106082389824
3.4694343170919675
-8.040957573816359
7.00740204034208
-50.82474838849828
10.625563546847202
-69.24578697099332
-49.8427946590764
4.4393584161021575
-25.86919855288833
-48.08099646244535
-13.038305678219189
-3.883836499132793
3.322539852017936
7.661387327440838
-34.84850209942013
16.791836032366444
-41.02107125824022
-16.710068250517544
-46.94219687881357
-30.973123671411017
-85.72880606155586
-2.611963078248348
-5.802544861378683
6.671644817604886
-0.8245511058676822
14.979711941314818
0.852399078337732
0.5343032219328352
-7.727525870609442
-60.167526636304544
32.928207262239376
-28.149572957719307
-8.541831524199559
4.4889582097358955
4.619750040770673
2.678104093729449
5.224378517581394
-0.7674130394810414
-8.230052083070738
-32.058473683208284
5.493155669919849
1.0964781675594155
10.96664810039503
-1.4989514898406884
-3.534754634604228
5.6357327185830535
14.104904984632372
-5.5120819659941445
4.835088158237413
-6.652676294246865
-58.55092405945089
-37.44227012983981
-12.432797965123981
-20.644020149696765
17.747601577187368
-5.8070669259795
-16.015160703811482
-2.23335197893441
-6.195493579363444
2.7751739805361484
4.947825611527469
-54.2997031776413
19.97221517545368
1.4471841691520777
-25.09936233507851
1.1391226570797448
2.7012166891164444
-4.379773306316197
5.141408692656581
-18.284782813514127
5.465174628213842
-30.372030271264897
-8.552667240142075
-0.25074364727466714
-14.797628336779468
-25.346004281598958
8.301689016939623
3.2541366205132976
-7.515002826346062
-1.6774982836616719
-1.2111706484143516
6.073856124609108
-30.86922090961576
-12.037057119417163
-14.865019140054953
-18.167197281450722
-23.451195304337627
-2.9766844369749696
3.729044439116568
15.244734708807368
2.326390386017694
-37.431637828646664
3.80831040877218
-5.9678990863873205
-22.398829965346952
-47.0491880434491
-36.97581953768246
-37.827975212251154
-7.856159824280691
4.183247879843628
-3.097612985919545
7.0915848192526
-45.375422697468125
10.48772050522155
-20.712743896113274
-17.68129288148231
-15.026412614927938
-37.500292346867354
-8.523242597814287
-4.769068616480939
-3.3429192386242397
18.83967942971971
5.271131198620555
-5.288809719428624
-2.564687966228459
-8.322305125686004
-10.706874505806482
-4.6588889531998126
7.38728529121375
-5.754973940475595
-5.421692619517419
-0.07870478716608442
18.647265360047886
11.334783642942806
-59.45462475396239
-6.405277052554239
-11.848525103857519
-21.671379726360826
12.960809752855345
-17.052757370220267
-37.3880615828031
-1.956145519795256
-0.9240192172101862
8.893143137624365
0.3287215003449244
-4.481298787627146
4.683377862341022
-7.443308011593477
-4.821944428575858
-15.981456552244284
-10.19982617056265
-0.732706112990932
-0.0491460592220605
1.227268345778639
-3.2215815877607143
-1.1963871074320673
-53.4190633572005
4.227491569047964
-39.543607247247195
-1.0043925906817552
31.492724399217174
-7.934610103658045
14.49516273205448
3.174711129359562
4.504127001629892
-1.3716593373548327
3.539419506490072
10.173152426637488
-9.265368143528422
-35.600192867177135
6.839175915019064
-28.953553240073397
14.678058036047991
-45.742853097854635
-14.805782024816555
6.275907542190699
11.80130415862148
12.57707628030041
-34.87558292300051
-4.259000455085671
-13.999112115287286
-10.859017520342114
-35.69129519168302
-0.9318879367181649
-1.8370913821293948
1.392893314564028
5.91917674266507
-1.5327059382449182
-6.400504936546043
3.3984814950077804
-0.9676435102471626
3.664103539023254
-24.525001118426236
-11.644155184607964
-3.57249750860754
-42.828542499888215
-2.925161576601564
-0.791925504904353
0.9100709269255969
4.917290133919421
-9.763530261034216
8.848878789068857
-20.901682455942094
-22.789891849861142
-11.232675288665728
-16.384135436009927
-22.82047325944623
0.7638846539915507
3.785458377951721
-6.353581281969154
1.4122220469413973
-2.217553645821808
6.4237771183998005
-10.280732963071177
-9.446141594441041
-11.736080311632826
-15.522758638836848
-29.539082480329963
1.184257382175506
-0.3240699686505337
11.591988874404281
6.476460854574354
6.393729671772082
-6.784669952023233
-38.361347024607426
-16.77594176910852
-8.943197373495613
4.197219413685556
-16.24725279034296
8.825084441582366
10.821908988846559
-22.597852605879797
-1.2454815577150402
7.768926948259064
-10.671287616797274
-5.499748766117122
5.812438651347406
-59.8281218039219
-9.17468269840305
-64.69143812066899
7.608100289638566
3.002093782880266
-3.9895205305184396
1.2795723245611121
-3.1457310168143002
-0.1404030407267829
-4.050525566661256
-7.849980940739198
18.554349065716792
-4.833024453095265
-31.080549276682913
-8.477225642540759
9.861614569464368
-20.74565215350781
4.227814215346416
-15.865103476754772
9.006630523750538
-0.9374240401270812
-21.697468871760798
-14.906367179201473
-23.386402244633036
-67.48523931197907
-6.265357881409312
-2.749824517667572
7.128407072307381
3.1849188347345905
-11.299823851357129
8.262156304311414
-10.984836424266073
-5.746112588054686
-16.13805655766705
-14.096346896357357
-12.05568455523494
3.9973777522625333
8.704162537301148
-16.26391799583491
-4.5283465890838945
-11.092870324199295
8.469456777011105
-1.7009209494878625
-7.01901207162754
-50.25657697331747
-29.491910753550005
-8.320387826407833
-9.695127448487003
-11.542835283998581
-6.5001781723995435
11.663645888441419
-28.578279730265784
13.854641759485105
-57.36472343809096
-22.582519195144492
-4.306400524414704
-73.73901987023639
-3.050705234430044
1.307009636600331
-3.8693063003578496
6.111572273584711
5.752408896022562
7.777364574047285
-1.1591532917101914
-14.167312089650483
-2.560494629691715
-10.356228170084073
1.6173085772673357
-2.8349347309300548
-2.9270400986879412
2.603013898857504
-0.6526015531375178
0.9038728434210688
3.1031841303006154
2.270860832407018
2.9396766158191454
-2.4199488903169692
-16.75010643858888
5.690892552971896
-17.238421968977306
-11.512524705689017
4.756757902420508
3.1102801925846846
-2.1062693510077315
-82.59329469289544
3.4720222380874715
-28.24565927581241
-2.941111825845203
40.0751006422195
-48.816690536041854
6.873726882052381
4.1303784159818555
-4.9827452432927934
-4.442708117196146
15.384920439303693
-47.728295684898555
3.451494678048779
-5.03540811943403
0.6598950494170404
-66.87542254235355
-30.22536085938943
-42.004986025557955
4.750634019054997
-5.997218303741816
2.2426982322241225
3.551297391516403
14.98262653361912
-1.8394602746409534
-80.68448312920829
15.69166460895321
-44.13594254392487
-1.8320311756844183
6.979007078199418
3.295909273886994
0.14894147778864042
1.987023454341946
0.4621022160531467
-2.9306741313256106
3.1742296929687113
2.5142390901983167
-10.097267076657744
6.209115333158065
-8.062989444916356
-14.687656606282683
7.5770176639912465
-2.137570032224978
3.843136094828139
7.101803347960422
-7.027316514328545
-5.926746529655203
6.942721069897916
-33.42384578044618
-33.782783293240904
1.2035485572750257
-24.52534215123975
-0.8465921551179925
10.018396034634016
-0.055392884917622176
1.9467282055991575
-2.8007217718681927
-5.536119859734711
12.517047001739842
-16.23365389600915
-34.1840457494267
-0.3944906323264594
-47.7482659449109
-4.538535700601585
-0.28125370030488517
1.7464398333980502
-11.520594519330356
13.953152516641097
2.327279129853916
-59.894552383422315
34.402647062263554
9.229302950250457
21.44662312346971
35.43015263947579
10.14259236139943
10.509692098512751
-32.73813376565944
2.5937392027640045
8.174266911024553
-13.908417850343954
12.751215834978346
-75.2282330114526
-15.836798348917828
-10.35075474670189
-44.26637230486161
0.48844726233652924
1.3696856738950594
15.000923653498834
-4.6864997944663305
-11.528766694373157
3.706270192004995
-1.5241769864181278
-48.50930388757075
-19.52549305391472
-16.434878060643946
-27.289980991342553
-1.101095545365892
0.7798023502919982
12.197916137446622
-0.09785588591589711
-7.276809348813755
1.7562717630226876
-1.5379381780911148
-26.59508734118886
2.857366947918857
-15.013431692945934
0.4669327477318663
1.9246595373385373
-0.2387509493990505
1.3428775555520729
6.691105396041521
-75.02776357398082
3.1023333128665462
16.047768024166306
-55.23532548911941
-49.60787675385006
13.18078525894598
6.114733835224965
6.052298871732681
7.506923215566493
-11.99366721738192
-7.805771358612315
-11.644369117966448
3.2340286440011248
-16.628722163136846
2.679592203004929
-30.909923243253925
-17.13522913711218
-75.93674099131073
0.5116866579926871
-8.947323876710335
-6.629487399811911
13.456830930247158
-25.80758544034568
9.927161054905374
-25.326771225004734
-11.616682006598333
-8.781311379034127
-31.904071252375306
-45.719684890810285
-3.6280088422524015
0.5223688942383502
12.923236883652683
3.0453454496383587
-31.18182920938961
3.4285689878915875
-5.015485078243252
-0.7297125901349903
-3.893396649944999
-17.851673086729413
-14.783406974131102
4.898482569367722
2.5090335891591318
-3.0065985305868286
3.0976306438953216
3.130825735582464
-5.331302036371561
-7.373330788036402
-7.536313217012193
-7.281608476867573
6.490156519887895
19.721534901276055
-1.4898987496241078
-3.020733184330237
-7.848162784232175
6.8457883243541335
4.558789996541025
5.026319620216721
4.498297740970946
-16.24702991485702
-10.697269515987427
-2.4612202362453015
-40.49225967595055
-4.796755892002591
-2.924458533826063
-13.392623614404211
9.160260603024025
-10.41930170628756
10.138869874032444
-6.147433645614832
-47.1393594271874
-8.9341668157321
-15.406709842335186
-44.05682611411797
-4.363843731266314
-3.777635972692305
11.57785204488274
6.653559819360173
-5.762111409449988
2.3091082047548004
-2.7183273462657263
-32.66870878541422
-33.57254338481062
6.719811815556973
-19.300958416807397
1.2720467280495757
5.486299293972266
-8.993965872126939
-0.827096991402338
7.574649922337004
3.257220251282374
-23.745993475549767
-2.8097194647055175
-12.983430610343351
-3.4961332509700274
-18.033230269401148
4.611490501158722
-0.6951467951341264
17.771470957693953
4.959130810244347
0.41636690648500085
-21.5719398313672
-58.52776854488389
-1.2113999324579239
-27.420434539392026
-5.141629983231184
-6.861786217951977
12.783476783343827
6.160796817783215
-24.394653623396138
1.18692907507562
-52.99696265420662
7.998507289448605
-6.8017100526657694
5.955413787584577
-58.97894828052636
-61.001423480046554
-30.56314891464587
-2.0252362244450506
2.51071992491432
8.817283543133737
12.039963417115041
-11.994806491888719
-3.793552942936791
-13.016464988340754
-36.03889028140054
-33.08469667843864
-11.378179534738006
-98.73857891926163
-12.435759403071057
-1.6179145369778256
1.6851218361413194
8.95255216885446
-17.796202359099542
10.568180014583822
-27.65455836883521
-29.7288663106296
-18.779418486513812
-4.721367018501132
0.31571496045720693
-10.421241648421482
3.2877106088293964
-0.9832360929140336
5.76818296865943
-3.719705116904361
6.581811147846581
-5.383250029035802
-8.220487112646968
-4.531914830576422
-30.005968881734038
-21.25601237974806
5.802048815583418
-1.3571842567430785
9.955439462046463
3.18587358869617
-2.265092625727399
0.4981125461339211
-17.68031940688564
-18.5863251489514
-24.690087419391276
-16.126336727237387
-11.733662450808836
-2.613484975684362
-1.2915964575777257
-1.0459792337047542
12.12958332611536
-11.814016184009535
-1.5167799327021245
0.6202591909662964
4.226493347786005
-37.5010468011907
6.980896215526586
-29.831624979336322
-5.669640341869626
-5.310298663037204
-18.761816627593397
6.86660334103269
13.584815421141059
7.280013030319878
-7.052831180608381
5.844220069061909
-30.83102386962354
-0.9369371843337939
-61.99952241149248
-5.053282248489666
-2.404535813089929
8.55971994905623
0.8030868912393307
13.11244870605278
4.501372831603537
-27.17066584156312
-1.635827620613259
-24.846136245593012
-25.482715999424798
-4.903403198965217
-5.429482694463646
-12.252896410819416
8.122552160754255
5.137664932710629
-17.507987770960064
9.654523349923993
-24.668703855923948
-24.81902418014425
-22.506847179559212
-20.35636907585637
-8.356296605737578
-1.0162124473545084
12.538051793472253
-16.687886509623176
-7.266190509239042
5.58478943253969
-2.019561442959983
11.667419897300944
-5.444906010591724
-25.44825188947005
2.1516720114475114
-26.850005469969997
3.1904435508548863
1.7531265823591093
7.382262326879074
6.7880458681416975
-9.485502531199927
-5.734896812978473
-2.953081612141707
-26.135941120684528
-22.10697386559429
-6.074590099190639
-52.193720088214576
-3.03995881818567
-0.6905618584832585
5.343519446598452
11.601783766845754
-2.478897147383215
-4.567966791700421
-6.921364967322637
-2.6834488278153916
-68.8003471685763
6.747127219668698
-23.30249291484744
-1.577678940133846
0.21192273845353338
5.087177295026909
3.9172586731631283
0.1343269172411654
2.675997661222074
-4.696701821353602
-14.933536589941749
-18.850047381603797
-9.602889668972384
-9.866974232451902
-1.5660608395761928
-4.604334333956141
-15.20170551564522
9.176552343579065
-15.2039858409395
11.777075515457305
-18.891680289486757
-45.1183112670762
-3.293813443102202
-32.642247703579706
-78.45524652677679
2.83402107236305
4.221974100889963
-1.3978692898839316
-2.3669927386236957
-13.780117219736491
7.244231322360137
-18.131353382955353
-25.79145178228825
-3.4586407387118068
4.871551591601346
-69.67320075129541
-1.3731083822759986
3.584625885832899
13.41621103767654
11.176502001173699
5.161687355137875
-32.39675450201882
-25.913193215940442
-7.042533339381082
-29.096025185888482
-14.230607499536504
-41.270566790559805
5.1028894226596755
-5.568439055606942
-1.8930230363676044
1.5272384442443858
-4.820215843992732
10.420575586139218
-5.680329564057213
-17.42465584585489
-40.98169694582603
-15.26930939957232
-75.1078010973216
8.247783400186844
9.005075751617817
-41.04523919975767
-12.524036875486733
-0.20431091329882234
8.946195793894812
-0.314155432697353
-18.113510157400718
-29.379021809793024
-4.248152687044574
-34.49602305363262
10.046712035915888
-4.3183070639007095
-13.551352720219128
7.382377246631143
-39.12836197190364
6.5744265925819
-24.902962460733967
6.200370470552901
-29.323115767575246
-30.032940354213586
-7.883734481056712
2.2574223301934713
10.22367008567776
1.4330514492140183
3.615231150153182
-36.21285022144621
-3.8924708273628705
5.374871586577005
-14.462900303595319
-43.66848634162272
11.322424776885514
-21.032099178641605
-12.159073165465584
2.5723020769592475
-3.5774151103328693
10.461713044027485
3.468540323832798
5.042871414197759
-62.73542847097475
-13.80042469744043
-28.027758828112397
8.097814082104506
-4.075785472695315
0.5246909058411644
5.305817713521967
-4.806397028455808
3.287916567254837
-5.193152098500053
5.389956049613124
-10.517120806181428
-12.599735017212993
-31.832176949114906
-14.72487451663827
-40.668203618747306
-8.474925449904934
2.598763020064935
12.354471727973376
5.179646478305777
-3.278715619704124
-4.97282351973433
4.943221403098452
-18.4752543886034
-6.636427204467694
2.251337412939668
4.979655709393041
-2.052128219413687
2.9099522261807076
13.698939330367558
-4.138540859760928
-65.05593407504406
9.026216479059094
-12.108449826071526
-10.57957480173506
-23.5414733959214
-28.480158675944924
-51.28706625498704
-7.098069676632528
-0.03794677467405361
-3.6896006028998745
12.07737127465499
-10.957013111974092
9.179858070866874
-46.82711428550836
-26.227753709262164
-23.08606299113612
-28.352274773634168
-71.40214869493273
-1.5705243608475739
5.014251881597695
-6.48328330412886
9.203532865481066
-62.37656409700542
9.883217873004057
-21.087919882585698
-36.01337887630782
-32.496668887408234
-48.932204369802434
-15.675971209490099
-7.136648874433405
-6.3557142605536985
-9.067805761759871
5.045293830358513
-5.582567282032117
16.805849267887695
-38.57325003479232
-22.464971052203392
-16.04426711946664
-50.03870315644746
-66.6074222827325
-5.98431800208685
3.621940696515069
3.370241654868514
6.246789558955496
-10.377466856058557
6.229549991544372
-18.7420810878601
-22.652973195775726
-26.139535671574322
-12.583724490627525
-35.14876670113508
-17.79933064020638
0.3926212847134378
11.307637575849851
4.337470999209874
-42.44671640177826
11.285054775218674
-23.670020593966196
-70.76258233907967
-5.2006794682884205
-31.50899607424165
11.119099877580565
1.5995120971604102
0.22606773007562042
-8.8244895732124
4.094181586351407
-24.784777229475644
12.197655845348013
-31.817285320654843
-19.14108132287664
-11.251941684153843
-27.450889352040395
-24.83122725237409
-4.198307270056131
-5.641089576347719
-21.396559503186648
-7.99293434825491
-39.49002791700252
9.217767943311639
2.819948546237664
-50.855573834922126
52.86669180747672
-35.91386863173903
-27.701838298597078
3.5279681652240376
-0.8020375645370974
-5.728290611215451
3.4343441170354456
-9.589214510290534
6.059685809926053
-30.893140185384453
-6.963123883841451
4.063084308081301
4.526512855402951
-20.943384174971477
-3.9273893851883974
0.5780581805171154
8.619007534284304
13.333343892793152
-7.615728150066952
-2.4976512667484663
-5.660897622174353
-23.34717120895386
-81.92345538820382
-3.0616578654665267
-64.50087738856601
-1.7981222239317152
5.431970025355584
-0.14781186163901072
3.258989734246951
-6.107785767211053
4.393344848769368
-10.6237465005858
-18.19912141756334
-25.275010267276674
-11.341177149353278
-29.10042764110967
-6.2985717227848514
20.427084764727425
-33.912392802077264
-3.8162056687719828
-7.2923874462011025
-15.44997898636728
28.911956514372235
-16.120799188352308
5.8640563167537
-4.044976489778228
-24.089466701728984
-1.0367156670177846
5.49940573132048
-22.049512575427002
-4.584096479019134
-9.15709790134396
12.232412103151834
-3.64581136365305
6.18868893086173
-70.12338163268093
-13.566437904064742
-12.447216313072046
-1.8710261753892148
4.0308899290610825
-1.6466959727306918
-3.3262222551924077
-6.262979061755885
12.676233575696177
-70.96926330040105
-20.85460852909859
-8.882129498054686
-26.784233144429106
-54.344737984612216
-6.941971323547924
1.4572777580018688
-12.957398271188676
5.60464462944813
-31.82604058841928
12.478134184644373
13.000809514706184
-22.89595758484407
-26.25801476302018
-13.996305641541317
-18.666599063063362
0.43994247718680324
6.5227587282333
-2.2442304357436673
-3.9608013991452005
-39.97758807911448
11.71453122253196
-16.507317480445685
4.804978905543056
-21.73174034716989
-85.68969915389967
-14.43582818597702
2.265466855431234
-8.592794399163239
-6.46863214797683
6.679219164635761
-11.08536944597129
12.044210967474935
-30.616312628767012
-0.6559328741117416
-26.809208542431698
-32.02145847022862
-24.598846031602577
8.226923871549179
3.111706484026346
-11.347553561642831
1.4988170398042184
1.2036735766780176
-6.17660692621864
11.471514041296738
2.606765650914356
-4.5450166049120115
14.096077533650533
-52.46297114716561
-13.328728030081114
-1.7123669774112464
-22.300630865484404
20.761518622792618
-19.182521903983826
7.219683963684463
-29.675666821549093
-48.73720625644564
3.2910951962332753
-50.59566354327071
-22.603832187910445
2.5714574656210756
3.2128075948737145
11.253301338860105
3.0409917963932527
-3.495169235591915
-19.889348204179527
10.526593092860686
-4.139080900227651
13.502339719584112
9.88117074582689
-11.665254433956086
-7.280847816533509
-0.39672737276610626
1.3611568816082542
9.845658872272455
-1.8153801077054235
3.5396388125449203
-9.159147931978826
-15.587149324519931
-35.72052656140267
-6.395272251338305
-30.179370682642684
3.614521386360893
4.700163484438162
-10.509926320111767
-2.3101303959323007
16.812118477003754
1.1949175942004397
-18.700775945369575
-33.96325875910979
-5.480481324771639
-18.12861020341612
11.012826239746206
-1.4860282784800285
-0.019298192251260282
7.331771106745816
4.411460498321368
12.108417530633659
-4.094758415116407
-8.020270228876127
-37.22985594593942
9.13613121135738
-9.891744525340629
-1.605773454942316
-8.35274238465843
-0.334456889876769
8.212323173794651
3.40429288454962
-9.939384479576052
6.542825083038578
-18.649675343376696
-34.650568847562354
7.163717354788732
-8.272561454943384
-1.1164336170106015
-5.782885049848303
7.68828168830448
-6.165889953035809
3.360004336462402
4.714980809699665
1.695504973965308
-7.912578606360934
-10.253614974326716
-21.24224791183721
-3.169558442478735
-34.40472577530299
6.307626918821675
6.878640203704419
-10.950247916360858
-3.717733659363144
7.915270213289082
-2.032855743560074
0.7588308175122938
7.640653451471963
28.125405983935128
-39.13534255614617
-17.3612096243789
-6.347820948600763
2.39348911543968
18.181465894373996
-1.56613011820656
-12.488998420706114
1.736829928196967
-1.9864122798957924
-15.654728991890233
-6.804405641249664
-25.711816712114636
-14.693927563723914
-2.1886292953488136
4.329953815081192
-0.45020619758428904
4.931197184355529
-5.79404836430399
1.4356586036100047
-9.02554158078743
-7.709190158606494
-20.86448191711457
3.56067581162566
-33.61354888257569
7.305890429227473
5.3637224594481605
-9.315545331382824
-3.333653894929777
-3.323253538302322
-0.2954541122628078
6.825012973461348
0.24892855177168238
14.15300333625704
-10.63358583958637
21.528732809804037
6.3382359481755195
7.077562212648917
-39.19816715660642
1.3424540849626032
-11.532323396579898
7.10129499004525
-16.045383425415803
1.5461570149934856
4.553061057925479
-60.500280070401736
-9.178293063066203
-12.55753861148851
5.737581584740352
4.742226350398495
4.026876147256087
-36.29355428957624
11.91336548784
-16.750660568271726
-20.855189598505554
-60.42541996573129
-28.810624562564083
-23.084836441993865
0.40624851770806547
5.849010011292448
9.752985881287346
8.14485537425475
-7.835790022793858
-5.163078752673317
-4.708204651935883
-43.02257330157553
-74.44254521936116
-16.33628934261003
-28.783575485677336
3.8172137628222984
12.579610847730638
-42.50868465914687
-3.6023436457090403
0.4319378215087859
-9.503435386763098
17.174908682412468
-5.096656500940151
-105.9922378457804
-10.654282161963348
-90.54626041755569
2.288920665535647
3.0895366343207193
2.609335135830219
-1.4373749449843851
4.492116336819648
-0.6100616786650068
4.829023738988467
-6.8919968594482794
-11.72186661128766
-2.848923071165832
-2.885172325688161
7.956420321644775
5.12995987262702
-11.179883264151158
1.2841943947969843
4.245099933493335
-6.293687426501037
5.839661490435802
-11.351631922670062
-38.510833570890945
7.0894107267463475
-38.764156835949116
2.29432325258065
1.6338848538941955
-13.115400207459526
3.166349195216357
-38.368833220833274
13.801505186888022
-23.35655603110547
-9.822086457071325
-34.5016955705458
-10.146604232467565
-30.915579169245362
1.577219082584894
4.866118878610089
-10.853835421094596
1.7291361705881005
-1.2745849359388224
7.8633310352949675
-12.385940508541092
-24.425166613151323
-9.64796308791555
-26.144934119174316
-35.40129223819853
-2.2847312478363397
-0.784540890740776
-4.885756708075217
6.920375907884136
-6.079187198547777
9.789564994931839
-27.055614007055187
-26.6661169189459
-4.806485532342215
-40.71837723824094
-23.168690616464563
-11.158732048998587
9.150398727669934
-10.339899574791069
-1.2550370439619147
11.530360752865194
0.515988703050724
-9.460066152246437
21.55061071356442
-22.879602674570783
7.095960920407749
2.0904848566315937
-11.396483092462708
-7.08412656299897
-1.3003303876526218
2.044038189281043
22.428550255902586
10.898332210117475
-20.101005641414382
-81.75273218236974
-4.301423915710552
-21.250512286314226
-48.16357024040529
-5.986020628963843
-5.776698843602107
19.397826039629148
6.94388983426009
-18.923169574788485
3.6552515377943315
-18.54050506524733
-14.932561829620953
-69.08450990399156
-39.93950055453686
-17.565952415130127
0.313662183281346
-0.7237015875029296
0.9637604571632705
-0.4748352135356071
12.725800695196556
5.423286358975464
-0.7656094441054466
6.067040825023023
-42.163141898151096
3.9571452742676945
-28.147221572147867
-1.217186883161911
4.536307638208747
1.7039074725497039
-0.25756275218120184
11.26227577364702
-1.9563045031542146
-11.88225555677251
-35.74637586225641
-2.821099059895315
-1.2105798437843358
-31.157590653946407
0.30744951427823364
2.4142778414288197
21.48561454954564
2.242547676872783
-8.727061882488625
-17.208319573381477
-25.242175669530805
3.865566674358825
57.40682224793721
-49.76799910940325
51.233133625896045
-1.3106878452174984
4.30173252589368
-5.573777647502599
6.093660622985416
5.058879011876745
-3.352370043643349
0.8177273314731908
-5.5034160021208205
-28.406478458017002
-4.439123526259225
-11.097402626588956
-10.644365862792958
12.683251732347937
15.484897406552907
-5.540298910835766
-3.740226596471957
-14.591467160691396
-17.650079949475433
6.717391994652367
15.439022576708972
1.807430136264129
-10.45843671721853
-3.2040694257832216
2.6181674478384407
-1.509510296130867
5.112524938986027
-39.29303838586592
9.871553742826785
-21.506280947332087
-19.231813500631723
-11.2000243935876
-33.86042655308222
-8.765603078782638
1.0522397787045081
1.5244278932250444
-7.276231027308932
3.3539445534695354
-45.31810235611152
11.962205912962505
-25.16778154599075
-11.175437056763572
-3.146983235523739
-30.81398279550293
-40.671137770593724
2.4874525794676456
0.07764381052895253
-6.79590274450836
-1.598659073471067
-21.276085178805104
7.8800585774859755
-44.011353428475594
-9.7403993211899
26.415146105032772
-27.13234627106594
-22.103193868240524
12.802115675205158
-1.9738333789569884
-8.609100424391482
1.535485330423442
-38.762310175140286
9.037097903842689
-38.8777726525074
6.778884667596174
-27.355028246088786
-35.91415435489158
-40.08038907591343
7.669603897061261
2.014554273183622
-4.1726110792226185
-4.4259945601072275
7.536332412191847
3.4174069779786196
-17.21407460542602
-6.983542588074597
-27.69989740243
-4.856415536758886
0.23163974520712882
1.5832591643019862
-5.374096401607995
2.1471268913992736
1.2949304016992889
9.265497098318349
8.319737617347371
-13.259678043496269
-3.809051775152246
-32.41556429411544
-25.0851582635037
-19.816066936787692
-5.652700917932636
3.0110097579758635
12.413633856409572
4.322465886898506
-17.442425014645565
-12.813425207267564
5.009851746228932
2.5172726120404105
17.116246871241056
12.020044973421076
-18.067680927306387
2.9238605379852523
-10.25813790370363
22.827539074093867
0.7256761783431194
-18.913388529303692
12.193623146004118
-104.61116033325386
-44.97176005893987
-51.85440746287132
-29.716739883000788
-57.18211276905968
2.723666688147203
-0.962580270972655
3.8599343440078053
-0.885332729542033
13.785477546693553
-0.6455016513859873
4.528951104591586
-7.1853913132389
-15.45103692600362
8.93030282649211
-31.535678040075098
-17.000566355589097
3.949281968900808
15.3314647555427
4.070185182378302
-7.402343076143545
-5.125611227064994
-53.174616564448556
-27.346286021886872
2.8992814554098945
9.836766394998405
10.98145087600558
6.1751630135992395
0.20133973369014324
-0.4454178593195506
1.9396179820746253
-7.945977659164159
5.6054750712900825
-12.77374119948141
-14.831588383872948
-10.417512371315372
-26.76633730498983
-6.143085062394452
0.7612261411822718
-2.8074418004698476
1.2038770447572258
4.557659877954668
3.0490904932308
4.93794153510482
-31.414921354331927
0.04738331723538458
-26.02377803555857
-9.887046273261168
8.350602425730653
0.8669409279359375
-1.7891372635112432
-0.9190677005271048
1.5581605343865155
10.487994537242086
3.0534824909167106
-42.45563682377999
5.758136054951382
-16.17629194055649
1.3283363650584312
-29.489631774552286
-0.8273365118780642
2.2409089182132256
-3.155313304268075
2.817412402442975
6.883239655064979
1.0955047644219702
4.004490091817692
-6.699670783486175
-21.6880326163406
-2.771617834419941
-14.056067294792438
-6.5337507467115445
6.708146825463035
7.608319920255179
3.554579487277719
-41.68430440080274
8.046683132440627
9.472754449533266
-26.928234701374038
-42.59837457271104
-68.07371573818929
-59.124060553455415
-2.578720062289534
-0.13101421243005618
-2.985644174706109
13.9775197057393
-75.72180113546985
9.863075402347455
-9.00210766757014
-57.82406161913482
-13.245458775181564
-68.24759690752879
-41.93366165110399
0.7445887720056525
-0.5215550963593722
1.5997657500381743
-3.4824256352170204
-22.840969978947328
6.691955605692209
-35.8708507288381
-5.278277867120014
29.732686672892953
-31.252847655766246
-24.71097716857462
-6.449031789437784
-7.187612255593814
7.309115259012129
4.4439262302225115
10.63815102268117
2.8337626597918915
-23.499752406980654
-11.79451761872432
-2.695522593841496
5.999089695085995
20.679445450866513
3.2646069010382806
5.573854284525757
11.111801660817122
-7.28365944193998
0.7962933559738623
-10.135638079096735
-3.3699183884335646
-1.9806133794640197
1.3036976410471373
19.973601773325985
19.308681952679716
-0.9387348471123786
4.064995602550123
9.69359438378616
4.718342678814294
5.159798931481906
-0.6239954174077234
-9.218524041603617
-21.646380962792325
-31.60106732415646
-22.93282364889047
-70.59650875001377
1.3243460953319257
7.872264688511288
-22.248065232108708
4.424338276523367
1.0204716412233523
4.728017996360066
0.7622172979048725
-37.62049984222834
-33.238410369853604
-7.536379373355786
-45.20597903564473
2.0580341763438774
3.9060257098475297
-6.182304891169677
0.15780176624206632
0.5507832376653878
1.9884192172919475
1.4345191734343992
-13.217758464911608
0.27535444035509204
-3.602591499588566
-5.982335642504438
-0.16230262585490118
5.500108417602832
-11.281916985043837
-6.889746927707673
15.41633825241545
1.2059780469609511
-24.781960275989892
15.63713139314894
-28.54722459760367
7.1910367495417935
-10.967018802401695
9.298163694537523
12.98878408809605
-34.18581735949273
-14.381854467234678
8.309656776965586
-4.891272785380427
12.828037629711144
-10.087468584709624
-46.00353829640038
-1.3645638459355411
-61.15604332243063
2.231622429675449
3.9107178717764226
7.9101804125719095
1.3624338629227082
-26.072654316373793
-13.694393172689749
5.156501116365858
-59.14277076276375
3.981348659504007
1.2305833036491407
-30.976352745875758
-8.191801467499786
0.6639615495294633
19.100303721648913
9.732075511235497
1.086259923033995
-6.777406101008221
-5.456344044628209
-30.20534698029253
-56.13126034186547
-15.149815378175536
-30.503826068607246
-8.420066561537537
-4.326929513770627
12.030132550108597
3.9243322391683715
-4.739580851497635
4.260956608621647
-22.212159490651086
-19.697880204674416
-12.259920717533394
-18.582138943009
-14.291678765741842
-11.503884125781973
7.675870841143834
31.30925425178784
-4.9345625677195475
-12.056869598369712
-19.799930596394265
9.881958431074537
-38.548501021098936
-69.38688522796375
-17.978721526693572
-49.53764739538834
-6.291144213266788
4.231467278051972
-66.32711143401974
9.61580852238638
13.628765936573744
1.4124014552832747
15.096251262807085
-5.995530994411013
-34.28148116349062
-19.404713664170004
-17.51858199452854
0.5667110383561687
2.534245269083409
-2.581039083494171
1.824930631514774
3.576662394161735
3.0331492919401857
-12.483722628063257
-6.2672987346124165
-3.7361300550506558
-5.479530181409322
-8.111221180989583
-1.4652211258515262
2.9432320593940915
-20.310337540012974
6.1299202092198115
14.33100568816311
-0.20423675061763635
-9.538328675615224
-31.92794099752894
-2.226069128313397
10.829359215597409
-40.22233993800377
-2.9428875089410464
-0.03579768396270033
8.23791136097022
5.7318989167084045
-4.25827562011951
4.138212892807006
-12.755998344412962
-20.84872147430442
-27.873048477685625
-15.221045550880067
-28.187858269141394
1.6578377417629442
6.43714448796393
-6.408796503506683
-0.7350577381896013
-2.4006477255440393
3.8647813416611587
-1.488724910450169
-14.296891516214178
-28.311781310823747
-7.2101072580030765
-28.720904745682073
4.759841242500157
4.48027908629061
-17.165117471723644
2.8191728433955205
-11.995686699330395
4.29200964139147
-5.098507466410469
-1.2568069199884233
-2.891405085166783
-11.751617932667711
-12.354313865883487
-11.268461364712243
-8.54196871307196
-8.23111134391036
15.403332752839681
-16.785399283803862
8.7801669816361
-18.80184029760162
-22.00147612016813
6.69392726649304
-12.778806999796466
-13.675005129183976
-6.13277869941232
-2.5545251178667514
-6.554535550963124
14.217079579223867
-32.8025405641298
8.62192342235764
-54.63827593120018
-18.23994536363581
-3.1955794073902184
-50.76415617147057
-12.88020230153823
-4.16961946287336
4.251255434814289
1.3432646328492348
5.231406247279348
-10.534352745030645
7.633704694147366
-15.561678098943972
-25.476786026382232
-23.498414204680834
-19.296290363606794
-33.38548103399326
1.3937507001340572
5.921490151793201
-3.851288333621591
2.883327848622934
-8.285712582337453
6.395866554828691
-12.73273041965015
-18.1912488390633
-30.906532207400957
-18.213976090119075
-38.396462782578666
-11.085040992065736
12.78270844540293
1.39486600498061
4.635932224618557
-2.3718049427628736
-5.958586846809924
-23.303927146376193
11.563554017272326
-17.86638164074297
-23.91244447530433
-35.039909808204726
6.364113541651862
7.361770974702273
-10.977272562869302
-2.092259697066199
-9.860783235012157
-0.8726842297041779
8.131677174097485
-12.32456322927392
-9.425646776205774
3.6885757643071337
-91.27636699394466
-4.9208061779418415
3.559188061041266
11.676044220542211
8.719690708628843
-12.495804891608383
-2.996220285132212
-4.310768280229209
-26.267385815599038
-37.679439322658325
-16.097710484282032
-5.204006044550862
0.23516741740715785
-15.25031180777557
20.784611494144958
1.6725423402600965
-7.656617690969694
-7.145198013533119
2.9815172752773424
13.407063382256379
-39.789125747670944
8.02829251437848
-16.684158977652064
3.903642588156435
10.274310130778996
-67.76269354659192
5.197917702806465
9.156701321298147
-3.782416896944983
4.837494193913811
-13.574329316046919
-31.1383680921935
-17.8351958291328
-63.37302792538872
-0.6339065135085464
0.7166714062787145
-2.0916201449324
5.297568803088366
-2.054041458423053
7.383292260258898
-25.471712911296436
-9.961733428462601
-17.981607339188884
-24.442531491444512
-28.38541921098459
-15.530210079222638
4.485140039552391
31.8228812099711
3.127611794829837
-18.299695944760092
-23.92497284901115
8.530473178535855
-43.31545348901955
-77.9750041205611
-14.050334047776301
-59.062319859974124
0.11308364739849619
4.212498237343499
-7.720951620049652
2.2829673281127665
-2.0584564109655856
7.922491711100984
-16.39598122082138
-16.65786643540413
-21.982873064817973
-17.720874721503236
-40.14907103402431
-24.304434529655747
31.578288811502322
0.7259268556779355
-0.6108815248358179
-99.94180344663292
-11.054252915283042
-22.326428434106134
-29.487582454931243
-16.063794178726123
-28.441087005394138
-20.767232159440766
0.40028198554491734
-4.405943678248512
-1.1960743933368159
-1.6010316589401112
22.260639642892293
-0.48228737552371426
-18.314411260202174
6.8104362478477025
3.754592168783618
-5.732578884035538
-4.479765082979237
0.6757167825278652
4.891028535498847
-8.932973655378094
2.3637151650063926
-4.774763754245833
6.30568978834695
-11.228461215761165
-16.880207059641332
-16.245313352344365
-14.420578206272095
-11.782864387278316
0.26956643127309476
-1.6899756648846962
0.7542413603123554
3.459010287437291
-15.30225893606629
9.000874749509473
-13.552946257819634
-8.801683940189823
-17.505570083707205
-17.05405858010925
-18.860817416692697
-4.672319633654874
